-0.15609701
-0.58536416
-0.54338855
0.16166526
0.047551356
0.6885243
0.2753891
-0.5986936
0.5890914
0.75981766
0.09512212
-0.20815875
0.07212513
-0.5667861
0.5968937
0.7785177
0.8270166
-0.12757777
0.501692
0.3722268
-0.52025384
0.25165334
-0.20545267
-0.45160127
0.3861642
0.8331341
-0.08284425
0.4231452
0.27923092
-0.23855495
-0.72689724
-0.9792146
-0.06760858
0.6127609
-0.3089172
-0.4219878
-0.92482364
0.20437884
-0.6492197
-0.40522614
-0.2820368
-0.8370279
0.21979384
0.6499457
-0.60668373
0.8182378
-0.37679935
0.42296585
-0.544709
0.6880224
0.82644325
-0.5859836
-0.62972313
-0.12666039
0.33611777
-0.8413818
-0.30304238
-0.65909016
0.18389766
-0.93353206
0.260979
0.6370454
0.80793166
0.81764597
-0.05510513
-0.13620873
-0.8218854
0.076887056
0.84129345
-0.20789199
-0.5049844
0.7028758
-0.1543156
-0.2313578
0.986274
0.027822291
-0.14851578
-0.5167849
0.9725865
0.71240145
-0.654452
0.71807736
0.6081435
-0.6731232
-0.20751691
0.8163815
0.099354215
-0.83962464
-0.3724406
0.54036754
-0.94900626
0.66287327
0.69969046
0.6230507
0.4072345
0.896011
-0.6486713
-0.77293843
-0.7063078
0.76215094
-0.56386214
0.68052197
0.48575306
0.14898613
0.34625766
0.79271877
-0.78383166
-0.8470483
0.21493492
-0.35163754
0.63567305
-0.2597332
0.7821869
-0.19754174
-0.5596675
1.0568777
-0.21111201
0.30082175
-0.39710316
-0.17930368
0.48252085
0.5158561
0.997446
-0.20979954
0.05227406
-0.8695334
1.0027148
-0.6027771
-0.7388218
0.7700356
-0.39789438
-0.84904194
-0.7173961
0.114713356
-0.1068292
0.6039806
0.48802635
0.22793339
-0.90899974
0.79966986
0.3842488
-0.008583614
-0.08660826
-0.14576831
-0.7313187
0.41848218
0.41167074
-0.79398274
0.8258489
-0.6835741
-0.28035218
-0.13648812
0.5648068
0.6900579
-0.32376394
0.5242345
0.11583547
-0.58732325
0.18395959
0.5643051
-0.53138614
-0.7064092
-0.34707594
0.3669969
0.10813888
-0.37874565
0.25785744
1.0062785
-0.66777295
0.3125905
0.37268522
-0.19885927
0.28067568
1.0329642
-0.19150901
1.2225423
0.82820326
0.3941232
-0.42449263
0.6364608
0.38619882
-0.24361907
0.6170317
-0.4964211
-0.7254564
0.5187386
0.26218235
-0.54755485
0.9120574
0.65752906
0.57833123
-1.0522709
0.2901524
0.6196263
0.519685
-0.058800213
-0.18038294
-0.8830269
0.6392563
0.7244873
-0.6581263
-0.058933698
-0.77089894
0.549552
-0.8218724
-0.3348188
-0.17249814
0.6295511
-0.91883826
-0.34742817
0.75673
0.90524733
-0.8274079
0.070644155
-0.5355265
0.32323825
-0.42413545
-0.46711308
0.9555948
0.8510699
0.8485353
0.8474669
0.7399079
-0.4598923
0.55236685
-0.68902373
-0.20445886
0.5845271
-0.06856317
-0.5102323
-0.59769136
0.32764274
0.42905778
0.39882195
0.76162136
1.1098944
-0.32964906
-0.25358188
-0.29066333
-0.23633969
0.34247676
-0.6771919
0.63321346
-1.0834994
-0.5096755
0.6836325
0.99561816
0.050069105
-0.059332985
-0.1093108
-0.0531888
0.72122604
0.29832694
-0.6861735
0.71571255
0.18643437
-0.95442086
-0.22729279
1.0225649
0.71595895
0.5614627
0.09833513
-0.1223917
-0.49359936
-0.76252294
0.08899043
-0.71835047
-0.4553119
0.8121085
-0.10536836
0.15588342
-0.91518414
-0.34264797
0.5468234
-0.44595987
-0.8199175
-0.44914204
-0.10202823
-0.07913158
0.6827969
-0.50197184
-0.18866797
-0.3205372
-0.003408919
0.9498923
0.5804554
-0.7414021
0.47064337
1.1120375
-0.39605016
-0.81434244
0.3962883
0.98707
-0.45837876
-0.3158148
-0.2543853
-0.046878602
-1.092899
-0.20084809
-0.39615425
-0.27819502
-1.0547146
0.56838596
-0.029146813
-0.4837545
-0.061095875
0.33984005
-0.14119253
0.85114455
-0.36137155
-0.68868744
0.08007038
-0.51800126
0.91129154
0.34138703
0.81340647
-0.80570185
0.032566916
-0.78399724
-0.8800969
-0.3559863
-0.39455926
0.40408382
-0.4654912
-0.086561956
-0.43019402
-0.47913232
-0.009629257
0.17495078
0.13536197
-0.63944566
1.0931938
0.31544316
-0.82231045
0.1989043
-0.66719383
0.7627953
0.37503314
0.6220213
-0.46242824
-0.8350717
-1.03499
-0.3409587
0.7945905
0.29650775
0.62350035
-0.6405402
0.69112647
-0.90872353
-0.2505481
0.9820914
-1.019857
0.17378752
0.13232854
-0.410513
-0.31420583
-0.0038235139
-0.5122278
-0.16601112
-0.12799202
0.61450917
0.18894258
0.061295
-0.36219952
-0.41983598
0.7037996
0.7373414
0.062691845
0.47094175
-0.354041
-0.51229185
0.80389535
-0.97321737
0.7434975
0.12317348
-0.49817845
0.8148344
-0.7402216
0.551782
-0.46734622
-0.71914035
-0.88474655
0.17026286
0.5314564
-0.12465005
0.06889408
0.3894571
0.60427076
-0.994547
-0.10090945
-0.3392575
-0.7029214
0.6681391
-0.49679357
0.40548962
0.18639138
0.34986743
0.48644227
0.7090136
-0.5295295
-0.6930247
-0.90696234
0.82211614
-0.14114314
-0.10310673
-0.9644657
-0.42398706
-0.4548334
-0.3084563
-0.8083132
0.6319814
0.28326243
0.50002354
-0.41881356
-0.9929725
0.48423186
0.8012259
-0.44394165
-0.7720873
-0.87709373
-0.20235425
0.81324846
0.7531459
1.1004087
-0.62742186
0.75690913
0.7165437
-0.6778955
0.79923785
-0.22626385
-0.8291749
-0.2944929
0.1383215
0.55680335
1.1237789
-0.4363891
-0.27113557
-0.59390837
0.15324202
-0.65677005
-0.7723335
0.9480444
0.6017537
-0.63659227
-0.28662083
0.33519158
0.33751053
0.35707965
0.27390367
-0.8651073
0.60931635
-0.455323
0.5986349
-0.76568717
0.84506845
0.076393306
-0.5822883
0.9506231
-0.3127475
0.24352115
0.5790772
-0.06992068
-0.88746697
-0.24612735
0.029144341
-0.7106945
-0.6645525
0.49420947
0.27742162
0.5027485
0.3603978
-0.27351046
0.77276295
-0.012224683
0.46626237
-0.8247306
0.3725337
0.77278554
-0.43662202
1.018217
0.54069084
-0.23555115
-0.8655356
-0.44173625
-0.35254306
-1.0976384
-0.19297084
-0.3892503
-0.049110178
-0.75827146
0.72212195
-0.771028
-0.4733028
-0.6627025
0.4566695
-0.16345732
-0.015249961
0.6492618
0.65960354
-0.37762144
-0.4075458
0.6880502
-0.26452756
0.4686808
-0.062197294
-0.10524836
-0.44472715
0.13196906
0.4691571
-0.8197174
-0.73147815
0.056161515
-0.17958015
-0.68402624
0.38580155
-0.6480428
0.22963819
0.32618767
0.5382957
-0.6557787
0.20141488
-1.0852262
0.20926027
-0.7135224
-0.48189643
-0.9281724
0.112001345
0.63499874
0.007085904
-0.03717346
0.584936
-0.5853381
0.34138262
-0.013956087
0.87008214
1.0074564
-0.61202854
0.575405
0.1916121
0.38918182
-0.10030131
-0.14898756
-0.11816596
-0.54018795
-0.6975965
-0.11911763
-0.13861132
0.58220315
0.29347315
0.17274562
-0.72393376
0.6025463
0.05177039
0.12182363
0.24472758
0.7273923
-0.0039921585
-0.15441372
-1.1295707
-0.42440775
1.1500744
-0.1343976
0.8353911
-0.43460265
1.1383044
0.66279954
0.24054544
0.12858135
0.72206324
0.2666195
-0.4033054
0.43807012
0.068940185
0.3983545
-0.3150527
-0.25669387
-0.49770215
-0.3809446
-0.18107218
-0.24668297
-0.46934402
-0.0400259
-0.18501897
0.023833841
-0.08979236
0.5349018
0.5699959
0.55048466
-0.41181126
0.6022924
-0.95456666
-1.1163263
-0.6600739
0.5158463
0.64834476
-0.5761353
0.19672206
-0.082189776
-0.5128057
-0.56035817
0.20536795
-0.7222086
-0.2530574
-0.41634256
0.7319621
-0.6483407
-0.6665523
0.2650174
0.044093806
-0.83291006
0.567904
0.16154887
0.3277089
0.46179214
-0.02070968
0.6068622
-0.030919436
1.0297327
0.55718863
0.6061984
-0.08311216
-0.32912067
-0.026477959
0.7854567
0.9005122
0.70088667
-0.5650295
-0.09562859
-0.82902724
0.43436018
-0.18022282
-0.14871153
-0.30557328
0.17243433
-0.9381399
-0.39316517
-0.50246346
-0.2797451
0.36991337
-0.36269674
-0.12688212
0.38840765
0.98514456
0.015055593
-0.7589689
-0.72120607
0.7708834
0.778665
-0.77812713
-0.6663518
0.3010682
0.20628732
0.15955459
-0.4569273
-0.22980046
-0.2163225
0.21624114
0.31365114
-0.6048518
-0.7140506
0.7840585
-0.79812485
-0.5771662
0.60422564
-0.3899418
0.8197311
0.85756576
0.51142615
0.12528741
0.7603293
-0.055764798
-0.89841723
-0.7034523
0.46570927
-0.89424586
1.0588605
0.43647632
-0.29764682
-0.87634236
0.33044687
0.69601184
-0.20011555
-0.46792576
-0.46809018
-0.33187878
0.73681253
0.6094203
0.40076628
0.56564057
0.49433962
0.2651473
-0.40727955
0.43528998
-0.2585494
-0.57752675
0.46455947
0.1065146
0.07752476
-0.41740438
-0.72197384
0.7799472
-0.24889785
0.22719306
-0.4560991
-0.5012321
0.93534756
-0.586326
0.20063424
0.5650176
0.4036562
-0.13010114
-0.29592073
-0.13666356
0.28741005
0.22616838
0.83406746
-0.8269307
-0.5936606
-0.3639422
0.39055303
-0.5533545
-0.64869285
-0.14744471
0.326986
0.104038976
0.5913509
0.6258304
-0.13348104
-0.9769714
-0.25056532
0.61962336
0.49001572
-0.06704668
-0.86819893
-0.3545028
-0.47523865
0.07038403
0.24327382
-0.19443195
0.004786288
-0.65678495
0.30189654
-0.8622369
-0.9345848
0.5019809
0.2749434
0.35567158
0.8066
0.10794908
-0.22582895
-0.5276936
-0.13476217
0.90118015
-0.59539217
-0.1159449
-0.13063103
0.1475481
-0.40559137
0.9636824
-0.9018998
0.55300474
-0.46444818
0.91101843
0.26257277
0.44892296
-0.709463
-0.5305841
0.48996726
0.39828143
-0.4895775
0.6025577
0.69005316
-0.28514633
1.0936333
0.1799664
-0.99337107
0.92673665
1.0315182
-0.88639903
-0.17520319
-0.54587865
-0.67898816
0.3024745
0.093332015
-0.5888779
0.9041075
-0.01958074
-0.3582722
-0.75315905
-0.21877187
0.73979187
0.6105886
-0.6945426
0.7895242
-0.22163378
-0.5320724
-0.6182673
-0.02500523
-0.28627184
-0.17567915
0.424109
0.22760114
-1.0077147
0.55312663
0.083929084
-0.89446205
-0.46241194
-0.0137290545
-0.75230825
0.42655748
-0.926801
0.6403738
0.037430547
-0.73269403
-0.77519196
-0.37353465
0.5378164
-0.3375224
-0.5434136
-0.40683222
0.14102384
-0.45532167
-0.7132908
0.34507614
-0.32380226
-0.31278884
-0.58046573
-0.9850302
0.1583172
-0.46085146
-0.9426153
0.033577636
-0.7796776
-0.656243
-0.45010692
-0.83801806
0.89985925
0.38569206
0.07456338
0.8670519
-0.9665122
0.3049454
-0.15874158
-0.87504447
0.69543666
-0.17445156
-0.15400112
0.74689883
0.19784644
1.0477499
-0.7964535
0.8707959
1.0241804
-0.47360957
0.20553263
0.8362425
0.73278475
-0.6356441
-0.60617286
0.021410646
-0.97986645
0.6853705
0.45403668
-0.44463804
0.35150164
0.7828633
-0.31936342
0.8969068
-0.46941456
0.4625635
-0.957367
-0.14756644
-0.05478365
0.38035753
0.4616015
0.09285238
0.16553117
-0.59705454
-0.2015373
-0.21071908
-0.14129747
1.0001998
0.4096
0.037139036
-0.749676
-0.11666865
-0.295241
-0.30711713
-0.01978291
-0.25387505
0.05972236
0.6823376
0.57726365
0.035981137
0.82655925
0.51200974
0.17567366
-1.0586886
0.076994784
0.8970105
1.0152231
-0.5705815
0.66646284
-0.55933
-0.83510506
-0.5846094
-0.9732922
1.0197257
0.27316374
0.9044649
-1.2317935
-0.5153196
-0.36409664
-0.3373158
0.54981077
-0.019284986
-1.2287277
-0.35359034
-0.7776084
-0.5203388
1.2082461
0.19493972
0.3944593
-0.40890577
0.05957668
-1.009551
0.042291205
0.6310853
0.2070012
0.77463645
0.8168869
-0.58805895
0.50425804
0.84129405
-0.2288286
-0.027220426
0.46624875
-0.56357664
0.66820943
-0.95789844
-0.5972789
0.0797989
0.3349114
0.59441376
-0.51938844
-0.07248632
-0.56049705
0.8562081
0.49565473
-0.67676026
-0.61444795
0.18668649
0.6364256
-1.0134504
-0.897722
-0.17851008
0.25806147
-0.95981264
0.19347262
0.9367172
0.39847386
-0.42572498
0.45186093
-0.27974603
0.13924915
-0.14105475
0.413191
-0.47901005
-1.0135572
0.9887002
0.69600266
0.7464273
0.00952658
0.33257276
-0.2709566
-0.61445326
-0.49035823
-0.70649534
-0.91929615
-0.70302975
0.03540133
0.22030479
-0.75042
0.057645038
0.18915296
-1.1550022
-0.051092573
0.6066945
0.47999102
0.8882854
0.39636016
-0.30236724
0.47865894
-0.18805791
0.7251813
0.94777834
-1.0088363
-1.0337019
0.85591656
-0.02690708
-0.9248138
-0.8375094
1.0773387
0.721702
1.1304287
0.92239225
-0.78950685
-1.0079746
-0.65697366
0.46240824
-0.73632944
-0.6911535
-0.1875716
-0.30895388
-0.4512149
-0.18064024
-0.5810872
-0.09655859
-0.9191592
0.7185815
0.5335313
-0.17753865
1.1872728
0.62260044
-0.4238686
0.14640187
0.1128319
0.89194995
0.5137926
0.3458397
0.6235992
-0.023675436
0.73432225
1.1286563
-1.2012293
-0.51824415
0.3841792
0.35775238
-0.6191276
0.16908404
0.769227
0.83378124
0.31277436
0.7162258
-0.0831802
0.004929669
-0.020567274
-0.6656806
-0.34384137
0.23197739
-0.08739674
0.7179824
-0.8738662
-0.6959068
-0.34743235
-1.0041565
-0.499434
-0.12502928
-0.70057374
-1.0165073
-0.3140696
-0.19149515
-0.573808
0.80784
-0.7534161
-0.33480468
0.79611063
0.5322826
0.54170793
0.012395366
-0.64284545
-0.718286
-0.11488731
-0.36616552
-0.10804802
0.84991294
0.66728735
0.3606884
-0.23449795
-0.2152307
0.22387612
-0.79357684
-0.46419796
0.3846184
-0.6368727
-0.096434295
0.37546262
0.31182545
0.121079065
-1.0370934
0.018914727
-0.731649
-0.41685835
0.07218596
-0.05836774
-0.25388134
-0.037491977
0.9651046
0.5792229
0.20482163
0.36536708
-0.051416628
-0.00781842
0.7142478
-0.36644349
0.19749935
0.005813555
-0.22589268
0.58868104
-0.5493168
0.63404566
0.4632232
0.94265664
-0.68711495
0.6970752
0.45235196
0.63618946
0.28788814
0.45268816
0.26616988
-0.45069906
-0.45159465
-0.2416501
0.38851696
1.0855246
0.14508533
-0.44394395
-0.37958056
0.22895665
-0.57992023
0.6375723
0.31540585
-0.29889935
-0.1746491
0.5183194
-0.10211411
0.5892758
-0.26765707
-0.5472861
-0.3675376
-0.9616711
-1.1546842
-0.6593074
-0.60003597
1.1052982
0.05096536
1.2693548
0.7066517
-1.00941
0.26587614
0.91757977
0.09299006
-0.44102857
-0.095924474
0.20851211
-0.7413438
-0.43905562
-0.5433139
0.61086667
0.5636933
-1.0254999
0.57128114
0.8994072
-0.588705
-1.145352
-0.8906687
-0.24815169
-0.5532986
-0.26472434
-0.6064822
1.0888426
0.16996479
-0.53407764
-0.4787878
-1.1003238
0.50937885
-0.42621484
0.761281
0.07359526
-0.19024557
0.025071034
0.5713212
0.3292937
0.20610714
-0.88579285
-0.7672918
0.9812102
0.47336686
-0.4150607
0.7820656
-0.50379866
-0.99340796
0.37119907
0.91343015
-0.08315548
-1.0143018
0.13716361
-0.2705247
0.12224659
0.286624
-0.8991664
-0.67452407
-0.93084764
-0.35461175
-0.3542982
-0.6760178
-0.62582886
-0.66313434
-0.29361424
-0.5087366
0.7923374
-0.041237846
0.59375364
-0.64206207
-0.9778519
1.1011785
-0.47037557
0.40832376
-0.13136654
-0.4325182
-0.764686
0.51320875
-1.0646813
0.1452434
0.756404
0.79616463
0.53991294
-0.4127885
0.2511007
0.598222
0.46651977
-0.71978086
-0.76343405
0.7610399
0.08074955
-0.04523911
-0.6334094
0.12459446
0.38639328
1.0035789
-0.6063521
-0.25271213
-0.17085925
-0.49341303
0.01752961
-0.16074447
-0.46838385
0.8925671
0.12078904
-0.71362424
0.65274644
-1.1618705
-0.057405476
-0.7532167
0.8549275
-0.0799731
-0.74338
1.013187
-0.031390674
-0.44465044
-0.32135102
-0.7842424
-0.079888396
1.016719
0.5674844
0.25492454
0.9081744
0.0069333427
0.25371876
0.44061908
-0.8714781
0.7854535
-1.0756696
0.5533276
-0.1908517
-0.74279
0.30313602
0.39378613
0.8564751
-1.0134275
0.046480972
0.33719835
-0.15303338
0.4591924
1.1529669
-0.51568574
-0.45925233
0.0924114
-0.48363528
-0.8397133
-0.7502433
-0.73921055
0.5102724
-0.9177899
-0.13337353
0.88511723
0.8699376
-0.44493183
0.711153
-0.29690266
0.8307676
-0.35435325
0.7856263
0.5352529
-0.4397029
-0.41481677
-0.7293114
-0.54424757
0.5359416
-0.6123884
-0.009484412
0.45504692
0.6009864
0.63625044
-0.576393
-0.21584812
0.03175502
1.0949292
0.44202176
0.02522947
0.64042026
0.72089946
-1.0196943
1.166419
0.13381627
-0.30110338
1.0621173
-0.8557689
-0.19497451
-0.18418315
0.35412323
0.34878302
0.5002222
-0.16888179
1.4364841
-1.0728723
0.25042132
-0.19319192
0.4116884
-0.32197165
0.4961091
-0.5288743
0.6723371
0.8377891
-0.16825385
0.3933028
-0.04899234
-0.669638
-0.4128669
0.11519841
-1.0081182
-0.5214747
-0.8816034
-0.1690419
0.26240203
0.40364
-0.13755703
-0.3012379
-0.10875915
0.5382743
0.3163064
0.5743897
0.99842197
-0.59359986
-0.0610498
-1.0710194
-0.13685103
-0.6003161
0.81815267
-0.5197875
0.003582059
0.09651702
0.42711142
-0.34990928
0.45659998
0.30235255
-1.0733786
-0.6341818
-0.33992174
0.48315835
-0.57636005
-0.5062314
0.11816151
-0.6967389
0.46743563
0.37915987
0.6862211
0.089807294
0.26669067
0.12518522
-0.45687804
0.16073494
0.10242555
-0.6284033
-0.30632603
-0.614686
-0.25892243
0.64329046
-1.1639637
0.95816547
0.05530813
0.12190494
0.11772253
0.16834125
0.7009461
-0.8935936
0.27008727
-0.35070884
0.8399758
-0.58075
0.01838218
-0.3701354
0.8216654
-0.7978945
0.10271467
-0.30859512
-0.93444365
-0.11535318
-0.589889
-0.22313547
-0.8027193
-0.3335238
-0.1273813
-0.41233072
-0.34689462
-0.42940983
0.0026248991
-0.13198128
-0.42677748
0.1365084
-0.9852724
-0.37956217
0.8117643
-0.73926616
0.05676361
-0.045557763
0.8995905
-0.8804074
-1.0326806
0.64580035
0.3466121
-0.4233205
0.6430225
0.09983145
-0.10708994
0.51039994
-0.7185385
0.26986644
-0.21547578
0.8484371
-0.12108166
-0.67973125
0.17121258
0.88927126
0.36827073
-0.624672
0.16047013
-0.34326446
0.49380472
0.18413442
-0.39093012
0.64367443
0.8959645
0.81329197
-0.039814197
-0.25215986
-0.18588051
-0.7481496
0.29279798
-0.20116632
-0.5874448
-0.47252157
0.33888534
-0.6402239
0.74797773
-0.6109947
-1.0769814
0.9749304
-0.4235082
-0.91678894
0.5440398
0.64469624
-1.1051712
-1.0546149
0.5265735
-0.22012712
-0.16159691
0.118723236
-0.2606584
-0.7022513
-0.882733
-0.22070745
0.7364946
-0.10963246
-0.6423463
-0.057156738
0.8895108
0.86344326
0.49490696
-0.67142344
0.19647615
0.88972235
-0.9587055
0.21140644
0.47134808
-0.27561864
-0.59094363
0.9371048
0.46026346
0.07305984
-0.7297582
0.6277761
0.5340947
-0.3058083
0.331761
-0.46366596
0.37392858
-0.17487931
-0.5024212
0.6200781
-0.64591956
-0.7102161
-0.11391174
-0.055562917
-0.13702856
0.40778935
-0.3396901
-0.6745796
-0.27338603
0.62568194
0.053632367
0.66036445
-0.2984079
0.42872795
-0.7173372
0.051188927
-0.5151981
-0.15531646
0.03389607
-0.0970402
-0.6134698
-0.21463646
0.74771476
0.57014567
0.56541866
0.3067931
0.22687617
0.4523685
-0.8203737
0.071940474
0.89082336
0.36497593
0.4933276
0.017443204
0.99841154
-0.3014438
-0.5184821
0.35816196
0.093889445
0.80505764
-0.476505
-0.7800897
-0.5340391
0.66370976
0.653009
0.74098974
0.7986711
-1.0991613
-0.42122462
-0.67697287
0.93439656
0.19694085
0.5687605
0.22196947
-0.12356129
0.9786917
0.41985658
0.17529552
0.8803815
0.68595964
0.045622632
-0.98572344
0.25571623
-0.0066525843
-0.06914957
-0.90810907
0.5394281
-0.08676284
-1.0991517
-0.46237427
-0.008067446
0.37815285
0.19716072
-0.7188549
0.41602936
0.073605046
-0.03329997
-0.055854935
-0.7163759
0.3946384
0.77402633
0.31821534
0.96478665
-0.9624022
0.8902062
-0.8139236
-0.28855026
-0.51842403
0.7998571
0.68446285
0.7121415
-1.028455
0.7525918
-0.47847965
-0.7184954
0.30441597
-0.051995806
0.29293102
0.42975605
1.1134813
0.9421268
0.4392223
0.31841373
-0.53243923
0.60329235
-0.19370462
0.38390288
0.9272192
-0.5372094
0.19577135
-0.7487034
0.72102934
-0.5707733
0.34269288
0.44750625
-0.56208336
-0.52251285
0.2633949
0.46212366
-0.60269314
0.042590577
-0.6715195
-0.6098332
0.77664906
-0.0016613443
0.9276586
-0.9079724
-0.5593148
0.2685601
-0.52385175
-0.8797569
-0.8566533
-0.30479068
1.0691938
-0.33329117
0.037642688
-0.31591353
-0.40999773
-0.01968112
0.2511429
0.37258926
-0.48013178
-0.3012608
-0.61257106
-0.6283812
0.04597297
0.12932812
-0.023553804
0.5494467
-0.5396841
-0.09965696
-0.010951318
-0.6257397
0.68718135
-0.654419
-0.69096625
0.35536733
-0.15216242
0.7492364
-0.3762748
0.9408458
-1.0958731
-0.28520492
0.25511795
-0.13208696
-0.7145894
-0.28642556
-0.8051506
0.7212141
0.3479008
-0.40480524
0.5074474
-0.08221255
-0.7411921
1.0523076
-0.106061295
-0.51379126
0.6204507
0.16445333
0.47634873
-0.5042967
-0.48244888
-0.1999954
-0.6105389
0.5069443
1.0871316
-0.1661254
0.18817842
0.572446
-0.9566973
-0.009679224
-0.10366186
-0.8883185
-0.8365378
-0.663451
-0.44221658
-0.14689615
-0.28465378
0.51626915
-0.84734255
0.42521465
0.3277141
0.17791723
-0.46221185
-0.68538886
0.44228086
0.052896004
-1.1052113
-0.22762199
-0.6724189
-0.433604
0.8406125
0.3583833
-1.0391045
-0.65349984
0.40103364
-0.3852903
-0.018620487
0.6278161
0.276349
-0.5358731
0.71224815
-0.05633142
-0.7085304
-0.68118274
-0.6740454
0.6246951
0.057618562
0.64210194
1.0221052
0.4434399
1.1272041
0.6496627
-0.2726088
0.3400176
-0.29837424
-0.6331183
0.4020714
-0.8830167
1.048241
-0.29372177
-0.039158754
0.43051505
-0.55443555
0.010999348
-0.3081815
-0.47360352
0.35041195
-0.95104027
-0.3269128
-0.64705867
0.5884338
-0.48493433
0.085412644
0.031758633
0.47179192
-0.7106092
-0.99724215
0.38389564
-0.52945423
-0.8335272
0.21379095
0.77280796
-0.11012262
0.62332815
-0.078796215
-0.8924434
0.57203525
0.03597101
0.34681797
-0.8794845
-0.050055616
-0.048248183
-0.71911746
0.21257386
-0.38469106
0.62119
0.8179364
-0.012644518
0.7791542
-0.98969567
0.39818144
-0.16453838
0.3844906
-0.66540563
0.40187836
0.48015726
-0.71757185
-0.52820265
-0.22856498
-0.13884592
-0.52619505
0.35046792
0.14304483
0.7824234
-0.12872672
0.67318857
0.8209778
-0.90509045
-0.84889877
0.3611189
-0.4233874
0.19915295
-0.09801197
-0.33588302
-0.060349584
-0.26754415
-0.8696557
-0.98252296
0.6570401
0.42719018
-0.6007935
0.92772245
0.97433233
-0.16047132
-0.56832683
0.47443604
-0.9458331
0.25375414
0.85851145
-0.3330598
-0.20131278
-0.7988688
-0.8771541
0.5441563
-0.5205308
0.9851177
0.093295455
0.10980165
0.57385254
0.8237281
-0.56745636
0.91613567
0.015476704
0.8086461
0.5042926
-0.78314006
-0.5743494
-0.9010229
-0.1076684
0.37892175
-0.18147266
0.53137136
-0.7032559
0.85549796
0.5657251
0.20987248
-0.45896828
0.06623232
0.14511716
0.36679244
-0.9216356
-0.4999814
0.24533677
0.74493575
0.16471016
-0.84935844
0.29468048
-0.51738775
-0.25802374
-0.17694533
-0.6456213
0.6833575
-0.95255995
-0.879122
-0.233289
0.87563074
-0.4301107
-0.8370178
-0.035499454
0.9237577
0.7724503
0.8041736
-0.30228305
-0.19396377
-0.9072027
-0.21634567
0.6640589
-0.64849997
-0.75977397
0.63299096
0.47357678
0.5018469
0.39417124
-0.91308045
0.14393961
-0.92574143
0.25957823
-0.6941501
0.30544448
-0.86472607
0.27183473
0.49502528
0.1671251
-0.09719682
-0.1803459
0.9548614
-0.4875722
-0.82370853
-0.048398376
-0.41085005
-0.2087915
-0.58626616
-0.5346874
0.20797038
-0.7281554
0.144714
0.8935691
-0.72805357
0.5118847
-0.9968393
0.07524204
0.12179804
-0.3220638
0.51059985
-0.36014616
0.21612132
0.85677564
-0.7749071
0.78165054
-0.13863373
0.092499256
0.033810973
0.6232686
0.6677141
0.88277614
-0.5944383
0.77231395
-0.7841244
0.9759731
0.18707919
0.3896358
0.7918818
0.016434908
-0.96672475
0.28021586
-0.43490052
0.65509796
-0.5270585
-0.21786118
-0.819366
-0.27428794
0.7498591
-0.8070277
-0.25115025
0.8133383
-0.57657576
0.2943157
0.88610685
-0.3772155
0.89751196
-0.596318
0.44235635
0.8828428
0.86237097
-0.9809983
-0.60040045
-0.228603
-0.47083604
0.27680027
0.103297114
-0.028208137
0.6138251
-0.5962683
-0.6342553
-0.79141414
-0.45400608
-0.5829165
-0.6683985
-0.52144
0.25589263
0.36881495
0.50281894
0.9894303
0.1994288
-0.69339037
0.57104695
0.12419987
0.7480285
0.25249934
0.19434202
-0.57518554
-0.42049026
0.31432724
0.48205197
-0.22266734
-0.1992979
0.5183445
0.5237559
-0.39399076
-0.09121907
0.08454418
-0.97203505
-0.84939325
0.7099166
-0.80687296
-0.8568872
0.7962167
0.47061622
0.37521636
0.3425362
-0.78453386
0.04507017
-0.4006971
0.29834306
-0.18195891
-0.17682958
-0.9561478
-0.21584833
-0.98795295
-0.94283617
0.104255915
0.577814
0.17718291
-0.41509664
-0.9317002
-0.7672019
-0.57640076
-0.034624457
-0.6707336
-0.49246657
-0.66351926
0.5248927
0.24164021
0.6486188
-0.56009126
-0.61646366
0.54433215
-0.01451242
0.2907505
-0.04908359
0.4948585
0.18631113
0.45177293
-0.93593955
0.82068276
-0.27074957
0.3917036
-0.539449
0.67792165
-0.25249386
-0.8013388
0.8653947
0.92102754
0.40513456
0.23355043
0.0052984953
-0.9306567
-0.24633718
-0.8657298
0.39007175
0.8782817
-0.086199164
0.333727
0.9150189
-0.113729954
0.13489926
-0.82024014
0.09396362
-0.25328088
-0.57361853
-0.670493
-0.96028626
-0.36842597
0.055573106
0.10203874
-0.16665006
0.10520196
0.19681096
0.46009302
-0.5120336
0.2413938
0.73531485
0.08453941
0.7949308
0.55034125
-0.07979667
-0.7848934
0.5761174
0.6860151
-0.12539029
0.4505086
-0.4550718
0.6381465
0.46375084
0.2042253
0.5495125
0.92893946
0.6569109
-0.046090245
0.5369375
0.5159222
0.16576362
-0.4609549
0.39693105
-0.036562443
-0.92533875
-0.4293815
-0.1657952
-0.1681217
0.58010685
0.31707072
-0.34843445
-0.9771583
0.4144888
-0.6973344
0.030522585
-0.58188295
-0.46256423
-0.84093165
0.45668912
2.824068E-4
-0.86276734
0.1508627
0.39495027
0.7133696
-0.29873276
-0.8251586
-0.6285846
-0.3844725
0.10134745
0.1162231
-0.880916
-0.07494843
0.41606796
-0.7811823
0.4017167
-0.068964005
-0.8963765
0.8581697
0.21161294
0.52591705
0.5761813
0.84566677
0.56413805
-0.55370903
-0.950948
-0.5324044
0.06341851
0.83878684
-0.5114474
0.9874916
0.9244025
0.18893087
0.7120533
-0.29457152
-0.0025156736
-0.8164649
-0.7411442
0.047968984
-0.49962282
0.9731486
0.014180422
-0.9875791
-0.77859604
-0.6562809
0.099764705
-0.15486097
-0.32137132
-0.68971574
-0.98120475
-0.3865292
-0.48371208
-0.04405999
-0.8582494
-0.36662424
0.86606383
0.33348846
-0.56888926
0.1198535
0.724385
0.8332268
-0.17906868
-0.703606
0.982921
0.53778625
-0.7076191
0.17532516
0.63875306
-0.7955624
0.7251364
0.7269807
-0.89936364
-0.8611734
-0.23009074
0.8971331
0.2518251
-0.6151235
-0.10150719
-0.60453534
-0.96211934
0.41805208
-0.53005993
0.13055325
-0.51426363
0.48902643
-0.9635229
0.15776491
-0.94967484
0.5489818
0.53838575
-0.13435793
-0.49421096
0.454502
-0.25247872
0.46519136
0.88446105
0.08874762
-0.035265326
-0.44251776
-0.490546
0.8670298
-0.8861016
0.311993
-0.5869372
0.57098174
0.9673742
-0.45373476
0.48681533
-0.14053345
0.15375614
-0.507017
-0.17034817
0.45060432
-0.8860462
-0.70885503
-0.13561308
-0.29643238
0.46780646
-0.9576061
0.95158184
0.028013587
-0.081694245
-0.28813612
-0.82725644
-0.37857652
-0.6516794
-0.9135535
0.5661324
0.9196336
-0.94417155
-0.42525983
-0.08057952
0.814183
-0.06528175
-0.23405778
-0.048735023
-0.85626996
-0.9478681
0.5646758
0.7020588
-0.261114
0.6191819
-0.628479
-0.287542
-0.045146585
-0.67486954
0.4524268
-0.7372172
-0.7400669
0.8373662
0.3830483
-0.10069239
-0.81277394
-0.20133531
0.5964558
0.6633141
-0.54008174
0.6234157
-0.28407037
3.4046173E-4
0.056841254
-0.043881655
0.9112625
-0.9486563
0.61525965
0.86513996
0.15097427
0.8617573
0.12399483
-0.83460677
0.3891672
-0.4078046
0.12526214
0.06434107
-0.33923912
0.83558583
0.43242383
0.3819908
0.28010142
-0.94416475
-0.9710504
-0.41107285
0.14428449
0.53499067
-0.28182018
-0.07515907
0.11403692
0.27778983
0.1522106
0.89758337
0.94299245
0.45925212
-0.9791827
0.91991246
-0.106738806
-0.74644065
0.898499
-0.97558284
-0.56485426
-0.551808
0.031431317
-0.7804756
0.9867891
-0.02037847
-0.7704594
0.73013234
0.99177
-0.5644108
0.07653022
0.13067317
-0.4732256
-0.6798587
-0.52180684
-0.8420725
-0.37371206
-0.7066047
-0.23631608
0.12357867
-0.5631335
0.15701532
-0.70618236
-0.42354488
0.7812537
-0.30667663
0.0043416023
-0.15795672
-0.3849659
-0.12810445
0.2412144
0.8488189
0.86943865
-0.14034808
-0.61883664
-0.799891
-0.7515458
0.8123536
0.35738623
0.63572717
0.42284358
-0.15315127
0.64166677
0.12488794
0.7556484
-0.1896373
-0.6839081
-0.9774411
-0.9979563
0.54788697
0.4769392
-0.40666723
-0.56888247
-0.95021415
-0.24164414
-0.74575555
0.37959826
0.023889542
-0.31637657
-0.9888973
0.51031506
0.62058306
-0.1821965
-0.43150282
-0.06491339
0.94300663
-0.6906673
-0.30542576
0.077866554
-0.04904473
-0.09710288
0.7370784
0.6856586
-0.073807
0.44611
0.24243283
0.009529233
0.97466767
-0.606156
-0.14358413
-0.07518113
-0.58018076
0.96349394
-0.078825355
0.9684601
0.369305
0.07016075
0.17303658
-0.94651234
0.34981835
-0.33778977
0.839239
-0.6310632
-0.5077708
0.8055717
-0.7140833
0.86121416
-0.7406688
-0.91853917
0.6473787
0.17576146
0.7445252
0.35012972
-0.06300855
-0.7482581
0.8915825
0.5072336
0.7782717
-0.57485485
0.009236097
-0.13485444
0.782707
0.20595837
0.25198364
0.6060114
0.8262625
0.4329586
0.5387045
0.28471947
-0.96636
-0.3634162
-0.93177474
0.54770863
-0.43148303
-0.2011944
0.20685256
-0.45163357
0.65584815
-0.28721142
0.2643869
-0.51637685
-0.65823734
-0.48054004
-0.6042514
-0.71756256
0.9467567
0.21924984
0.5748569
0.8096359
-0.9858241
-0.20722234
0.95182526
-0.3962673
0.7300285
-0.4370072
-0.25387812
-0.22814894
-0.37012804
-0.57671845
0.6256268
0.37691474
-0.84199846
-0.8473147
0.909251
0.66131854
-0.046159506
-0.8668107
0.19998181
-0.5219742
-0.8330771
-0.9511162
0.6531645
-0.9035636
0.6080613
-0.46226633
0.11501145
-0.60037816
-6.5362453E-4
0.020059943
-0.9114566
-0.2939204
-0.73507214
0.061205506
-0.18559968
0.8787353
0.8897015
-0.56194127
-0.2354995
-0.0965389
-0.5480083
-0.34977663
0.26587033
0.13708258
-0.9968171
-0.19202483
0.6849021
0.38017893
-0.077563286
0.78331685
0.14981627
0.7936382
-0.97524905
-0.8487426
0.86849046
0.4518571
0.25857997
0.98098314
-0.93642366
0.5428958
-0.58582795
-0.052823424
-0.093271494
-0.54875565
-0.5989133
0.78796124
-0.24517453
0.28784347
-0.72533
-0.11336827
0.7955481
-0.008415341
-0.86552143
0.02953875
0.87609637
-0.42511845
0.02690065
-0.69641685
0.95195377
-0.88747346
0.20990431
-0.9637085
0.043448806
0.8986155
-0.3633989
0.8232392
0.77369535
-0.92720616
0.7490326
0.4867289
0.08582127
0.7276592
0.013405561
0.5024476
-0.6400076
0.8682921
0.8483176
0.53490007
-0.71238136
0.9482871
0.37996292
0.5365716
-0.916445
0.43127716
-0.109221816
0.9700897
-0.8443999
0.83097506
0.90462816
-0.53154194
0.5889152
-0.094332814
-0.027177453
-0.7016845
0.7821516
0.59557784
-0.3023566
0.75893354
-0.51065505
0.39553165
0.06654167
0.8404144
-0.769459
-0.81591237
0.38986278
0.5645946
-0.45559478
0.14824367
-0.9367175
0.20908093
0.5337684
0.9456264
0.944718
0.61748075
0.42243552
-0.7392627
-0.3177942
0.8573048
-0.12285817
0.596526
-0.90173995
0.21255422
-0.7129426
0.6867598
-0.6220758
0.78322804
0.32572436
-0.960948
-0.121245384
0.48273313
0.3940333
-0.4250313
0.84420156
-0.068478346
-0.938689
0.40553296
0.026448846
0.37755454
-0.35541368
0.7821696
-0.5139066
0.3489604
0.50961316
-0.9596431
0.8157679
-0.93962634
-0.38644743
-0.2170502
0.32079124
-0.26804817
0.96684337
0.04050386
0.77633905
-0.1996696
0.9555032
-0.8635881
0.16783011
0.64635503
-0.62409496
0.44598126
-0.8841145
-0.14085436
0.28923893
-0.8273344
0.70220387
-0.595
-0.24408686
0.20473695
-0.73283315
-0.6408646
0.6708256
-0.37380815
-0.030670762
0.3558992
0.45478356
0.6323252
-0.087210774
-0.33233905
0.5876051
0.5701417
0.29868495
-0.8357786
-0.1268555
-0.75519586
0.085846186
0.4445603
-0.95961905
0.19508874
-0.7966534
0.5636716
-0.4011575
-0.43595207
-0.4990083
0.17293298
-0.2717564
-0.27229285
0.8155253
0.008005738
-0.005174756
0.7778572
-0.8603116
-0.2700175
0.610268
0.09929943
0.6836139
0.6709813
0.199206
0.98295844
0.29501438
0.3534441
0.19057763
0.8510494
0.34412777
-0.67687535
0.2248236
-0.8528191
0.7755523
0.22045636
0.7580385
-0.7976655
-0.017674685
0.7562778
-0.6133672
0.897809
0.77452564
-0.22043681
-0.4908874
0.21037698
-0.29182148
0.63195693
0.6387718
-0.22369468
0.029487133
0.9628594
0.9921597
-0.48602498
0.49975753
0.8971443
0.56917036
0.69530547
0.32950473
-0.5458766
0.6337521
0.28100014
0.70398223
0.24120235
-0.22192037
-0.008009076
-0.8290676
0.3001057
-0.7576773
-0.33119404
-0.86491406
0.46018553
0.15791702
0.6926441
-0.5805081
-0.674026
0.3317387
-0.6413561
-0.72597504
0.04989755
0.19533789
0.38639772
0.20553422
0.05223918
-0.13284266
-0.4603641
0.84746027
0.86662436
0.8324591
0.45189118
-0.039012074
0.109318376
-0.39221644
0.094804406
-0.84717274
0.27454662
0.6526778
-0.71124876
-0.4993564
0.5072187
0.60591793
0.68111837
0.8964006
-0.15858102
0.19754183
0.676515
-0.64293456
-0.45834982
0.61894786
0.89746153
0.024150014
0.34917688
-0.9253546
-0.5831808
-0.8024429
0.60420954
0.20069969
0.7988852
0.050578
-0.34628785
0.18253899
0.010382891
0.08325577
-0.28689885
-0.9391637
0.64246166
0.72861457
0.75813603
0.85715663
0.27850866
0.57456386
0.19219017
0.9157506
0.93950474
0.554041
0.3564272
-0.96471727
0.55953884
-0.75622904
0.6000122
-0.49833202
-0.3591199
0.5608014
-0.9405607
-0.3659079
0.39389908
-0.9751402
-0.2533095
0.6804414
0.59657824
-0.8610487
-0.4671787
0.2618158
0.45706916
-0.9878732
-0.56445897
-0.35921562
0.30767894
0.194888
-0.14351797
0.103098035
-0.09197831
0.81339407
-0.57252765
0.08245337
0.42828643
-0.12611043
0.55780923
-0.6363703
0.2913736
-0.62977374
0.05011797
-0.031840563
-0.52302945
0.2778896
0.9759283
-0.9878477
0.6646987
0.27670658
-0.14003634
-0.06224978
0.7816987
0.13679671
-0.11812961
-0.27604926
0.71815133
-0.9400308
0.81456316
-0.19852698
0.8092005
0.22956526
0.609589
0.90846026
-0.6882448
0.6298232
-0.47673833
-0.33610666
0.7191572
-0.49838984
0.34535146
-0.5053644
-0.9235846
-0.8385531
0.3186772
-0.82269096
0.23556173
0.28805077
0.6781018
-0.24875855
-0.4920864
0.044267654
0.12751472
-0.81673455
0.74204934
-0.1723404
0.030976415
-0.1647594
-0.671152
0.21178782
0.41811848
0.5730442
-0.11504805
0.3402822
0.17422545
-0.010028124
-0.19831216
-0.83874524
-0.1365031
-0.41723752
0.9072794
-0.65911615
0.66237795
-0.64417386
0.14680898
0.27871418
0.7823781
0.93598545
0.43878913
-0.423728
0.7435603
-0.79035854
0.2525854
0.7041272
0.90718806
0.25651968
0.531754
-0.0040688515
0.056461096
0.11505878
0.46031082
-0.09712696
-0.42333293
0.9963232
0.35899448
-0.49370039
-0.73949087
0.9445908
-0.6350684
0.35409665
0.062170267
0.7582303
0.18019223
-0.09179354
-0.36258698
-0.9748262
0.2932706
0.3230052
-0.58947384
-0.65954185
0.9344574
-0.61992
0.65728796
0.7624903
-0.595371
0.55335474
-0.07734537
0.08962333
-0.8684269
-0.85507345
0.5201702
-0.9846395
-0.79564595
-0.10198796
0.18597293
-0.77873135
0.5912944
-0.45302784
0.7638036
-0.7799773
0.66916347
-0.60038686
0.4399507
0.65165937
0.019533753
-0.33575225
0.1711564
0.805133
-0.84627736
0.13998568
0.97799623
0.58187795
0.41221428
0.79629064
-0.5837945
-0.20816731
-0.21882987
-0.70386195
-0.7248093
0.5850104
0.8420303
0.69152594
0.15410423
0.63924885
-0.88400424
-0.7277373
-0.4197874
0.26948464
-0.6896974
0.21678066
0.59192824
0.3743049
-0.42412913
0.5213393
-0.1788795
0.72638285
-0.9644263
-0.67822576
-0.031229377
-0.16426182
-0.74025774
-0.273435
0.8484962
-0.0841794
-0.19746268
0.61432266
0.8290359
-0.53426564
0.65269685
-0.61802113
0.27577138
0.9072484
0.8093531
0.63737845
0.49036252
0.498605
-0.98618805
0.4932902
-0.52460515
-0.5392046
-0.17165184
-0.97307444
-0.31232047
0.62445045
-0.83859205
-0.88594174
-0.34917676
0.821545
-0.5654398
0.13013422
-0.9825189
0.2467649
-0.15917885
-0.2609862
-0.6718557
0.7958932
0.5585332
0.376073
0.51148283
-0.6935421
-0.10697794
0.19545138
-0.9025259
-0.8110907
0.6842251
-0.2833321
0.43640006
-0.6892204
0.038103104
-0.39473426
-0.016905665
0.5038824
0.6398436
0.79348457
0.24666595
0.6841562
0.2458657
-0.76565933
-0.5673748
-0.5599958
0.118878365
-0.8636956
-0.49051106
-0.15104735
-0.61356187
-0.39735568
-0.41064227
-0.82859826
-0.17944992
-0.3376454
-0.42327845
-0.4522984
-0.8629397
0.09752321
0.2481972
0.6505039
-0.5866494
-0.9795581
-0.20440459
-0.16565263
-0.03312695
-0.48567164
-0.30550373
-0.74901557
-0.59769666
-0.08786893
-0.8695451
-0.10942757
-0.57024586
-0.5573534
0.48638856
0.95029795
-0.57997847
0.42250037
-0.78980386
0.36429048
-0.034054995
-0.776947
0.16505456
-0.05091691
-0.5363989
0.60589683
0.021201372
0.2809012
0.94641566
-0.6815617
0.86368847
-0.86552167
0.16383266
0.09750223
0.7331331
-0.25607634
-0.21037948
-0.6243918
0.83475506
0.116659164
-0.6998261
0.35941637
-0.5249678
-0.37986422
-0.36150324
-0.003009677
-0.9735422
0.7026708
0.46437466
-0.67965066
-0.7282572
0.19536519
0.30626357
-0.70107436
-0.9868324
0.61889744
0.027601957
0.6309091
0.8057624
0.3905927
0.9827826
0.70216286
0.82088864
-0.94672656
0.3803625
0.5318594
0.18719637
-0.4559555
-0.4610567
-0.9181863
0.4876641
0.16060877
0.79147696
0.42061388
-0.5054263
0.9934639
0.17473745
0.3981675
-0.439842
-0.940835
0.17181087
0.60162365
-0.5081426
0.73377216
0.62739635
-0.7635946
0.15147185
-0.956115
0.5304196
0.4192053
-0.3679371
-0.7211602
0.18915975
-0.69760597
-0.32841492
0.7514458
-0.02477789
-0.0032521486
0.22547472
0.5221077
0.37995434
-0.14662015
0.89063895
-0.16543376
-0.2627344
-0.8558744
-0.5194695
-0.130687
-0.7215395
0.28654397
-0.39339387
-0.6622273
0.88709986
-0.35446036
0.018019557
-0.7924118
0.23574936
-0.33497798
-0.1372776
0.41408432
-0.83626556
0.102893114
-0.5856794
0.3787216
-0.02112484
-0.1698699
-0.6036202
0.28185213
0.65109944
-0.21479487
-0.65301836
-0.25962174
-0.042488694
-0.06981993
-0.19998717
-0.6067544
0.9138911
-0.47754824
-0.0039749146
0.12759829
0.1949228
0.6904088
0.73583424
0.6706519
-0.3558705
-0.41738355
0.4969349
-0.93209267
0.87526727
0.5551859
-0.5298927
0.36451304
-0.12828541
0.68362296
0.44636524
-0.5431154
-0.56757486
0.9528042
-0.021031022
0.595896
-0.64328444
0.81721294
-0.27081335
-0.9329461
0.0012577772
0.36479986
-0.073355675
-0.030646205
-0.09191501
-0.600278
0.26556134
0.24147594
-0.2496022
0.62588835
0.9282254
0.7764038
0.06293917
-0.584901
-0.3306774
0.9144392
0.83638084
-0.06275785
-0.31698883
-0.7427887
-0.1874975
-0.32159758
-0.7359947
0.7051563
-0.49787474
-0.5550201
0.80073535
-0.8521633
0.8752645
-0.87659943
-0.5795411
-0.7536043
-0.81152296
-0.08262646
0.44183815
0.31266606
0.39485073
-0.89420974
-0.23995352
0.13848853
0.43573368
0.04842305
-0.74573684
-0.35358632
-0.120434284
0.11394262
0.41001594
0.9601691
0.82276773
0.22208858
-0.48690844
0.62734807
0.70251465
-0.008029103
-0.79729474
-0.37877905
-0.775427
-0.8093903
0.8556527
0.9131607
0.5456661
-0.19468892
0.47782373
0.0079193115
0.26475906
0.05198264
-0.44642258
0.19316208
-0.20182967
0.8168911
-0.022874832
-0.64922774
0.9977218
0.1558075
-0.12540877
-0.85474694
-0.8912971
-0.30763972
-0.78662574
0.035081625
0.57592475
-0.8766439
0.76066875
0.7933892
-0.956447
-0.9842622
-0.34942305
-0.32164085
0.94092476
0.036855698
0.7855035
-0.17898369
0.116630435
0.47222996
0.050031066
-0.7853502
0.42247915
-0.965382
-0.84693027
-0.5317733
0.33452177
0.6428586
-0.58317304
-0.5456728
0.5382798
0.04279208
0.36038804
-0.47485423
-0.160828
0.2559327
-0.8759912
0.12894619
-0.7424463
0.18115127
-0.9285728
0.6313287
0.2327292
0.9532831
0.9966823
-0.21575129
-0.4750172
-0.50052726
-0.26459146
-0.39929056
-0.2664641
-0.8454238
-0.5940628
0.050437927
-0.06291032
0.13270319
0.53160465
-0.18608868
0.43921006
0.4409094
0.7525253
-0.20265043
-0.87855434
0.70724785
-0.66594756
-0.14550519
0.6622057
0.029280663
-0.8871807
-0.52683496
0.5897585
-0.11263859
0.56342924
0.512982
-0.444798
-0.62758005
0.2746495
-0.47117186
0.6190977
0.31975484
0.029669404
-0.95773673
-0.9418814
-0.306144
-0.091801524
-0.75365984
0.061223745
0.91618097
0.16772449
0.120259285
-0.4244902
0.35598516
-0.80279005
-0.48237288
-0.11181462
-0.5921066
0.43020225
-0.639526
0.73254406
-0.64070034
0.89834523
-0.8383157
-0.24694419
0.41252208
-0.97555745
-0.591658
-0.9402739
0.98382103
0.50160086
-0.7787765
0.8778806
0.8730427
0.66792274
0.6710398
0.5209749
-0.39082134
0.9322778
-0.65393984
-0.82338774
0.6601627
0.5847068
0.5506928
-0.5733789
-0.9123391
-0.9349288
0.84899616
-0.3209883
-0.6264155
-0.423015
0.6856793
0.46234345
-0.3050424
0.21342754
0.31096637
-0.95780253
0.93424785
0.67957854
-0.84800255
-0.68298614
-0.35379446
0.71239376
-0.28426337
-0.78027093
-0.57120514
0.64160824
-0.16357625
-0.2931236
-0.5596645
0.7307631
0.010453463
0.20381212
0.8491391
-0.7216402
0.2654624
0.47043753
0.883613
-0.47160304
0.7168622
-0.83558285
-0.13583422
0.59770215
0.05884564
-0.152102
0.5436543
-0.48281586
0.7590264
-0.7201936
0.5672245
-0.47075546
0.87361383
-0.9390898
-0.4019096
-0.31082594
-0.97310305
0.08616662
-0.737779
-0.92925227
-0.78543115
-0.12710226
0.56744075
-0.7570009
-0.6389059
0.2697488
-0.21724534
0.7151308
-0.19084048
0.93712664
0.2596519
0.5697819
-0.37721825
-0.5168817
-0.4171139
0.13274443
-0.62037647
-0.5708275
-0.5958556
-0.8477026
0.30352986
-0.012176394
-0.105235815
0.25740767
0.5924772
-0.28762114
0.9161029
0.38624096
0.73357487
-0.29100776
-0.382522
-0.83896196
-0.2747922
-0.40064394
0.50713515
-0.14996922
0.3629042
-0.36693084
0.28314376
0.4005263
-0.83770895
-0.85047674
-0.55368435
0.12964988
0.81810796
0.38811278
0.4403746
0.8818407
-0.7825799
0.88214946
-0.32397854
-0.052385807
-0.5210465
-0.6832311
0.10192323
-0.2898283
0.9760996
-0.21369815
0.19985628
0.05022657
-0.8278421
0.3852445
-0.47757244
0.98125553
0.86252296
0.57356346
0.6853523
-0.9251399
-0.7541542
0.86730886
-0.49617016
0.017844439
0.45691657
0.24633455
-0.4379729
-0.55091155
0.76669776
0.90054905
0.6701809
0.16661906
-0.27569818
0.24398696
-0.45423412
0.26605868
0.8728081
0.73281336
0.71018255
-0.055333853
0.26288807
0.18109131
-0.5166125
-0.96441483
0.41878986
-0.24002266
-0.5450423
0.060973406
-0.5599191
0.50639224
-0.31335318
-0.7719852
0.96567523
-0.69812894
-0.1598134
0.63722134
0.35634804
0.2881589
0.51281285
-0.39200497
-0.10331786
-0.5285915
0.29587734
0.81348026
0.46195936
0.77099085
0.8493546
0.4978571
-0.019075155
-0.53733516
0.91368973
-0.15175223
-0.65112495
-0.6488861
0.37315822
-0.68460214
0.060671926
0.11684835
-0.13913417
0.80859125
-0.25017118
0.18165219
0.9800861
0.9984292
0.70376015
-0.2791823
-0.05853772
0.9949881
-0.901088
0.7463155
0.6185851
0.25853765
0.6412984
0.65100014
-0.050277352
-0.6432164
0.1427362
0.42939734
0.9114338
-9.241104E-4
0.6018027
-0.30373418
-0.48293495
0.32801497
0.03851223
-0.63807225
0.41261733
-0.312513
0.75642645
0.67651963
-0.47669566
-0.2503221
0.13515365
-0.3617196
0.12170339
0.9896388
0.40595865
0.31947386
0.82436574
-0.15665805
-0.7942258
0.37448812
0.9659859
-0.44607437
-0.23121464
-0.73373246
0.042889833
0.56234586
-0.7152816
-0.98102987
0.36105287
-0.52452886
-0.22998047
-0.45269704
0.47476804
0.07063413
-0.54047346
-0.17166889
0.67332673
0.6758454
0.58552325
-0.09712863
0.7837889
-0.41437447
0.97800386
0.48534405
0.43351412
-0.7987137
-0.6394385
0.9188442
0.08821511
-0.62967134
0.8528271
-0.53681934
-0.5122062
0.27249503
0.0013409853
-0.8940911
-0.7127446
-0.7287482
0.7808875
-0.07059157
-0.07603741
-0.1883483
-0.7712952
0.77153087
-0.9679711
0.87247944
-0.35816193
0.73522496
-0.42735088
0.12737644
-0.81323195
0.81702733
0.6147697
-0.92738235
-0.8999268
-0.65014505
0.15909445
-0.54405963
-0.18470395
0.43784165
-0.76834977
0.6901381
0.9066391
-0.5230154
-0.23110676
-0.8628949
-0.07685804
-0.88669145
-0.43124866
0.5639781
-0.61766386
-0.47043145
-0.80852497
0.34555376
0.4410758
0.24290645
-0.5326599
-0.45991647
-0.7394582
-0.8587129
-0.08200145
0.5039476
0.6858543
0.31919384
0.5437645
-0.27909172
-0.4219525
-0.5426028
0.09572244
-0.22877312
0.6333939
0.6233293
-0.92909443
0.40371227
0.6244674
-0.92533946
-0.4211936
0.32984793
-0.8225734
0.08728194
0.17227983
-0.7551706
-0.90445447
-0.81050265
0.36588538
-0.41177082
0.14103532
0.18753743
-0.56348765
-0.6390972
0.5429505
0.7654587
0.17765343
0.869756
0.4119767
-0.48169005
0.42905402
0.3144145
-0.027086616
-0.6544329
0.7030816
-0.32272673
-0.011280656
-0.962026
0.25964713
-0.77033436
-0.9816681
-0.48796988
0.13078666
0.20207024
-0.047360063
0.89063287
0.35819018
-0.35331333
-0.50627387
0.9352789
-0.017543197
-0.61105525
-0.5771673
0.17544186
-0.08170831
0.14439285
0.33970094
-0.54375637
0.978132
0.5740069
0.4035071
0.06951141
-0.9130589
0.25062144
-0.026669383
-0.2897743
-0.31147277
-0.5205357
0.099962115
0.3059137
-0.089628816
-0.29448223
0.8831531
0.42768252
-0.93252337
0.17970836
-0.24235916
-0.83347714
-0.7096814
0.756068
-0.05777991
-0.2633077
-0.39203143
-0.45440435
-0.6302136
-0.12987864
-0.23846006
-0.16660106
0.35992205
-0.45617926
-0.17186952
-0.37109601
0.7027341
-0.4805938
0.77057076
0.700799
-0.5469345
-0.61543655
-0.93108547
0.4665115
-0.99610865
0.61623514
-0.6826341
-0.040760517
0.48895144
-0.98850787
0.17312622
0.8639344
0.48597252
-0.43734646
0.3155899
-0.34149706
0.7379669
-0.5723163
0.51582515
-0.13957012
0.22207034
-0.46405363
-0.16602254
0.68585634
-0.4295336
0.07496762
-0.93097687
0.782953
-0.5603366
0.659163
0.50031376
0.5905322
-0.05751252
-0.54902196
0.70899034
-0.9361663
0.36767244
0.48426652
-0.21876502
0.5511097
-0.06289029
-0.44405067
0.81237495
0.3271165
0.76919436
0.463261
0.5951823
0.30421758
0.16303122
-0.74035037
-0.66227114
0.64108586
-0.9164387
-0.69664633
-0.22751164
-0.97319424
-0.24079692
-0.069202185
0.05192578
0.28957736
0.7048824
-0.1145879
-0.7542875
0.40056324
0.5141287
0.4857638
-0.66365373
-0.06774819
0.34024656
0.7706809
-0.4650154
-0.6141132
-0.81930244
0.3903029
0.095596075
-0.39590967
0.61927795
0.22892308
-0.9127457
0.59413373
0.45219278
0.08753312
-0.30808532
0.6469432
-0.83224964
0.19185686
0.33498764
-0.42928112
-0.73762584
0.8273101
0.5413209
0.3710462
-0.7885144
-0.43104112
-0.041010976
0.7879461
-0.9176947
-0.06338525
0.032935023
-0.9880055
0.44277263
0.9584129
0.77167153
-0.30470896
0.70885885
-0.8024832
0.77080345
0.37874377
-0.63993657
-0.055820942
-0.11876559
0.78617966
-0.3254001
-0.81126726
0.78794765
-0.51921535
-0.4172846
-0.10913122
0.35385203
-0.6858617
-0.1439873
-0.8012501
0.34524584
0.37771523
0.7460643
-0.5686904
-0.5398836
-0.97248554
0.11680126
0.6329391
-0.7968509
-0.48798275
-0.5018685
0.6873878
-0.2263844
0.090800166
-0.10473883
-0.28596318
-0.15787947
-0.13408613
-0.1522193
-0.32703853
-0.11632693
0.22191381
0.5294843
0.7148235
0.008082747
-0.5742289
0.65515697
0.29833722
-0.7090876
-0.0013712645
-0.18857598
-0.03621602
0.1720432
-0.35741997
-0.5912429
-0.07099068
-0.82654893
0.27366054
-0.22938454
-0.5710131
0.018461466
-0.15536618
-0.40050697
-0.45293736
-0.8568276
-0.3132429
0.010608435
0.81237245
0.9148121
-0.11140406
-0.019369245
-0.77815866
-0.14434254
-0.62653923
-0.9440609
0.77609026
0.4651873
-0.27226996
-0.20650339
-0.18280768
0.39400876
0.14404154
0.11472905
-0.82551277
0.7136737
-0.96885836
0.64236414
0.6457939
-0.28407013
0.64242804
-0.57822955
0.9797901
-0.6613703
0.5054598
-0.88205457
0.12678075
-0.8649292
-0.70620954
0.8992152
0.96648884
-0.73312116
-0.8495338
0.49743164
0.4110844
-0.19821191
0.21075952
0.25675905
0.15887487
0.5372256
0.32275474
0.8900372
-0.59039295
-0.5448916
-0.34790885
0.8504703
0.5481421
0.9555919
0.18658483
-0.94947684
0.6925521
0.33682728
-0.886083
0.629184
-0.35008562
-0.890538
0.8986695
-0.25081277
-0.6760621
-0.9096886
-0.3174522
0.31964397
-0.89998674
0.64721394
-0.29628408
0.06532574
-0.14647818
-0.28928137
-0.11087489
-0.36365628
-0.3242663
0.37830663
0.010117173
0.2621863
-0.59093034
0.16998553
-0.01975584
0.74928033
0.88184977
0.71318424
-0.52973104
0.0049482584
0.11510241
0.20907664
-0.7449995
0.50260353
0.555025
-0.76285446
-0.8924359
0.5992813
0.9099612
-0.028372169
-0.082259536
0.94940495
0.8172525
0.80032194
0.612198
0.65654933
-0.75876856
0.64725804
0.7571217
-0.34733772
-0.8515904
0.40629363
0.07049334
0.13274169
0.09026945
-0.9005358
0.8859211
0.89961267
-0.65004444
0.3947692
-0.40246928
0.041731477
-0.69021916
0.57215357
-0.23764491
0.4866022
0.7362634
0.9391377
-0.38954663
0.30947244
0.3541013
-0.99948907
0.7625017
0.053718448
-0.98297596
0.71760094
-0.19011271
0.21426558
0.14003277
-0.803965
-0.3152517
0.083281875
-0.9763844
0.7669767
0.32950044
0.6492394
0.99679387
-0.7677765
0.7410109
-0.37646484
-0.31571543
0.9911605
-0.031199336
-0.95329416
-0.5531578
0.7265215
0.8258027
-0.44136167
-0.53256226
-0.42838013
-0.058150172
0.22006595
0.9050354
-0.604205
0.15305734
0.8183391
-0.11070168
0.6151868
-0.84534824
-0.39254045
0.29179418
0.25672507
-0.28806162
-0.6945425
-0.37836945
0.7748072
0.6665474
-0.55763495
0.026639223
-0.8508346
-0.5833032
-0.4834137
0.2371918
-0.70820737
0.6960306
-0.7701273
0.9016732
0.87964046
-0.68803465
0.841177
0.6950251
-0.066486955
-0.7010256
-0.42662978
-0.06971562
0.21380687
-0.25629163
0.3464434
-0.7053448
-0.36164045
-0.3226626
0.8748956
0.4245522
-0.8091601
-0.98263013
-0.50971496
-0.9822918
-0.6698041
0.96899724
-0.27657413
-0.72446644
0.78934455
0.7385962
-0.34830666
0.9274237
-0.6725912
-0.6755651
-0.11111057
0.69381845
0.843537
-0.23176718
0.627874
0.61098623
-0.9529427
0.093575716
-0.24429917
0.51344204
-0.7099227
-0.47787368
-0.6804203
0.52655137
0.29251313
0.026165247
-0.24186277
0.5704441
0.32007968
0.20758903
0.71091676
0.5562985
-0.68662786
0.53164196
-0.07911289
0.6380712
0.81746113
-0.48778784
-0.05284679
0.06879258
-0.9606888
-0.7504566
0.9616213
-0.06618106
-0.41606176
0.24704206
0.8238224
-0.64160645
-0.58504796
-0.5509385
0.5784472
-0.6907842
0.28261495
-0.5050384
0.32267976
0.45640135
0.60068643
-0.8935596
-0.47637022
0.8914523
0.7762475
0.92644656
0.96483886
0.99808097
0.9548063
-0.09850931
-0.14402974
0.16666138
0.592916
0.118697286
0.6986762
0.08166325
-0.82482564
0.8295673
0.36775517
0.27786255
0.62096775
-0.04953015
-0.20013857
-0.13012958
-0.24593985
-0.35705805
-0.4017974
-0.34371865
0.8167424
-0.5562366
-0.1668663
-0.93852985
0.9876584
-0.08442545
-0.92615414
0.012961268
0.7027266
0.7848463
-0.88978815
0.29981124
-0.8178048
0.16786921
0.45731306
0.18828797
-0.2595713
-0.31906927
0.27549195
-0.9127476
-0.58857965
0.1930772
0.1394757
0.39024806
0.2814033
-0.30486298
0.6609489
0.8388442
0.2056737
0.49458683
-0.5240445
0.94794893
0.73149574
-0.24878693
0.8739276
-0.66442084
0.890604
-0.42657983
0.34749198
-0.13487244
0.80751944
-0.38919413
-0.28372622
0.026979208
-0.055991292
0.6978332
0.014693141
0.17908227
0.322217
0.7999071
-0.019482255
-0.6152595
0.70215714
0.74199414
0.3412043
-0.5863396
-0.19750237
0.19742632
-0.07140601
0.8236104
-0.97765684
0.69829357
0.37534416
-0.7393578
-0.57241464
0.29766893
-0.66915727
0.58262396
0.096313715
0.54791725
0.008779168
0.032061696
0.2678504
0.019830227
0.8278048
-0.6007191
0.5096003
0.3168924
-0.028186202
-0.60329163
0.6117401
0.8614383
-0.92541075
-0.18880379
0.8546784
0.34989238
-0.2216003
0.4472592
0.28736258
-0.8209882
-0.3626449
0.4842111
-0.2687322
-0.8983309
0.39997363
0.24019027
-0.6830796
0.4280249
0.93371785
0.092905164
-0.19502425
0.07605362
0.4257555
0.6088228
-0.013670206
-0.6944016
-0.35634422
-0.031098366
0.7458787
0.9350492
-0.74184847
0.27056086
-0.53099644
0.9131676
0.9647547
0.9843128
0.33152735
-0.7443845
0.49542284
-0.9674201
-0.488086
0.2927016
-0.15460205
-0.047875762
-0.22575009
0.92932355
-0.9302052
-0.7540692
0.37369478
0.9888803
-0.09822595
0.20227146
0.42051935
0.78013575
0.93770087
0.566226
0.19868124
-0.34903908
-0.89066184
-0.06838739
0.37054336
0.6181481
0.1598674
-0.45022464
0.31742716
-0.88810384
-0.4433701
0.4279579
-0.7208785
-0.3477955
-0.9375378
-0.35275304
-0.41661942
0.8685919
0.5591178
0.33276618
-0.37578964
-0.04812348
0.83654666
-0.24737239
0.78703666
-0.5639769
0.25300205
-0.26592517
-0.9324776
-0.52062595
0.41158473
0.6234616
-0.56696904
-0.3407482
0.42367673
-0.92932093
-0.81811833
-0.89546156
0.7297795
0.20905054
-0.27772534
-0.25877738
0.7708175
0.58053505
0.7829412
-0.028861403
-0.3484769
-0.7935002
0.45037425
-0.51946485
0.07182348
0.34080672
-0.62173223
-0.399724
-0.36173928
-0.98980117
0.7152189
-0.9877747
0.7776115
0.82393885
-0.16531968
-0.8032203
0.087585926
-0.37147248
-0.17923987
0.20591164
0.4595256
-0.6664177
-0.7348714
0.7670499
0.73639894
-0.8877157
-0.429353
0.79949427
0.2233876
0.6861582
-0.65072024
0.86188805
-0.09852147
0.5725311
0.26452374
0.332919
0.71648324
-0.93170345
-0.17262089
0.025429845
-0.50717247
-0.03874159
0.14143407
0.9953505
0.67554355
0.12733948
-0.25516248
-0.638626
-0.28632474
-0.55352604
-0.24108076
-0.38957655
-0.9014547
0.041552305
0.17538929
0.020279408
0.15202832
-0.5659791
-0.14696264
-0.8419286
0.07042098
-0.43136168
-0.3864435
-0.13321948
0.5721834
-0.92836237
-0.40632927
-0.5322406
-0.96746516
-0.114392996
-0.9974561
0.103149295
0.13062644
0.416471
-0.16886985
-0.983225
0.85804546
-0.5900023
-0.5484179
-0.7942898
-0.030739188
-0.64453983
0.92420506
-0.87143815
-0.5199567
0.7319149
0.09712374
0.17319155
-0.8200784
0.83871126
-0.95355165
0.28990412
0.01661563
0.288283
0.27519226
-0.2088213
-0.012349486
-0.9808161
0.4866271
-0.20789552
-0.6532433
0.47518277
-0.8024303
-0.61559427
0.6662171
0.4877174
0.3909099
0.4501201
-0.086692214
0.5210854
-0.3375976
-0.64129186
0.17789471
0.9506247
0.6385006
-0.2350465
0.16387725
0.63325
-0.01980567
0.7270316
0.8205081
0.417786
-0.9009272
-0.43157864
-0.5120454
-0.31849217
0.25904775
-0.23102844
0.26828945
-0.7476225
-0.61050296
-0.07424724
-0.23179841
-0.0018932819
-0.5315989
0.9908991
0.30909443
-0.7209259
0.4289918
-0.12970245
-0.2638359
-0.25075674
0.28840625
0.6338017
0.30904424
0.5557668
0.58597636
-0.5940492
0.20741963
-0.22663736
-0.3475243
0.118549705
0.9766773
-0.61545944
0.016536355
0.13673234
-0.031562448
-0.21673882
0.10342336
0.02337706
0.35220778
0.67085826
0.9135592
-0.13071752
-0.40280592
0.39347732
0.6090107
0.45593965
-0.8864951
-0.16439521
0.8172344
-0.41713214
-0.17814696
0.5614115
-0.67939734
-0.98760283
0.26892316
0.14284158
0.88175595
-0.7271818
0.15658629
0.72006714
0.90902686
0.90853953
-0.9018724
0.5268327
-0.95029795
0.34714139
0.50087345
0.13226092
-0.42537725
-0.6769415
0.80557466
0.78509843
-0.5452868
0.4923935
-0.8516114
0.8105986
-0.39614713
-0.48935843
-0.23267365
-0.65003586
0.054722786
0.2237103
-0.77615654
-0.27552736
0.43274593
-0.17735386
-0.5196122
-0.24073291
0.49214208
0.69523025
-0.049073696
-0.045217037
0.5778265
0.41568744
0.36477673
-0.58240676
-0.51596117
-0.22902644
-0.6482625
-0.040956736
0.508078
0.13355184
-0.5779525
0.2726165
-0.33551216
-0.15743697
0.98789203
0.1739825
0.5568795
-0.18457079
-0.57999015
-0.37318528
-0.26708305
0.4290061
-0.82427883
-0.1902926
0.3107431
0.11352992
-0.24810612
0.46304345
-0.993593
-0.79491687
0.74277496
-0.121056676
0.56206965
-0.20426452
0.409235
0.38314855
0.030550957
0.778715
0.8400887
-0.7431747
-0.12396252
0.46400726
0.61126065
0.5420028
0.7726116
-0.72598803
-0.4155531
0.8811641
-0.90288067
-0.3631438
0.5495838
0.8050555
-0.8976362
0.5755336
-0.62286127
-0.91993725
0.70862186
0.2242558
0.43551683
0.7656859
0.7601441
0.9506177
-0.36953104
0.45321667
-0.14097166
0.56595683
-0.42165935
0.2293557
-0.18172848
0.6904634
0.33055127
-0.26482117
0.08181691
-0.5907577
-0.42362392
-0.69524205
-0.23885381
0.3969853
0.37467873
0.63332844
-0.7391819
0.46973693
-0.13127911
-0.66213655
-0.2590289
-0.40872335
0.943828
-0.23976803
0.23106372
-0.45103264
0.87403405
-0.41703176
0.31018233
0.43085587
0.30562449
-0.5304599
-0.44452655
-0.42505717
-0.2662413
0.7255502
-0.011683464
-0.50330675
0.3903582
0.65651727
-0.5193881
-0.6128932
0.28069806
-0.84505606
0.39018214
-0.15265584
-0.7575954
-0.6012486
-0.14985704
0.6045897
0.26986814
-0.769452
-0.6761569
-0.16365588
-0.9783257
-0.31045163
0.84249735
-0.503234
-0.8629297
0.6934812
0.26106346
0.55034924
0.6144775
0.45596611
-0.20034015
-0.58229697
0.5916405
0.8463067
0.8895037
0.14933169
-0.8895433
0.5553951
0.12687325
0.071162105
0.20334864
0.15664709
-0.9249023
0.87647045
-0.5879954
0.5090512
-0.7315519
0.64039385
0.80943775
-0.46378303
-0.5053195
-0.94579625
0.064854026
0.3576907
0.10275555
0.6470454
0.04630506
-0.29499876
0.44308186
-0.005760312
0.033286333
-0.7856798
-0.2501266
-0.70392144
0.6013478
-0.22898889
-0.12446797
0.42314827
-0.40932274
-0.15938032
-0.25175428
-0.9813286
0.8840071
-0.5607456
0.6153785
0.7614846
0.75585675
0.88825417
-0.16789615
-0.057341933
-0.26893783
-0.8907442
0.8387413
0.39322698
0.7780343
0.32320082
0.1292944
-0.89986134
-0.5102576
0.5286726
-0.55811405
0.92363346
0.057797313
-0.009326696
-0.5004587
-0.67553365
-0.63676167
-0.35875356
0.7037245
-0.65254414
-0.4110359
-0.7198247
0.94606733
-0.006097555
-0.7432895
0.80054164
0.7750021
-0.96422505
0.51583266
-0.5853286
0.55888724
-0.9531977
-0.47208905
-0.38338077
-0.042635202
-0.5014527
-0.27736485
-0.98518527
0.28597546
-0.97672236
0.025043607
0.3610028
-0.52035654
-0.008713603
0.50677216
0.27862465
0.978904
-0.7191428
0.5855131
-0.9240098
-0.46466684
-0.7918742
0.3346691
-0.63103986
0.6224338
-0.013255835
0.7727183
-0.6824256
0.714383
-0.4601599
0.43885708
0.4155892
-0.56706405
-0.9931493
-0.9559301
-0.19306481
-0.355942
-0.3257699
0.5871539
-0.08439469
0.5984094
0.39186525
0.77192235
0.17366886
-0.35223198
-0.32239652
0.7395791
-0.7446017
0.8332504
0.80318594
0.5801282
0.44462442
0.5374073
0.11991358
-0.4940927
-0.42066407
0.6338227
-0.07336569
-0.68756235
-0.03457892
0.27388132
-0.70755625
-0.6734706
-0.70522845
0.14626431
0.68943906
-0.3850168
0.037420988
-0.83785534
0.115756035
0.12155318
0.12993824
0.89586294
0.92605925
0.59360194
-0.2888627
0.49120855
0.94694924
0.78784466
0.8507515
0.2777151
0.03099358
-0.7022331
-0.1022408
0.086223006
0.16909885
-0.6290244
0.4944892
0.67128205
0.09180033
0.886413
-0.7563205
-0.8911269
-0.81791806
-0.0011923313
-0.7072252
0.31684196
-0.9868672
0.24695766
0.058612823
-0.3760234
0.21281636
-0.26429033
-0.6667602
0.67972815
-0.7773299
-0.4326644
-0.0039036274
0.94430196
0.2242713
-0.59883
0.4486965
0.92863786
-0.30759716
0.90187633
-0.8441328
0.57227635
0.12643635
-0.9061661
-0.17539418
0.36718118
-0.7861874
0.12537682
0.8108145
0.67638445
-0.5212369
-0.3282447
0.3800751
0.18323493
-0.8669412
0.8357297
-0.94309306
-0.5282922
0.92242074
-0.23807323
-0.8954228
0.7185544
0.082369566
-0.25601125
0.34270048
0.6181872
-0.3079635
0.0069081783
0.22203362
-0.3885131
-0.3635943
0.88176465
0.055731773
0.80683815
-0.2695794
0.20364797
-0.69414186
-0.37147713
0.27745008
0.55936384
0.12630916
0.073286414
-0.8339001
0.74934995
-0.7169914
0.7758095
-0.42915106
0.42409468
0.95491385
-0.94036937
0.21231747
-0.6184906
-0.3579477
-0.63035774
-0.96778667
0.19668412
0.8776275
0.43978214
-0.092520356
-0.4159956
0.09969795
-0.85465705
0.8104633
0.7047622
0.8547071
0.030072093
0.5408623
0.22839618
-0.5177964
0.19681954
0.015878677
-0.31411314
-0.8993715
0.72605395
0.09371412
-0.9706446
-0.35747647
0.5644977
-0.7101033
-0.5014013
-0.03037548
-0.6619253
-0.42527318
-0.7845987
0.8610066
0.6272001
-0.95652497
-0.6414906
-0.43105197
0.64232385
-0.25983572
-0.54910064
-0.6330826
0.103946686
-0.3165816
-0.9925554
-0.707209
0.5207143
0.36277747
-0.50746286
-0.6300025
-0.56546915
-0.8988582
-0.17282414
-0.24700534
0.93208635
0.9499545
0.32325542
-0.6942543
-0.41687357
-0.2840742
-0.6747068
-0.57161033
-0.36113143
0.61038625
-0.42111588
0.8750398
0.8970641
0.44479394
-0.3507129
0.76280797
-0.8925301
0.6298562
0.96749413
-0.10181558
0.5533091
0.11372125
0.32591856
-0.5874901
-0.19268334
0.24058938
0.07874143
0.0054163933
-0.6619358
0.029963851
-0.22352111
-0.123024225
-0.7474092
0.05492568
0.4902501
-0.24964464
0.030308723
0.7028719
-0.67544806
0.84271145
-0.43763638
0.6829082
-0.59965956
0.8598398
-0.5020211
-0.9693668
-0.60859287
0.22792315
-0.9410367
0.16470969
-0.848822
0.023039699
0.76588345
-0.33703387
0.3651693
-0.8633827
-0.51894844
-0.9773575
-0.04631543
0.8746953
-0.22266185
-0.29513454
0.23342645
-0.28611314
-0.24297202
-0.026168942
-0.114684224
0.6417775
0.34689677
-0.55592406
-0.51504993
0.23984694
-0.033979654
0.64345074
0.8040776
-0.70017385
-0.11055708
-0.63494694
-0.98527825
-0.2921139
-0.89214027
-0.020233989
-0.7930809
0.024668217
-0.08869994
-0.64525783
0.80747235
-0.39639676
-0.38992023
0.4960289
-0.742097
0.22717714
0.96190727
-0.28940797
0.028457046
0.6340029
0.11912048
0.9506273
-0.77867436
0.52318394
-0.23000157
-0.6712091
0.816206
0.7522248
0.054557085
-0.3743
0.357216
0.61760557
0.62611425
0.28079474
0.55050313
-0.018714309
0.6493163
0.97576416
0.97141695
0.2713076
-0.27633607
-0.12120402
0.6598655
-0.7389827
-0.24451947
0.09172797
-0.24028718
0.27117443
0.13365054
-0.71414506
0.13630664
0.8255851
-0.43557644
0.16199195
-0.15476549
0.63830876
0.3635559
-0.2559998
0.8411863
0.4646747
-0.4283378
-0.08883357
-0.01936233
-0.81376016
-0.9612198
-0.4263227
-0.5855365
-0.5703603
-0.38905525
0.8582648
0.27131808
0.98046994
0.14541459
-0.75949395
-0.85931444
-0.28339565
-0.41125596
0.16005778
0.47319055
0.2526437
-0.51397824
-0.009616494
0.47855926
0.99171877
-0.3305415
-0.20839727
-0.5716752
0.8870754
-0.4745134
-0.17845035
-0.87302804
0.51946807
-0.90673304
0.86479175
0.5239991
-0.2756734
0.64188945
0.8923074
-0.5211624
-0.88686097
-0.44727516
0.99708617
0.19549358
0.615975
-0.052251816
0.85567105
-0.89483464
0.34725142
0.11082733
0.81643915
0.4402163
0.41667175
0.3098626
-0.9327079
0.5152613
-0.94503534
-0.98759174
0.9247304
0.07051635
0.9140365
-0.028613329
-0.86940897
-0.14501154
0.47917295
-0.57761717
0.94087005
-0.99519396
-0.9261075
-0.73235464
-0.17689872
0.43352735
-0.64579487
-0.88151777
-0.39394748
-0.7186204
-0.08220315
-0.67239714
-0.9093902
0.010095358
0.6657486
0.4727708
-0.6425276
-0.32341945
-0.14822388
0.36577797
0.50075734
0.6255976
0.86982214
0.67537594
0.26314294
-0.18126261
-0.6703731
0.19479764
0.31533813
0.43019688
-0.052680016
-0.9145
0.75928044
0.5115504
0.36109805
0.9266639
0.17061889
0.43630993
0.8288592
0.83892775
0.24305499
-0.38461995
0.5647218
-0.51879466
-0.7524264
-0.5824535
-0.55463815
-0.6021203
-0.75267303
-0.7178483
-0.7829845
-0.51692605
0.7690095
-0.72237
-0.056994796
-0.40179443
0.66032326
0.5993589
0.06422782
0.4040346
0.678136
-0.8706509
-0.5531188
0.9305489
0.2520324
-0.22908986
0.5397568
0.39519143
-0.5667888
-0.9478924
-0.834095
0.2862593
0.6304256
-0.152668
-0.5301795
0.15418172
0.9954716
0.037655354
-0.39778233
0.2054658
-0.3255582
-0.28489244
-0.64808464
0.38525844
0.29263508
0.98709905
-0.8384695
0.7838652
0.47699893
-0.43530893
0.85504496
0.9355773
-0.29215777
0.78830385
-0.44343793
0.8264239
0.88012373
-0.62098885
0.31766486
-0.4711119
0.4739797
-0.5186802
0.053922653
0.5803268
0.79562294
0.119033694
-0.2912687
0.16822898
0.24590814
-0.6895268
-0.16449857
0.43615282
0.6785413
0.23022866
0.76920366
-0.25789583
-0.4218068
0.06528735
-0.4713813
-0.64460695
0.7569841
0.85354257
0.865798
0.14402378
-0.44647956
-0.4715929
-0.69509447
-0.5359298
-0.07928884
-0.30324757
-0.53425527
0.30317056
0.38704813
-0.922781
-0.14392352
-0.75364137
-0.46776903
-0.0931654
-0.91924417
-0.0756495
0.47453296
0.5268756
0.025467157
-0.9212556
0.84796023
0.48125422
-0.96963894
0.44827378
-0.94285655
-0.84405386
0.90740764
-0.53559446
-0.77666485
0.76584196
0.4392234
0.7686069
-0.5565525
-0.47806704
0.8222077
0.2591325
-0.17540693
-0.59080684
0.51000047
-0.41988015
-0.44085324
-0.8475926
0.7327342
0.4242519
0.18126965
-0.22171175
-0.6972312
0.8826529
0.48770416
0.48853648
-0.6107391
0.3986541
0.5872841
-0.71269953
-0.99601793
0.12850869
-0.37991333
-0.43871617
-0.22752202
-0.9488319
0.094816685
-0.6486784
-0.017611146
-0.2237277
-0.95056903
0.79658866
-0.74975216
0.35616612
-0.35599518
-0.2509979
-0.19371414
0.6019497
-0.073489666
-0.9256624
-0.7281009
-0.5705761
0.7328187
0.06286776
0.8359382
-0.9812937
-0.36553752
0.7069634
0.3945552
-0.632102
-0.04469955
-0.43665802
-0.9930502
0.86937845
0.846318
0.35701764
0.96919215
-0.5437714
0.7226827
-0.5877352
0.9848213
0.6813202
-0.20355797
-0.9209186
0.90982914
-0.26558828
-0.4692731
-0.61602986
0.997885
0.21103919
-0.57291377
-0.35010552
-0.37254477
0.66522694
-0.7520461
-0.56325626
0.34525967
-0.7435334
-0.53618026
-0.85840464
-0.5690024
-0.30335033
0.07326269
0.41475475
-0.17157733
-0.82240534
-0.07130706
-0.7035134
0.48084438
0.8836131
0.04776764
-0.07968545
0.16944659
-0.65839183
-0.88244176
0.6777477
0.7261332
-0.58486927
-0.6954948
0.9685849
-0.14409482
0.7965262
-0.35194266
0.7990408
0.16522348
-0.11307454
-0.39900494
0.42162406
-0.20809782
-0.12223983
0.8273586
-0.52303576
-0.76052964
-0.53364146
-0.8965328
-0.6040778
-0.36336672
-0.835114
0.2938056
0.5038289
0.20362508
0.7155843
-0.122107744
0.84734464
-0.22365844
0.23131824
0.6542201
-0.59575486
-0.08811355
-0.22949505
0.09178376
0.35966778
-0.49751735
-0.032535315
-0.33132362
0.51752436
0.61683214
-0.18276465
0.54206777
0.7976576
0.15836728
-0.091668606
-0.57285523
0.9389169
0.09916341
-0.63557065
-0.20185769
-0.067096114
-0.23149872
-0.040563703
0.9174787
-0.043780327
-0.27060413
-0.32103813
-0.014420152
0.41039467
0.9792999
0.19028461
-0.59819984
0.53430676
0.90833855
-0.065901875
0.03475046
-0.5039258
-0.983199
0.9525436
-0.90158737
0.12864828
0.7413987
0.11342621
-0.9200239
-0.06960142
0.80645955
0.4804523
0.8089528
-0.350098
0.7724596
0.5204654
-0.38134992
0.91016614
0.40205634
0.34388518
-0.66443205
-0.24482703
0.13627851
0.86300623
0.026087165
-0.26933396
-0.5647913
0.6498854
0.8004843
0.8075582
0.58405495
-0.6871209
-0.9293051
-0.057544947
0.42392087
0.7263688
-0.6895884
0.82410324
-0.5049758
0.6859857
-0.8146107
-0.98816466
-0.5319289
-0.8279048
-0.1991967
0.523317
0.20763278
0.94407296
0.42500007
-0.57862425
-0.8883238
-0.3801093
-0.6499233
0.1869049
0.7870556
0.5888642
-0.7242545
-0.09341884
-0.033761382
-0.6645042
0.7714654
-0.53360295
0.6915202
0.20080876
-0.21832132
0.09708178
-0.9335761
0.86230695
-0.12973332
0.49386275
-0.29189897
-0.6311531
0.8143401
0.21547973
-0.13122284
0.3226676
-0.60318685
0.6969198
0.9993571
-0.43577015
0.73567665
-0.31574416
-0.69386494
-0.30074477
0.4305848
0.57176065
0.13538373
0.13057733
-0.8093833
0.5009049
-0.6251533
0.44550467
-0.30155027
-0.6660656
0.5815543
0.49398935
-0.68548155
-0.9362663
0.35886765
0.11189306
-0.8398957
-0.15485966
-0.72956836
0.94117725
0.25203574
-0.23447931
-0.015754819
0.32530904
0.08635771
-0.49469876
-0.392969
0.8702152
-0.4422226
-0.88049567
-0.450534
-0.5783868
-0.18901086
-0.09729755
-0.46018016
-0.7123474
-0.2145406
0.44192922
0.39159107
0.30689263
-0.645524
0.93099976
-0.82445765
-0.49262512
-0.628919
0.1876477
-0.07494593
-0.28920114
0.19798005
0.81041014
-0.17583835
0.5007317
0.77698135
-0.079960465
-0.07054436
0.8957516
0.6285467
-0.008579254
0.3309114
-0.8458983
0.78746545
0.5937749
0.76463497
0.09868169
0.28155673
0.27286148
-0.9143411
0.80919576
0.83300936
0.33871865
-0.24424195
-0.4926263
-0.22595358
0.6322074
-0.8045244
-0.10695422
-0.73110855
-0.74446976
0.11810994
0.4113648
0.6525891
0.24448884
-0.035476327
0.18876588
0.6454165
0.86828697
0.4807359
-0.682258
-0.72798896
0.95720506
0.04606235
-0.64518833
-0.8192667
-0.17327952
0.32002783
-0.7149267
0.67629075
0.0921514
0.4145856
0.66960716
0.88357174
-0.7895793
-0.57119715
0.5040982
-0.9294293
-0.13891375
0.6518054
0.6600455
-0.927946
0.35963202
-0.07662022
0.24169457
0.05328703
-0.08931911
-0.051604867
0.2665143
-0.6039369
-0.4579754
-0.7693932
0.6650262
0.4200033
0.55320823
0.69411445
-0.496266
0.8944795
0.96209896
-0.0012507439
-0.22432828
0.05560863
0.09294438
-0.43786263
-0.80416
-0.8950745
0.62963665
-0.05939901
-0.29108012
-0.80087745
0.32427132
0.58911014
0.2957785
-0.20751607
0.42588532
-0.7558683
-0.00868845
-0.8045746
-0.2440139
0.9106672
-0.45677078
-0.5248133
0.340927
-0.62455964
0.99989724
-0.2591896
0.40733516
0.5328381
-0.2280953
-0.4021021
-0.6970577
0.8507352
0.82956994
0.58433235
-0.87518954
0.8029798
0.046221256
0.9425415
-0.7201446
0.86851454
-0.94977665
0.6645082
0.2847588
0.08957362
0.9889729
-0.33854616
-0.5938959
0.5700754
-0.576622
0.74099815
-0.5246302
-0.41157258
0.15578306
0.18197012
0.7720469
0.1359322
0.5483047
0.7234782
-0.70737314
-0.8564712
-0.8812506
-0.8458209
0.21078634
-0.07232332
0.6205702
0.10499239
0.7383182
0.5039959
0.040835023
0.600111
0.92695093
-0.5507319
0.011316419
-0.8253521
0.8742219
-0.4657228
0.95420325
-0.52854884
-0.8657546
-0.9713075
-0.78652275
0.014600873
-0.6349052
-0.44704592
-0.3001672
0.9341996
-0.99665606
-0.18961573
-0.14847267
-0.32115006
-0.66589093
-0.80379534
0.54238856
-0.12747502
-0.8310343
-0.09924328
0.9142475
-0.593557
-0.44210136
-0.014813662
0.8434677
-0.6596106
0.80474067
0.32364
-0.85461736
-0.7607299
-0.55560863
-0.87769663
-0.14202225
-0.011651397
-0.15326536
-0.18062031
-0.38504267
0.9947034
-0.5348828
-0.050476313
-0.28745306
0.8542628
0.3312739
0.46080136
-0.10559213
0.18591559
-0.24529743
-0.027383208
-0.06849468
-0.6695249
0.009968638
0.5611998
0.9715749
-0.8122095
0.44377196
0.38838303
-0.5048826
0.6063497
-0.58539283
-0.5860361
0.066997886
-0.2860831
0.9574964
-0.3523476
0.34638703
0.43388736
-0.63314736
0.030404568
0.8508382
0.5002339
-0.009456754
0.74503005
-0.4931047
-0.32453942
-0.43755782
-0.7681999
-0.78984964
-0.016525507
-0.83980334
-0.35292816
-0.48122466
0.7665458
0.3068558
-0.7963666
-0.32088864
-0.28236604
-0.5570643
0.55377495
0.7990637
0.96265113
0.7391827
0.9344444
0.9202093
0.28926396
0.41576993
0.53397155
0.674315
-0.96152806
-0.0468148
-0.16132641
0.23228061
-0.4275242
0.052149534
-0.5165831
0.3575009
0.9686296
0.30931914
-0.69767046
0.9616798
-0.69288874
-0.6367159
-0.67493236
0.9358598
0.043181777
0.9287412
0.89226305
0.90575254
0.18861878
-0.4707837
0.90424657
0.55750155
-0.14258242
-0.12990499
0.5342839
0.32317567
-0.07424879
-0.6699853
0.12709594
-0.56378627
0.66427875
-0.1878643
0.092312336
-0.996382
-0.94772255
-0.3340342
0.5489222
-0.96194553
0.6890794
0.20001769
-0.52979445
0.9995649
-0.3285179
-0.25333965
-0.16025937
0.8699603
0.18002105
0.76033616
-0.3901422
-0.91395676
0.7673019
0.13238287
0.33752882
0.6597369
-0.7956692
-0.95022285
-0.42637718
0.7893717
0.23352683
-0.7727667
-0.7545966
-0.60156083
0.49867582
0.2744993
-0.7239412
-0.08604908
0.352574
0.0519197
-0.0628643
-0.2897085
0.04384017
-0.9978663
-0.6305438
-0.10349727
0.097916126
-0.83481693
0.30612636
0.32193685
0.45747054
-0.41444564
-0.710449
0.030053854
0.33933008
-0.5436765
-0.8738377
-0.9780551
-0.21496534
-0.87266135
-0.46770823
0.6253538
0.7977036
-0.8026804
0.98798037
-0.5668497
0.81795645
-0.36389935
0.8594693
0.5153036
0.42622197
-0.77845585
0.5338677
-0.8354677
-0.320776
0.6606488
-0.6795188
-0.041633964
-0.21267271
0.38709593
-0.56676817
0.46598792
-0.9094044
0.13518095
-0.27054882
-0.04018283
0.949931
0.58628356
0.82527316
-0.6215092
-0.52814686
-0.5715004
-0.4486227
-0.6949115
-0.551072
0.47881365
-0.19939911
-0.4462297
-0.17861617
0.6624931
0.027935624
-0.812657
-0.07085419
-0.14525211
0.90183246
0.41178298
0.18869865
0.24989593
-0.18697739
0.21181345
0.23843944
0.07431424
0.5939214
0.11089277
0.47332215
0.2986033
0.39006662
-0.2276702
-0.06028366
0.38516796
0.18816173
-0.07518661
0.2708192
-0.9604126
0.107598186
-0.6791557
0.4792608
-0.91628206
0.7995187
0.05201125
-0.46445024
0.7577214
0.7965168
0.8886608
-0.42120183
0.46564746
0.57514143
-0.37259877
-0.0589267
0.83958673
-0.37805116
0.36846125
-0.18867564
-0.69822705
-0.34738612
-0.23718286
-0.007049799
0.49960434
-0.92545784
-0.47088528
0.77579737
0.1789037
0.089702964
-0.18812943
-0.8149823
0.5055959
-0.17950392
-0.48935568
-0.1966281
-0.5386226
0.3530705
-0.2635405
-0.21095562
-0.20285416
0.50658095
-0.3653823
-0.29206896
0.8574623
0.8616117
-0.5536777
-0.7710029
-0.72509766
-0.44414926
0.7656187
-0.26374865
-0.3841629
0.55079305
-0.7103194
-0.5850191
-0.7637811
0.49170864
0.17234683
-0.4217869
-0.7691326
0.45756042
0.4921478
-0.10176003
0.94230676
0.39243817
0.8622831
0.06504607
0.20142066
0.92109287
0.27272534
-0.7425606
0.62433016
0.70526206
0.7017498
0.0136806965
0.8664727
0.15288436
-0.39015067
-0.26222956
-0.129354
0.83844995
-0.7164148
0.56785035
-0.36822462
-0.34966922
0.18708718
-0.1617446
-0.21534824
-0.2980553
-0.532459
0.34167123
0.005372882
0.21121132
0.9172286
0.27895117
-0.43752646
0.6814313
-0.20609498
0.68900204
0.7757653
-0.84784853
-0.37484574
0.5785835
-0.7880094
-0.59227324
-0.44126153
0.50196457
-0.60496056
0.74235785
-0.035995007
0.33446813
-0.98054147
-0.8771794
0.23951042
0.0845865
-0.8297044
-0.16537857
-0.5541829
-0.7795931
-0.93274117
-0.55414927
-0.82719743
-0.14739859
0.22022319
-0.791214
-0.41307163
0.70457006
0.6160685
0.9067502
-0.08885443
-0.121976614
0.3196839
0.2385819
-0.39989936
0.53821015
-0.51299167
-0.25774384
0.52394116
0.6271908
0.7336861
0.1509316
0.8094462
0.1773758
-0.2859043
-0.8615769
0.2578163
-0.36645162
-0.06685734
-0.6324694
0.020883083
-0.5263758
-0.31540954
0.35573626
0.4346403
-0.69847953
0.6883242
-0.7982824
0.4499898
0.206061
0.7445915
-0.012623072
-0.75916564
-0.44459677
-0.54806614
-0.47065568
0.49076462
0.32585824
-0.1804955
-0.02186203
0.14948666
-0.37272
-0.8277551
-0.03943622
-0.39705908
0.145738
0.9837693
0.9709493
0.11718202
-0.07945275
-0.2822405
0.5101546
0.9021473
0.13072944
0.11149752
-0.9500811
0.41034174
-0.4092884
-0.05163908
0.7972064
-0.3436587
-0.5671606
-0.2505585
-0.98674643
-0.058737993
0.25269973
0.13394928
0.4006896
-0.1764096
0.8611047
0.17597699
-0.06362748
0.331931
-0.9460001
0.9000633
-0.8443595
-0.9895917
-0.41017997
-0.7554506
0.9749825
-0.42590833
-0.75446963
-0.8289902
0.8953936
-0.21349835
-0.41843414
0.057299852
-0.890164
-0.8830887
-0.66278625
0.68453586
-0.5715047
0.16091788
-0.5620116
-0.22564876
-0.15065289
-0.5109917
0.9428055
0.5680951
-0.6153617
0.20622838
0.19011009
0.9365002
0.7831907
0.14947724
0.49861205
0.19527435
0.9721583
-0.68848014
-0.5987196
0.5638299
0.31946778
0.1629436
-0.8166939
0.081964135
0.66033673
-0.64838946
0.87970054
-0.009982705
-0.06003034
-0.49342895
0.5711262
0.93537104
-0.6670419
-0.82095575
-0.71621144
-0.09811723
-0.12747324
0.34233344
0.8183285
0.1349845
-0.44472718
-0.7229415
-0.047523618
0.37598753
-0.7936156
-0.5742432
-0.48716795
0.9031296
0.25471878
0.15586483
0.4038577
0.8388562
0.16599631
0.9727231
0.7095808
0.21374798
0.33646
0.13121629
-0.88056195
-0.17533731
0.5105827
-0.23117697
-0.87077665
-0.908429
0.53800046
-0.50661945
-0.532439
-0.8360126
-0.15874577
-0.9188683
0.015286446
-0.6301422
-0.82715976
0.75627685
-0.081582546
-0.19048429
0.9744501
-0.97982574
0.7251004
0.20339346
0.32133532
0.6706768
0.064368725
0.88931596
0.4799006
0.40023744
-0.22769034
-0.32554793
0.4976362
0.9920063
-0.61685264
-0.22440147
0.9832686
0.85907567
0.7438834
-0.31705046
-0.14522636
-0.38756883
0.16782129
0.9666271
-0.10191429
0.023447394
0.28211272
-0.021975517
0.58566976
-0.40145504
-0.40375805
-0.5982876
0.87854373
0.8448132
-0.8478322
-0.33319867
0.3360529
0.92012334
0.5240197
-0.5360087
-0.52583575
0.87991273
-0.69164085
-0.17289424
0.16595829
0.21204364
0.25890076
0.37295496
-0.78068686
0.25383067
-0.1726712
0.9544184
0.8796998
-0.21938503
-0.6892531
-0.07154155
0.70498705
0.31855345
0.5939752
-0.11063218
0.38990176
0.24720061
-0.08985102
-0.3597945
0.05724919
0.60790646
0.705992
0.60057914
0.18938065
-0.28384185
0.95002985
-0.8385254
0.68614256
-0.40984595
0.7054815
-0.2612871
0.97537386
0.16075945
-0.07157421
0.6431109
-0.8291317
0.9324343
-0.048820376
-0.7689613
0.0038106441
0.83989894
-0.5430423
0.1335789
0.71146154
-0.48340714
0.7124078
0.3519113
-0.15297174
0.9900322
-0.05166459
-0.5268644
-0.29584134
0.28386724
0.89594686
0.6830262
-0.113464236
-0.21906471
-0.792433
0.26494634
0.68709636
0.13626802
-0.2903968
-0.83165073
0.09313357
0.5805085
-0.17463076
-0.5467628
0.15493977
0.58539045
-0.97868073
-0.9278661
-0.5701015
0.94299376
0.50860703
-0.20166326
0.55548906
0.614782
-0.30974543
0.064448714
0.5592483
-0.5833851
-0.2185831
0.11073065
0.15826595
-0.69011664
0.72634494
0.8871598
0.44350123
-0.7392132
-0.14800322
-0.50898504
0.42453802
0.20994747
-0.2225753
-0.9056759
0.89905083
-0.53031385
0.8638737
-0.9800968
0.010185957
0.049235225
0.14807284
0.21446729
0.19747925
-0.88188756
-0.7632122
-0.6477982
-0.4027208
-0.41982317
0.32192528
-0.65176463
0.40263343
-0.022790194
0.35116065
-0.5090569
0.377172
-0.49092567
0.78927135
-0.3065765
-0.7091049
0.59176147
-0.5585567
0.65262043
-0.80260944
0.22531855
-0.12566721
0.78040266
0.42257524
0.5674094
-0.76253307
-0.41825545
-0.8634703
-0.032023907
-0.7883024
0.30447984
0.21556866
0.6852907
0.6292485
-0.06729996
-0.41416407
0.3490014
0.538965
-0.6422571
0.718107
0.6432253
-0.57046974
0.4091499
0.7931025
0.7402103
0.5527314
-0.4085437
-0.81434715
-0.28327203
0.16966236
0.23599887
0.26395822
-0.06844902
-0.28237402
0.38109207
0.53767717
0.43975902
0.78826356
0.23619461
0.4175825
0.6810914
0.12318623
0.4195919
0.30327034
-0.47572958
0.058424234
-0.7055901
0.45833516
0.3025391
0.7509353
-0.6695243
-0.2397641
-0.33075917
0.6480447
-0.6880859
0.5517392
0.27399385
-0.15589082
0.8709254
-0.36947834
0.6540381
0.8192283
0.89171064
-0.91728914
0.0020303726
-0.534948
0.08598924
-0.0844543
0.1675849
0.94647884
0.9402777
0.025881648
0.33809412
0.78038263
0.37856662
-0.7618228
0.19394565
-0.7302221
0.13202131
-0.7276856
-0.7804136
0.13160753
0.87585115
-0.5961658
-0.5434065
0.5974475
0.7548102
0.1338625
0.8959043
-0.47105968
-0.29857814
-0.198632
0.417755
0.035031676
-0.1602689
-0.8141204
-0.39990723
0.84865797
0.803192
-0.26490068
0.63587356
-0.75974417
0.6754652
0.11093962
0.23965657
0.7194103
0.8409368
0.81258416
0.90337086
-0.80954444
-0.1825422
-0.7293242
0.70546854
0.8504702
0.30314064
0.10838032
0.51852703
0.9976909
0.52431107
0.35980678
0.7356044
0.3849964
-0.49858272
-0.017703056
-0.71055794
0.91809106
-0.81139755
0.6858659
0.9213226
0.753953
-0.6182283
0.15130794
0.42467856
-0.6241957
0.7765937
0.37010527
0.4052993
-0.53858733
-0.80450714
-0.10248566
0.33433127
0.558254
0.55105996
0.0795002
-0.9023814
-0.75045335
-0.0115253925
-0.8597553
0.5469029
0.93823016
0.4237374
0.77672935
-0.1770904
-0.8283187
0.5962839
0.5085844
-0.55848515
-0.060324192
-0.8313496
0.4144622
-0.28758836
0.24438286
-0.62669086
0.5213287
-0.6983869
-0.11214769
0.4248464
-0.49776125
0.3676406
0.5546069
0.23783493
0.5145577
-0.6845232
-0.62910044
0.9268322
0.038675427
0.84771824
0.9655274
-0.2190913
-0.94726706
-0.41952538
0.18863213
-0.27672958
0.42868996
0.37031984
0.8947413
-0.83462214
-0.7825781
0.91215646
-0.82425714
-0.72073936
0.69488657
0.7665825
0.031118512
0.33249283
0.38845372
0.3159051
0.36041057
-0.6952039
-0.45580173
0.19321036
0.31164885
0.63698614
0.91552126
0.34801733
0.15564132
-0.088247895
-0.33466423
-0.61959827
0.99721336
-0.5524459
-0.57606125
0.274724
0.57949555
0.2740264
0.00954473
-0.21788633
0.26628685
0.4781835
0.40647316
-0.06820631
0.86168456
0.35022008
-0.2533723
-0.60442746
-0.6118448
0.6567793
0.22386992
-0.50598526
0.2178489
0.4255116
0.09013891
0.72982514
0.24231195
0.19106889
0.6698934
-0.017018199
0.059155703
0.23914158
-0.74988556
0.4285214
-0.28172743
-0.8422313
0.85241055
0.27326
0.4536836
0.2861936
0.39865112
-0.609995
-0.63987315
-0.580479
0.30024457
0.6011369
-0.73260975
0.5171195
0.7231045
-0.12181854
-0.4872743
0.9651164
0.9262321
0.13681507
-0.9137144
0.105725884
-0.60637474
0.080525994
0.18147767
0.8720437
0.7601186
-0.94996226
0.75776327
0.21610129
-0.41379118
0.84497726
-0.16469121
-0.9935881
0.21063077
-0.3192197
-0.81212986
-0.22876763
0.57938635
-0.08463776
0.46241617
-0.69618356
0.024266481
0.9207822
0.8926196
0.110818505
0.38213706
-0.11461818
0.33102512
-0.98427093
-0.9209517
0.71833456
-0.27471113
0.12306702
-0.6474453
-0.6959206
-0.8875613
0.6595106
-0.31531298
-0.26212406
-0.8120409
0.9450072
0.83125734
-0.10889304
-0.70875704
0.57616115
0.15630746
0.63759506
0.7843964
0.648137
-0.059522152
0.6579906
-0.88238573
-0.02156508
-0.91291153
0.17237616
-0.017311335
0.46097398
0.38923013
-0.11800969
-0.25075126
-0.8370327
0.9658772
-0.6139381
0.52989125
-0.97264814
-0.6231047
0.34203994
0.6855147
-0.8364271
0.56903434
0.526155
0.09725475
-0.040930748
0.50203013
0.001640439
-0.885993
-0.46110845
-0.098522425
-0.004286289
-0.46655738
0.5137609
-0.039853692
-0.5885246
0.36975813
0.21607435
0.3700862
0.65134215
0.36446822
-0.38637018
0.25366938
0.5049037
0.34994173
-0.6467831
0.34333873
0.06281412
0.602916
-0.38205802
0.13923442
-0.8276243
0.4319806
0.036763072
0.28425598
-0.03098917
-0.58466685
0.2719537
-0.39806902
0.026215076
-0.78944993
0.29611778
0.23942459
0.09649336
0.7455101
-0.9227966
0.27306116
0.10508978
-0.8009542
-0.603776
-0.37491918
0.7511705
0.602695
-0.03713
0.8974304
0.9178951
0.5336621
0.65987253
0.97193646
-0.8498337
0.3976165
-0.4148382
0.20814073
-0.81034327
-0.3266927
-0.824968
-0.42636788
0.33012652
-0.5544841
-0.15853369
-0.11868763
-0.052544713
-0.8938421
-0.34150136
-0.17059374
0.6498505
-0.44578302
0.2582593
0.12010896
-0.82773685
0.1537342
-0.5243157
0.4797715
0.39927065
-0.52340484
0.7965343
-0.1431005
-0.857025
-0.8940443
0.3573736
0.90469325
-0.16655505
0.9306278
0.31578004
0.56433856
-0.18819511
-0.8742852
-0.29219997
-0.8130331
0.06936598
0.8765428
0.44729972
-0.76939726
0.07561278
0.6290833
0.5644034
-0.26080287
0.71503496
0.7894063
0.94993174
0.18097341
-0.3543868
-0.8226521
0.24814892
-0.049019933
-0.15561473
0.7768208
0.7559953
-0.88259244
-0.6316873
0.30964375
-0.46569812
-0.46640134
0.98828244
0.5652307
0.8625525
-3.054142E-4
-0.68659234
-0.79996204
0.77707076
-0.97726107
0.18096983
0.6146647
0.98284197
0.20624709
-0.28022933
-0.45950925
0.83754194
-0.75455797
-0.21703362
0.92056596
-0.55499375
-0.2104708
-0.02145958
0.63120174
0.8928503
-0.53429234
0.7955673
0.4226973
-0.79000056
0.5805763
-0.76727843
0.302423
0.24554288
0.39386952
-0.31126487
0.36492848
0.077828884
0.39901733
0.8855926
-0.00309515
-0.8943927
-0.7219353
-0.61668634
0.43604755
0.16104865
0.6894585
0.33560967
-0.8902874
-0.016344309
-0.108177185
0.96013296
-0.9294381
0.52668846
0.53204656
0.5933846
0.5122347
0.81226695
0.39000475
0.91271996
0.89978576
-0.45743048
0.16447687
0.0867064
0.079778194
-0.79649174
0.72602224
0.31696355
-0.98266387
-0.08877945
0.9046689
0.92246604
-0.0027726889
0.35417104
0.60647416
-0.8397714
-0.5405097
-0.36562395
-0.32221615
0.14973605
0.63481736
-0.97372687
0.80503714
-0.7459471
0.09968352
0.22330332
-0.77178955
-0.8438562
0.8661572
0.7588935
-0.9343467
0.64869857
0.017755508
-0.6450298
-0.46339905
-0.7699269
-0.15679252
-0.991578
0.7957587
-0.7255255
0.32838202
0.8713318
-0.036010742
0.53411376
0.44800425
-0.73217714
0.28349972
-0.346115
-0.56054544
0.5287789
-0.79051924
-0.7394265
-0.09150815
0.381526
0.2685901
-0.03970158
0.76000154
-0.7729423
-0.70504963
-0.42224324
0.3959105
-0.74892676
0.35466135
-0.5570253
0.9885706
0.5817356
0.47964466
-0.8738985
-0.18624032
-0.08233166
-0.028336644
0.29492724
0.28682184
0.6515533
0.2595333
-0.7138369
0.44343746
-0.38871276
-0.6199235
-0.590762
-0.12059343
0.3917687
-0.5792922
0.2158165
0.6292347
0.77202857
0.5543982
0.15108216
-0.07996154
-0.023134947
-0.50691664
-0.25805378
0.2654388
-0.72210693
0.6915697
0.26686382
0.82498837
0.5207598
0.89010465
0.5922797
0.49088442
-0.84579754
0.56071377
-0.64149976
0.69906557
0.9199177
-0.4778806
0.16590941
-0.2986405
0.893378
-0.05624354
-0.029964209
-0.03452778
-0.44546485
-0.26447308
-0.93355405
-0.24213779
0.17982006
-0.9877939
0.26540625
-0.14024866
0.4052322
-0.9432298
0.9596268
0.0987736
0.29314113
-0.3564279
-0.4796852
0.05937016
0.77744985
-0.5903131
0.9676013
-0.6434051
0.75402355
0.4016037
0.20782173
0.3943162
-0.72698116
0.22669244
0.7750033
0.034974813
0.88048744
-0.8122667
0.3263904
0.32040453
-0.09186888
-0.8112818
-0.10269117
-0.18067169
-0.16163135
0.41681492
0.80077326
-0.36417258
-0.6507902
0.20578289
0.14987302
-0.8255695
0.49832654
0.97844744
-0.7197385
0.7828053
-0.8770596
-0.3104726
0.25642633
-0.9750569
0.9527106
-0.78412247
-0.53453755
-0.9999778
-0.64600813
-0.8290031
-0.25129843
0.5199127
0.8991374
-0.31231844
0.2139113
-0.42213726
-0.9062818
0.8814074
-0.16574192
-0.8501452
0.26363862
-0.42687523
-0.8935392
-0.4827081
0.62540364
-0.95941436
-0.25254786
-0.18488109
0.41476238
0.24030364
0.9005376
0.0045466423
-0.7336273
-0.7127733
0.2489022
-0.16319299
0.111020446
-0.283121
0.35299075
0.28764057
0.13455737
-0.06293535
-0.5983199
-0.6434066
0.92759323
0.58640754
-0.73559916
0.7770057
-0.8931234
-0.43049395
-0.47214293
-0.91062427
0.32421958
-0.82101226
-0.7216426
-0.50857174
0.76905024
-0.17977262
0.33691752
-0.027235866
0.74471056
-0.16686416
0.96335375
-0.6682404
-0.45876646
0.19669533
-0.3820505
-0.100009084
0.17954826
0.47651076
0.011590242
0.08871436
-0.63887334
-0.7644863
-0.39959073
-0.57209444
-0.5234599
0.8063121
-0.9918871
0.57739544
0.31597614
-0.6150365
0.11364567
-0.8807062
0.3505181
-0.054124832
0.15536153
0.84001124
-0.56284654
-0.3769518
-0.98673415
0.008841276
-0.4784112
0.6121949
0.582337
-0.030417442
-0.49424064
0.010812998
-0.0071907043
-0.425362
0.7024511
-0.4501927
-0.5757601
-0.21873832
0.16497111
0.13266003
-0.1379081
0.55219793
-0.74117875
-0.7303331
0.72757316
0.29421544
-0.10538924
0.68983245
-0.35103166
0.94554913
0.283013
-0.022643805
0.4173435
-0.21414757
-0.5243157
0.39019632
0.46915638
0.6700232
-0.45075858
0.9831704
-0.94286704
0.041501164
-0.5425992
0.7168995
0.009152532
-0.59604466
0.3602332
-0.14267969
0.9394567
0.3464769
-0.16354775
-0.83955777
0.68016386
-0.56841826
-0.3517599
-0.873297
0.16296291
-0.24620008
-0.33190513
-0.9368541
0.026365638
0.5270003
-0.14042878
0.40538955
-0.21533132
0.20965803
-0.34915662
-0.6480404
-0.19130766
-0.7408612
-0.8697283
0.50918496
0.87957
-0.769966
-0.13864923
0.12499845
0.33575284
0.49025178
-0.94840574
-0.6746836
0.39660132
-0.0042544603
-0.23668432
0.30915797
-0.923643
0.2955469
0.9274231
0.99151134
0.06906474
0.9694761
0.37402236
-0.5793929
-0.6364721
-0.95088136
-0.15817237
0.28442717
-0.68071556
0.43719912
-0.9556147
0.8369082
0.087765574
-0.9985541
-0.91656375
-0.97439885
-0.9086133
-0.26226926
-0.30686545
0.92897356
0.677721
0.31628776
-0.48565996
0.78378725
0.85274506
0.36797023
-0.46695316
0.9030137
-0.6206752
-0.7601098
-0.67525315
0.1857562
-0.3762293
0.6377193
-0.66311145
0.26709235
0.86981094
-0.15700567
-0.71937287
-0.2566687
-0.17263114
-0.90320516
0.113006234
0.46385014
-0.41903698
0.60621524
-0.9498967
0.26264155
-0.0064786673
0.5684837
0.6952634
0.40041733
-0.24369717
-0.988062
-0.5146445
0.6222726
0.9111004
0.29721022
0.19928992
0.35848618
0.22983003
-0.7390442
-0.15967369
0.99020135
-0.31184673
0.45461965
0.5567738
-0.9180343
-0.8106848
0.24965549
-0.17947114
0.39510286
-0.63645804
-0.9528924
-0.588207
0.7165992
-0.2249639
-0.976372
0.08977258
0.97582066
0.20696378
0.12915146
0.5479486
-0.2846278
-0.7347616
-0.9338336
-0.60035944
-0.79650486
0.65101385
0.1506331
-0.28767204
0.82549655
0.81249535
0.9851887
-0.1389339
0.90404797
0.9180982
0.2526629
0.21209037
-0.16279364
-0.77947354
-0.5703008
0.04337299
0.0044232607
0.83664024
0.37525094
0.9817362
0.90155613
-0.91106784
0.39698434
0.56465733
0.5841893
-0.91482985
0.1514945
-0.046119332
-0.086135745
0.8036852
-0.5156857
0.6284081
0.034808636
0.15952075
-0.26322114
-0.48637295
0.711398
-0.6858834
0.09400022
0.56477475
-0.08791387
-0.27249897
0.9578215
0.5763917
-0.3516513
0.41251957
-0.88176465
0.8509102
0.41300857
0.7170526
-0.53478956
-0.598696
0.4881009
-0.67961097
0.21022618
0.31332994
0.31639206
-0.52196026
-0.065576434
0.6370686
-0.50775075
0.7857021
-0.6093004
-0.74375534
0.6974578
-0.33553684
0.7841364
-0.7055578
0.08777404
0.6085379
0.4439466
-0.88665974
-0.2403425
-0.8969749
0.36696005
-0.6507567
-0.4417652
-0.4622754
0.32514334
0.8864937
-0.2772243
-0.15438092
-0.86342406
-0.49792004
0.8317988
-0.1809082
-0.36922848
0.11342907
0.8645371
-0.15254521
-0.09343839
-0.7442566
0.6283716
0.3262974
0.07653034
0.39733362
0.5336516
0.26916993
0.9900329
0.9184854
0.98005104
0.16808987
-0.11778104
0.6349695
0.23543179
-0.729578
0.7455528
-0.59884226
0.45357907
0.94125557
0.98064077
0.9958335
-0.26317835
-0.6559069
0.85358727
-0.25153768
0.2804184
0.38639176
-0.9523388
-0.56657004
-0.4541223
0.7343824
-0.4908837
0.22932291
-0.9604646
-0.89596164
0.4931289
0.05074072
0.09144795
0.2886995
0.6398355
0.50865674
-0.46007752
-0.79840994
-0.24255228
0.995489
-0.53800523
-0.7875848
-0.75428736
-0.067409635
-0.88565385
-0.7331989
-0.47383547
0.7268132
-0.3417853
0.6271646
0.0044921637
0.28142667
-0.33723807
-0.0984118
-0.1949817
-0.52652323
-0.027692676
0.5775391
0.3990667
0.47943997
0.47328818
0.2002238
-0.8095299
-0.5052376
-0.6725484
0.18764508
0.7964653
-0.3021617
-0.89941466
0.018905759
-0.87418294
-0.64129066
-0.8057507
0.03814614
0.14453435
0.046999216
-0.60405946
-0.34092128
-0.5494349
-0.13163042
-0.9534012
0.51604664
-0.748783
0.6263503
-0.8396913
-0.3252269
-0.86917937
0.4952773
-0.7723334
-0.11638236
-0.027338386
-0.91496706
0.8310169
0.91461873
-0.29896843
-0.77966356
-0.43267524
-0.88049793
0.060224056
-0.95625055
-0.88521016
0.62207985
0.6524941
-0.4641496
0.12562871
-0.7958183
-0.097251415
-0.26203442
-0.45579088
0.44285023
-0.22838748
0.028434515
-0.96739006
0.45362473
0.9493488
0.064899445
-0.43832958
0.52623713
-0.73901534
0.44106138
-0.447137
0.7490772
0.20923054
0.85149777
0.92435694
0.5577518
0.3689556
-0.5964854
0.22410929
0.06759858
0.89893353
0.6078657
0.975701
-0.47698164
-0.7916311
-0.8759686
0.20212269
0.58708584
0.04368949
-0.7096206
0.64325583
-0.72149885
0.46281528
-0.749061
0.79010487
0.8211678
-0.36156845
-0.32902098
0.89985895
0.5924394
-0.2412374
-0.15840006
-0.46119714
0.7334949
0.83530736
0.79390407
0.86441326
0.21977508
-0.37547517
-0.0830009
-0.7256377
0.58758795
0.5483867
0.69839954
-0.27942693
-0.21225846
0.16210842
-0.56617904
0.9441155
-0.5924475
0.8525746
0.09568453
-0.8039303
-0.20581901
-0.17444801
0.6718807
0.26620305
-0.6433978
-0.39742625
-0.9892551
-0.52763236
0.8585392
0.029452324
0.01328814
-0.17286372
0.08448017
-0.19093382
0.5342728
-0.91620636
-0.48411334
-0.2960503
0.88074017
0.49210417
0.1515038
-0.5168873
-0.22265613
0.6172366
-0.69280386
0.36752176
-0.7941482
0.7760371
-0.99389863
0.89609694
-0.11881137
0.8379644
-0.30549264
0.80651486
0.21445262
0.16914034
0.67434835
0.5013689
0.5066787
0.24406374
-0.58251
-0.9695815
-0.45570993
0.31881392
-0.6858474
0.1250701
-0.38708365
0.99145555
-0.6916847
-0.18553185
0.7515967
0.44057798
-0.90662205
0.45745254
0.5315783
-0.36660278
0.29463136
0.84623814
-0.8835037
0.36382627
0.47033644
-0.63767016
-0.6465653
0.18283069
-0.6541679
-0.7395339
0.32323563
0.21393561
-0.113280416
0.07112813
0.46572483
-0.3671056
-0.5443038
-0.82357204
0.069746375
-0.109543085
0.12718081
-0.06066799
0.7138413
0.2603644
-0.5951321
-0.25524092
0.95205986
0.22182298
0.15642047
-0.88305116
-0.8919631
0.78874767
-0.99046314
0.16569829
0.07260609
0.960207
0.11376631
0.22094417
-0.74436533
-0.19779873
-0.16193044
-0.8416929
0.73745227
0.62586987
-0.6731168
0.8964261
-0.2285099
-0.32159567
-0.03476739
-0.55970395
0.33604455
-0.38146138
0.7003845
-0.9853116
-0.19578552
-0.25203538
0.2340393
0.9206666
0.038038135
0.9840597
-0.35823774
-0.81995237
0.5129397
-0.61010754
0.7081429
-0.48754275
0.2953124
0.757776
-0.19381166
-0.79626167
0.8391665
-0.6628715
-0.4769119
-0.25954068
-0.69671583
-0.098222494
-0.6266149
0.25195825
-0.7594938
0.5930666
0.18262577
0.6488464
-0.4458493
0.5113797
0.31389952
0.486485
0.18788981
-0.950536
-0.5033153
-0.09376204
0.40570605
0.1868875
-0.8412397
-0.809888
-0.82491374
0.14808416
0.8204837
0.46080005
0.1928904
0.24990451
-0.84436655
0.60548043
0.7491331
-0.25712585
0.029663444
-0.3844415
-0.1747489
-0.17084944
0.37623549
0.014712095
0.64255404
0.6964259
0.754199
-0.025817275
-0.95799434
0.748955
0.3339044
0.94857585
-0.52700067
-0.31607103
0.7942542
-0.64992607
0.5374142
-0.37570488
0.97686577
-0.162251
-0.32678878
-0.8202269
-0.64597726
0.43667042
0.02268529
-0.40054917
0.541875
0.90506303
-0.6760162
-0.33358788
0.75499487
0.80446076
-0.043346882
0.7630547
0.6845584
-0.35355055
0.38505173
0.73205364
0.62797797
-0.37972653
-0.8440186
-0.56948674
0.5469103
-0.14036608
0.45360577
0.9131942
-0.76640904
-0.6230092
-0.21333706
0.20548296
-0.02094686
0.853449
0.62740266
0.889969
-0.47615921
0.8769108
-0.6578988
-0.98471296
0.0014998913
0.2069701
-0.6908015
0.95674276
0.8327838
-0.27043843
0.1290747
0.16085935
-0.22419739
-0.7534982
0.8615031
-0.4326837
0.6721611
0.70484865
0.5114018
-0.16999102
-0.1543876
-0.73022544
0.9054179
-0.806417
-0.9917098
0.42499602
0.7021378
0.49349892
-0.78318584
0.47053707
0.75458384
0.73841536
-0.39061356
-0.91618395
-0.75134766
-0.8633635
0.96454096
0.5030577
-0.014965773
0.30802083
-0.42212486
0.14942694
0.52095175
-0.6252223
-0.5134839
-0.32512128
0.46401107
0.27595603
-0.9798497
-0.66339064
0.49212492
-0.84065247
0.26630557
0.8674921
-0.70443165
0.26044166
-0.043377995
0.5275754
-0.10919249
0.0016857386
0.0667119
0.4584372
0.08805573
0.88857615
-0.96221125
0.774999
0.4090768
0.42522573
-0.15732634
-0.24535453
-0.29166543
0.03549564
0.40746033
-0.96126235
-0.9347987
-0.297778
0.34468198
0.74568796
-0.74014854
-0.39651632
-0.857854
-0.11225021
0.04918778
-0.16055799
-0.6221397
-0.65309227
-0.5935459
0.8454852
0.09601605
0.041293383
0.42008483
0.2479415
-0.011500835
-0.27375102
-0.6388966
-0.26056468
-0.30626643
0.32856882
-0.12248719
0.5652467
0.46897352
0.7949215
-0.13159955
0.9842628
-0.76115584
0.41354537
-0.5040873
0.69396937
0.003617525
0.49086833
-0.6678891
-0.18461585
-0.3566965
0.46179175
-0.21148539
-0.72091734
0.02226293
-0.90466905
0.8736391
-0.9730438
-0.86589086
0.8187059
0.7590498
0.56679213
0.8847984
-0.50336313
0.55466485
0.3401085
-0.54409957
-0.2763785
-0.29726243
0.8711337
0.38923812
0.05166006
-0.743075
0.57082963
0.36377287
0.10184109
0.43410254
-0.2798592
0.7774359
0.49423528
0.7843859
-0.07186508
0.78845215
-0.44326878
0.34768593
-0.8383806
0.4067173
-0.79886687
0.6378195
0.21259618
-0.043645144
0.82658505
-0.74126506
-0.3207233
-0.9376557
-0.94996834
-0.390939
0.6872674
0.9599638
-0.8239567
0.32446837
0.70315087
0.004868984
-0.90974915
-0.14801013
0.9574926
0.79932547
0.45943737
0.51253176
-0.20600688
-0.72193015
0.2958387
0.40954566
-0.6769639
0.7533772
0.9234985
0.06177163
-0.7605437
-0.45269036
-0.21806693
0.3108523
-0.24457109
-0.90980387
-0.7905433
-0.82852614
0.020645618
-0.20521069
-0.960855
0.29979014
0.90537643
0.5881561
0.46962643
-0.24127352
0.8907938
-0.43268144
-0.022958279
-0.9838759
0.35952687
0.11536741
0.031161308
0.5395843
0.65352273
-0.8461418
-0.13336682
0.022556305
0.74285376
0.6026641
-0.38027012
0.9182261
0.6363586
-0.9357647
0.6330961
0.45584416
-0.79764295
-0.85420036
0.79845095
-0.7906884
-0.17412972
-0.5129292
-0.6262045
0.27738333
0.30974233
0.68539274
-0.017502904
-0.42773664
-0.8359976
-0.9759021
-0.53700686
-0.8915739
0.48518956
0.7385663
-0.84263873
-0.2977903
0.10088158
-0.07030547
-0.84653866
-0.5426315
-0.3287245
0.99410546
0.25885177
-0.19915473
-0.3424276
0.32858872
-0.8034551
0.7813059
-0.82442975
0.23335397
-0.9345356
0.6414782
-0.027034044
0.44134152
0.67604816
0.27132285
-0.6476244
0.0019600391
0.4088564
0.64604974
0.59218705
-0.28365254
0.98764575
-0.4892527
-0.8914664
-0.2670288
0.5257261
0.8079269
0.59960735
0.94873893
-0.3056513
-0.77213347
-0.9048214
-0.39033055
0.45447826
0.022786975
-0.892243
-0.039284945
0.84988284
-0.75063336
-0.11323309
-0.6430713
0.52263546
-0.0690763
0.58412755
-0.7755376
0.30566633
-0.54197645
-0.54933476
-0.6372335
0.1760335
-0.27217376
0.031066895
0.92797077
-0.49660003
0.06793928
0.7750361
-0.9428468
-0.33158433
-0.43410814
0.12966383
-0.584308
-0.6958878
-0.14711869
0.6497103
0.31303263
0.46011996
0.14865339
0.1167289
0.680125
0.5158304
-0.901948
0.2841878
0.78489745
-0.43286824
-0.09008324
0.38467658
-0.36294246
-0.044124484
-0.0071241856
-0.30113494
-0.43684494
-0.4431485
-0.22628212
-0.42267942
0.28632998
0.12010825
0.94216204
0.6400379
-0.70209086
0.4045055
0.90702605
0.3002956
-0.45836914
0.83028007
0.84526455
-0.8538188
-0.9663267
0.0042067766
-0.894364
-0.52698004
0.5069716
0.5919733
0.77762496
0.83246183
0.39692187
0.7712506
0.49470508
-0.18017805
-0.7158681
-0.18056011
-0.29364812
-0.53760636
0.49127865
0.4773053
-0.9210905
0.031050086
-0.98549604
-0.4300201
-0.11874354
0.43999588
-0.11947203
0.22774231
-0.65679073
0.7206942
-0.20959175
-0.020674944
0.36502612
-0.51722956
-0.62247133
-0.6795783
0.5837234
-0.5347539
-0.68490994
0.2008239
-0.1990124
0.9252651
-0.99250007
-0.38216913
-0.060761333
0.92923284
0.74725163
0.32505202
-0.03582585
-0.14505458
0.47703862
-0.9804474
0.19738567
-0.6339439
-0.96489024
-0.50720143
-0.098822236
-0.40345192
0.7556188
0.63961387
0.36553335
0.6284771
-0.7733859
-0.7867904
0.5365336
0.9380442
0.9642141
-0.62665224
-0.27502918
-0.76871026
-0.26340044
0.7601944
-0.49185252
-0.06920779
-0.33392477
0.6809789
-0.37204432
0.9794233
0.35828638
0.44403386
-0.3084538
-0.90158415
0.86758494
-0.3797828
-0.3492694
-0.7920736
0.9256849
0.5414518
0.38249266
0.45339143
0.56250286
-0.57227063
-0.11838055
0.7759799
-0.034900427
0.716244
-0.5702251
-0.15271413
-0.5091951
0.27942836
-0.898167
0.6152946
-0.58193195
0.87388325
-0.25525522
0.87003946
-0.06629038
0.2521056
-0.5923699
0.8539506
-0.42528498
-0.43264842
0.5614462
0.7656374
0.82937896
-0.035995483
-0.5740067
0.31993723
-0.27436566
0.30777335
0.5809376
0.6459708
0.26916635
-0.11048615
0.69199705
0.57435906
0.7220628
-0.5677434
0.7056824
-0.33836055
-0.47781992
0.9232379
0.9845592
-0.4675274
-0.37176085
-0.45732677
0.45464313
-0.27209854
0.13631773
0.41127658
0.45828247
-0.7985748
-0.043507338
-0.047058463
0.34698284
-0.09407079
-0.62318075
-0.42737043
-0.7373874
0.09676623
-0.4052621
0.06869805
0.5520412
-0.3960173
-0.71122324
0.0012145042
-0.99445355
-0.5044904
0.4676988
-0.82792306
-0.07447934
-0.60993505
-0.9920703
0.76906765
0.89765036
-0.15827632
-0.78267825
0.69564295
-0.8134179
-0.6029203
0.5944648
-0.45612478
0.7031536
-0.65866625
0.7444817
0.74335015
-0.5621861
0.053459167
-0.3725704
-0.91094136
0.72840667
-0.9339813
0.32322145
-0.64727104
0.48980784
0.1866889
-0.92723835
0.5322192
-0.0059975386
-0.26820648
-0.8195901
0.79133093
0.524336
-0.5758935
0.52582383
0.8678217
-0.5346203
0.7260678
0.9278419
0.041790128
-0.48510754
-0.7451962
0.8297261
0.3025769
-0.24226046
-0.072326064
0.04044342
0.55368495
-0.47937298
0.11841774
0.28360915
-0.7429389
0.08462441
-0.6024349
0.6933899
-0.67328274
-0.5205356
0.45104504
-0.81955004
-0.89531183
-0.6144781
-0.8864186
0.7025807
-0.5614511
0.44846833
-0.25452733
0.25184405
-0.94077325
-0.45362508
0.5808892
-0.9429425
-0.75803244
-0.6257256
-0.627635
-0.25239038
0.01463747
0.41788995
0.3704027
0.5885941
-0.37012088
-0.5763167
0.16100502
-0.65905404
0.5960767
0.94005835
0.42069352
-0.30717647
0.0029547215
0.6642693
0.55263984
0.82527494
-0.80150235
0.09731269
-0.71539366
0.6979133
-0.12641406
0.45712626
-0.48356986
-0.34322155
0.36935437
-0.34273708
0.40999472
-0.5290644
0.40113175
0.3086375
0.35746253
-0.2029593
0.53449297
-0.31303108
0.014696121
-0.84127796
0.57726777
-0.8745768
-0.9517697
-0.9769083
0.77139235
-0.30577803
0.1490711
0.5791358
0.26657808
-0.17361581
-0.22055233
0.8975408
-0.89850366
0.90732574
0.13513076
0.7103275
0.85635483
-0.9119755
-0.94699144
0.9293773
-0.39654493
0.6853781
-0.27051818
0.9696914
-0.11909592
0.6340039
-0.17063773
0.10640955
0.5416719
0.34207773
0.07802236
0.5308684
0.6594777
0.9271352
0.9935235
0.94320047
0.65963376
0.7695879
-0.18647838
0.79629433
-0.2767136
0.3818078
0.71839356
-0.5362488
-0.19492555
0.16500926
-0.5070751
-0.6755787
-0.39412856
-0.7129172
-0.81898105
-0.8739269
-0.8658947
0.89053154
-0.020577908
-0.9951093
0.4324442
-0.48452675
0.52686787
-0.40381896
-0.7159791
0.039341092
-0.65497315
-0.9184308
0.6676285
0.78968644
-0.020840526
0.4919287
0.10956824
0.6328888
0.40261292
0.74250424
-0.63262856
-0.2106272
-0.445269
-0.25749958
0.84504426
-0.45887375
-0.9279411
-0.572505
-0.67038715
-0.2978109
0.9748846
0.04726231
0.8846674
0.19584394
0.44335508
0.74811447
0.64963603
0.95825076
-0.9508952
-0.9319327
0.76624227
0.9582547
0.6202303
0.97166085
-0.64015293
0.83431625
-0.9385048
-0.5480015
0.39822078
-0.39451766
0.21105814
0.38965404
0.07005906
0.3738047
-0.4957689
-0.44307327
-0.9121649
0.81663287
-0.3204937
0.5731379
0.8231871
-0.35897684
0.8792833
0.8401489
-0.4919392
0.76764095
-0.32440448
0.51118565
0.74258626
0.7127378
0.22911584
-0.72923803
-0.6162566
0.9850962
0.9385383
-0.064352274
0.4710939
0.007492423
-0.44098127
-0.16067731
0.38230193
0.46277606
0.39592874
0.7543235
-0.11183536
-0.43715656
0.37818575
-0.736271
-0.5380012
0.71062136
0.6795608
-0.5536227
-0.8596829
0.6929451
0.21360385
0.32815182
-0.23915267
0.8844098
-0.56364655
0.5179589
-0.36856425
-0.90631604
0.14027047
-0.05776179
0.0018004179
-0.5646019
0.5335649
-0.32736754
-0.70669746
-0.09017098
-0.87678885
-0.029306531
-0.65505147
0.8227174
-0.4593191
-0.77964497
-0.80693996
0.5384275
-0.7187779
-0.84125555
0.6350291
0.74732375
0.71606517
-0.5696107
0.33313525
0.014943838
0.0592134
0.06687379
-0.92737246
-0.90517986
0.13466561
0.02767241
0.36048245
0.7134032
0.73548543
0.8286083
-0.5199677
0.3154837
-0.4362327
-0.16119158
-0.17416859
0.7890681
-0.30777895
-0.24196756
-0.46222258
0.32334387
0.22699344
-0.2870134
0.61995363
0.30194056
-0.5580697
-0.6409091
0.6354923
-0.837821
0.69245315
0.27477336
-0.73720837
0.28164995
0.5295383
-0.8733666
0.31075048
-0.3351935
0.7791407
-0.19013715
0.8326181
0.12905121
-0.8807409
-0.32045412
0.64218915
0.123064995
-0.4036064
0.64151525
-0.5037726
0.6971227
0.32735097
0.22920334
-0.5817497
-0.41060233
0.614419
0.7245476
0.83748245
0.15352046
0.17630315
-0.8381306
-0.57952785
-0.15303767
0.009602547
0.8653884
-0.51962566
-0.70058966
-0.5770426
-0.39844096
-0.25966442
0.31371248
0.43651617
0.9708421
0.86407614
0.40396595
0.45251727
0.22027123
-0.30874813
-0.8130964
0.8492435
-0.9651439
0.45130312
0.81118286
-0.06764305
0.27538836
0.5823529
-0.011998653
0.02784729
0.19171739
-0.8623831
-0.41456914
0.983989
0.8794308
-0.6116749
-0.66602254
-0.9384972
0.095752
0.17814255
0.2844255
-0.741493
-0.1547544
-0.82039285
-0.76050055
0.19802785
-0.8682631
0.5594933
-0.41692972
-0.5097283
-0.899902
0.0698452
-0.45446634
0.19024062
-0.4831221
0.41852558
-0.08111596
0.85556066
-0.37497473
-0.6074151
-0.8266028
-0.447219
0.22434556
-0.154122
0.5894953
0.77735615
-0.84879565
0.83675015
0.8193104
0.9887333
0.84000134
-0.78892815
-0.1950512
-0.3056004
0.43297422
-0.64945877
0.4330157
0.65359235
0.9580908
-0.9927174
0.0823375
-0.24790823
0.81754375
-0.23403788
0.36504734
0.89481807
0.5283145
0.13771832
-0.9324616
0.3747729
-0.9556916
0.3012637
-0.5792521
0.63842416
