-0.030008936
0.7692188
0.10211492
1.774369
-0.6345195
0.07163829
0.7426259
0.03727352
-0.51547796
-0.80504894
1.0976981
-0.26045424
-1.8140486
-0.41125286
-0.42213935
-0.9845621
-1.004383
-0.078331746
0.6322108
-0.35493118
-0.21887724
1.2727675
-0.9589203
0.24379915
-1.5689555
-0.007450618
-0.571885
0.5775014
-0.67569804
1.0562764
1.1094543
-1.5989411
-0.39480075
0.3323466
0.13163675
0.88540316
-0.35047626
-0.0018926014
-0.47597042
0.8598148
0.283249
0.9927578
-0.7911892
0.25298446
-0.7770805
-0.22144231
0.7007521
0.42002323
-0.15847792
0.096766286
-0.28849423
1.3293511
-0.8469097
1.1921321
0.40511918
-0.42226738
-0.6117152
-0.620391
0.98381203
1.9043708
1.1672839
-0.28439483
0.04542171
0.2316121
-0.5298747
0.32137284
-0.13187759
-0.364516
-0.22519076
0.4474957
0.46466526
0.63621455
-0.27460814
-0.10823583
0.62532425
0.33280054
0.03764278
0.5849293
-0.43114313
0.33290914
-1.5320948
-1.2607101
-0.9692562
-0.901777
1.8577318
-1.3919634
0.71553063
-1.3180442
0.3637042
0.26676264
0.2733049
-0.2609823
0.9278005
0.91670704
-0.7482305
0.08133133
-0.8804594
0.22820011
-0.59083205
0.22311847
-0.16228805
1.1618456
0.08961696
-0.09535765
-0.4956038
-0.09951688
-0.06376387
0.9130517
0.21499968
0.08596693
0.52393734
1.3406423
-0.32350853
0.57717884
-0.8972498
0.48374164
0.3233807
-0.53659606
-0.40634874
0.4356588
-0.45075175
0.5891245
0.61622685
0.57626367
0.028750574
-0.5015332
-0.84906447
-0.17863555
1.516318
0.71972716
-0.59904397
0.39755142
-0.95957464
0.929331
1.3851659
1.1446376
-0.6385898
1.1393436
-0.16167825
1.6576233
-1.0621679
0.391052
1.111225
-0.08217076
-0.84499294
-0.6638118
-0.14579052
-0.6339216
1.5149093
0.23191199
1.0235676
-0.26747075
0.30731636
0.9564802
-0.020726763
-0.09553003
-0.74849343
0.88998896
-0.9977674
0.35827443
-1.4168559
-0.76893336
-1.579413
0.71490085
-0.25194028
-0.6829774
0.18070604
0.14567679
-0.48878378
-1.1020669
0.66785216
-0.9743509
-0.27248636
-0.17652857
0.31974223
1.4111472
0.31988716
-0.83880234
0.77552956
-0.7504652
1.465982
-0.09525028
1.1811725
-0.7650171
-0.15758073
-1.846167
-0.49565485
-1.1980687
0.5715677
-0.5994808
-0.46695605
-1.1905433
-1.1940331
-0.7586028
-0.5815787
1.0794677
-1.509472
-2.0933356
-0.29832217
0.51605266
1.0034887
-0.8538832
-0.5488076
-0.9135927
-0.7841803
-1.0827341
-0.14809543
-1.2523062
0.5832758
0.80312663
-0.12938245
1.2106627
-0.58889115
0.063963726
0.37742743
0.17872757
-0.57386965
-0.89015204
-0.7382308
-0.66347766
0.7958549
0.6437649
0.3667617
0.72123945
-0.95740366
1.2149
-0.9564883
-0.76573056
0.39358577
-0.3079152
-0.13607322
-0.476901
-0.26905254
1.5284648
0.7042549
0.19854312
0.5740572
1.512558
1.1436249
0.9005581
0.4611792
-0.3548635
0.66601115
0.38209686
0.7192298
0.29525834
-0.92896086
-0.20073386
0.47163305
0.22191858
-0.23478013
1.2819878
-0.6272355
1.0855963
0.19324353
-0.15585868
-0.38229826
-1.060367
0.23411404
1.1690959
-0.9396412
0.63965124
0.827463
-0.31043655
-0.760303
-1.0465956
-0.43642417
0.14274351
0.70315903
-1.7096093
0.42677304
-0.4483194
1.1747293
-0.14334562
-0.3839878
-0.13167018
-0.76777935
0.5276471
-0.54434234
0.07566859
-0.14657965
-1.0992534
-0.02151455
-0.102064475
0.4733851
-0.45672482
0.71323156
0.5957531
-0.7452285
-0.4769941
-0.5325418
-0.2257264
0.029927831
-0.12448296
0.4414193
0.78857255
-0.8823887
-0.67812294
0.004974064
-0.066254474
-0.32167533
1.1893893
-0.659486
0.73111844
0.24157147
1.1022842
0.4412299
-0.8560271
-0.4850178
1.7499808
0.75683093
-0.6115216
0.38029894
0.2783922
0.01119635
1.4591514
-1.3721048
0.30401403
1.1176844
-0.69168633
-1.0368428
0.97778755
-0.5142534
-0.21650401
1.430324
0.4447947
0.39433855
-0.83018684
0.3806842
-1.1945392
-0.10967826
1.2843734
0.64120406
-0.7179386
-0.5694405
-2.3897517
0.6651485
-0.4114157
-1.6149898
0.09901668
-1.9256948
-0.65835035
1.404529
0.40847605
-0.098485485
-0.20175645
-0.9074622
0.4021526
0.36242318
0.3277588
0.95391697
0.09931242
-0.016897706
0.2932862
-0.3883604
0.4787267
-0.61188716
-0.152407
0.46160412
1.1827909
-0.07701106
-1.1981105
-1.2770461
-0.37291893
-0.54939264
0.4701421
-0.26603758
-0.9924275
-0.2627662
0.6867228
-0.38124916
0.5205551
0.19675191
-0.3899732
0.37165347
-0.65671796
0.170206
-0.37062988
0.39565095
0.39917165
-1.0387206
-0.056742765
-1.153479
-0.036666512
-0.39424205
-1.5536507
0.3262828
-1.9919201
0.06038698
0.71343106
-0.2188668
0.08162879
0.12159333
0.7231792
-0.0828857
-0.8344413
-0.019927548
0.026464783
-1.1352342
-0.21759732
-0.5447634
-1.3882604
0.16700506
-0.5364152
1.4147505
-0.67159086
-0.7868798
0.34687763
0.3891966
-0.5401336
1.5678606
-0.28453743
0.86421454
0.009989722
1.080938
1.2306794
-0.64145803
-0.9610432
0.78958243
-0.37480924
-0.5421523
-0.1406999
-0.008930449
1.2177325
0.42044958
-0.60671276
-0.30440128
-0.69350594
0.38046092
1.1242296
-0.7658805
-0.7143931
0.7853922
1.4781793
-0.68934435
-0.8430383
-1.0084107
-0.41209608
1.0860943
-0.1436148
1.115345
-0.7279261
1.069979
0.16626143
-0.1626393
0.02865867
0.9548713
-0.509967
0.8992293
-0.3146402
-2.2762818
0.7233455
0.18286116
-1.120895
-0.033517137
0.55610424
-0.34659585
0.7841549
1.1551085
1.4202822
0.5666441
-0.7959745
0.75314593
-0.18098922
1.6061972
-0.96461415
0.8799396
0.7188191
-0.6900112
-0.26733115
0.32379872
1.186222
0.021772522
1.3204188
-0.051205046
-0.61025214
1.1366553
0.29724535
1.3043799
0.8553058
-0.26299766
-0.4593807
0.79260963
-0.7929875
-0.909591
0.7820092
1.1792388
0.14440033
0.00816491
0.5052126
-1.3601549
0.3390098
0.886582
-0.14562345
0.31646886
0.18054742
-0.6250235
0.5191191
0.18798433
0.091719724
-0.49516398
0.38215315
1.1486998
1.1923792
0.059303742
-0.57727927
0.0351999
0.31339046
-0.36908704
0.5853347
0.004411674
0.05220129
0.045729235
-1.1306355
1.2516656
0.42784694
-0.09737753
1.2850022
0.9200841
-0.29695
0.3572286
-0.641861
0.3446416
0.6005948
-0.89693403
0.055564895
-0.3279654
0.12442271
0.06379396
-0.33819672
-0.15822858
-1.05622
-0.3567999
1.2520087
0.45895395
1.0842961
0.9403396
0.7901459
0.86573434
0.22658116
0.057677098
1.2087995
1.3674675
-0.05334805
-0.33116952
0.54465777
-0.92988354
1.072478
-0.058029942
-1.0914186
0.8272975
0.4966982
-1.9868681
-0.8407204
-0.5285075
-0.88818717
0.6101647
-0.5695124
0.44549507
-0.14030544
-0.14994977
-0.1286249
-1.0031971
-0.42267448
-0.22080302
0.65000796
-0.81514245
1.3371896
-0.73462844
0.6861942
0.51405233
0.47932002
1.1825082
0.19717474
-1.7264082
-0.95829815
-0.995216
0.4109922
-1.0223936
0.2963027
-0.5799086
0.22972812
0.5680102
-0.5174158
-0.5226451
0.12951903
-0.5149334
-1.290723
-0.17562892
0.079844944
-0.318353
0.40510044
-0.20462824
-0.58092135
-0.8813993
-0.98759073
0.61294186
-0.5828095
-0.65001404
-0.88779825
-0.20255218
-0.27243796
0.80567324
-0.058122545
0.19913483
-0.075321786
0.8905848
0.29391554
0.96343374
-0.91342795
-0.49300656
0.74442154
0.5996759
-0.5474559
-1.0696304
1.121201
-0.20789964
0.75291884
-2.1486516
-0.90726936
-0.09112124
-0.20335995
-1.4554247
-0.18589076
-0.83984244
0.6634669
0.937737
0.7924868
-0.66784215
-0.14404117
0.6097154
0.36444056
0.6923123
0.3249611
-1.0752275
-1.3376337
-0.001460899
-0.76243
0.04794016
-0.48552665
-0.22760145
1.0848311
0.61472833
-0.6003201
-0.6682723
-0.70408106
0.8341838
0.17060795
0.5284263
-0.4733572
0.19731176
-0.86442924
0.1806631
-1.0673428
0.4564724
0.83691067
1.477158
0.40446085
-0.069187805
0.7970002
0.50495094
0.5043589
-0.5856847
0.77410734
-0.23342448
0.9811798
-0.77068144
0.11073717
-1.2945664
-0.0013984558
-0.037837464
-0.49546364
-0.17501403
-0.9399764
-0.56708
-0.62287235
0.8846967
0.55089945
-0.8421012
0.7369515
0.6648031
-0.05239665
-0.16468367
-0.038412053
2.0871732
0.66929644
-0.3666112
-3.3117027E-4
0.07199892
-0.34109315
-0.3301371
-0.32484925
-1.8297874
0.5295806
-0.9103458
0.33859152
-1.3962076
-0.8952651
-0.8371027
0.74008185
-0.4592561
-0.26802406
1.4099758
0.79058003
-0.028683657
0.020093588
0.93516237
0.058746047
0.6087333
-1.1780066
0.178357
-0.62474066
0.6730065
0.9350186
-0.7163905
0.17659797
-0.22643134
-0.6658952
1.4367507
-1.0263805
-1.0262297
0.34154087
0.8311682
-0.30729806
0.8483221
-0.35197145
0.13880019
-1.1600873
0.14367488
-0.5801993
-0.43368816
1.1335185
-0.21183173
0.14037786
-0.7191083
-0.7916542
0.79095894
-0.96197784
-1.2189608
1.2324733
0.5195639
0.3709036
-0.12342553
-0.67163366
-0.2537586
-0.765423
-0.38695228
-1.1429609
0.9039199
-0.36622292
0.69016904
0.15619765
-0.19361532
0.8999012
1.2040826
0.6802478
0.9940673
-0.23633468
0.9861419
0.22102578
0.7333669
-0.53780854
-1.508188
0.25994018
0.94139755
-0.53165144
-1.0653771
1.4999648
0.3764868
-0.19687758
-0.33792555
1.3731695
-0.27336395
-0.93198025
0.5821591
1.3757117
-0.49332514
0.24781166
-1.4556429
-0.5473856
1.7010211
0.2804269
-0.027501032
-1.3579736
-0.054835346
-0.75918484
-1.4862078
0.55220276
0.60376793
-1.3726779
0.33770898
-0.7757735
-0.12701358
0.8234601
-1.0001389
1.0157787
-0.59053206
-0.010826282
-1.6253891
1.5456043
0.5485504
-1.0493433
0.47798228
-0.50781524
-0.6989906
-0.38520682
-0.3693995
0.061229117
1.5510736
-0.19494268
-0.4599252
0.3840362
-0.5954278
0.25603837
-0.49142456
-0.6527779
-1.617023
-1.032379
-2.1296096
0.5756112
-0.23027347
1.3325074
-0.73339325
-0.17774636
1.097504
1.6364635
-1.0678055
0.5851097
-0.25763673
0.94269466
0.35144034
1.252464
0.46473646
-1.079477
0.556332
-1.0948013
1.1756345
1.1278641
-0.12908834
-0.80264586
0.93337965
0.9990322
-0.70139813
1.034571
-1.0997132
-0.083989486
0.93048
-0.5787684
-0.47878608
-0.46775693
1.1312293
0.35826033
0.40979978
-0.58502084
0.4451873
-0.32809645
0.32187226
-0.41620684
0.2159167
-1.5815374
-0.5781422
0.11948085
0.6515751
0.42811334
-0.3606638
0.10956373
-0.16836458
0.51320964
0.3834924
-0.23510444
0.5660552
0.09442946
-0.3996582
1.3800677
-0.8194779
-0.18760268
-0.15991364
0.7238743
1.1366415
0.10797088
-0.15894619
-0.8166332
-0.63435495
0.5900592
-0.6858468
0.59916615
-0.30238616
1.6123248
1.0756544
-0.07676174
-0.96008426
-1.1260525
-2.325862
-0.36208546
0.96360856
-0.012822011
-0.8291805
0.39854962
-0.78081864
-0.79764867
1.0545042
-0.577842
0.8560423
1.5103847
-0.17894697
0.69766814
-0.6188854
-0.1516504
0.712104
-0.6798046
-0.865549
0.39279458
-0.16002727
0.6270184
0.53903586
0.6080509
-0.6180798
1.2062976
-0.94093615
0.37620136
0.6859132
-0.5254944
0.8714127
0.10161204
1.576244
-0.77820617
-0.85417026
-0.48504728
-1.3366345
-0.7938093
0.36797392
0.31614405
0.7370615
0.49105108
-0.40689316
-0.98008156
-0.2160721
-0.31695417
0.99811774
-0.42660618
-0.76446074
1.1063465
-0.46856335
-1.1899577
1.2428641
-0.7182345
0.894764
0.54398346
-0.583233
-1.4386743
-0.98286307
-1.2015827
-1.6295652
0.31660655
0.19720784
0.68489367
-0.91908157
0.466616
-0.17812942
-0.9079532
-0.33218217
0.7292493
0.71622235
-0.32744583
0.21201874
1.0276985
0.06127736
-0.9052368
-0.02222096
0.39122364
0.47952038
0.634917
0.49493858
0.55656487
-0.15779161
-0.4428513
0.9615869
0.65740436
0.22289898
-0.7708848
-0.71752363
0.3894724
-0.18204491
-0.7744402
-0.34879833
0.55724734
0.1442532
-0.41209117
0.23164739
0.81293046
-0.0063722613
-0.3385571
0.7946719
0.12407689
0.36162245
-0.66730577
0.79626757
-1.9223771
0.4473642
-0.66248465
-1.1540542
-0.9120352
0.21442038
0.26630867
1.024048
0.5090113
0.2007949
-0.5435851
0.3403587
0.43561837
1.2672935
-0.23668508
0.8382426
-0.10125116
0.19191557
-0.7375983
0.31270987
0.7297069
-1.8639612
0.7726454
-0.36463985
-0.32234937
-1.2666471
-0.71987456
-1.2668159
-0.15057173
1.1323769
0.044838883
0.62688
1.0067148
0.86623734
-0.21857435
0.019895948
-0.13291565
-0.597921
-0.037389074
0.616153
0.0628374
-0.88156956
0.93559796
0.029815575
0.6150159
0.5951275
0.12737542
1.1742723
-0.8860457
0.9038184
0.8290017
0.41490176
-0.7073932
-1.8454967
-0.5363707
0.4270671
-0.98234516
-0.19357537
0.6918085
-1.7643802
0.48262388
1.2803729
-0.4724753
-0.56495893
-0.48730308
-0.23846267
-0.110894956
1.2535601
-0.61256784
-0.40878558
-0.45925516
0.3920018
-0.31311193
-0.6151188
0.17962079
0.97132313
-0.35481945
-1.0967506
-0.086716294
-0.19046244
0.08857011
0.14132662
1.0495086
0.42426032
0.52232933
0.33343697
0.33826867
0.22698732
0.97002405
-0.6900083
0.5919298
0.07930851
-0.73940355
0.2322289
-0.9301214
-1.89825
-1.0364957
1.3396958
-0.1151775
-0.6310637
0.58738655
-0.71214044
-0.6011914
-0.783465
-0.10446908
0.4648945
0.09583862
-0.041426357
0.4853044
1.0907971
0.3601226
-0.50706035
-0.2161324
0.68008864
-0.5120266
-0.59005314
-0.49105087
-0.673898
-1.3284936
0.44749168
-0.3327863
0.55797195
0.012315394
1.0640815
0.52648795
0.4778276
-0.048837468
0.854749
0.1684288
1.2970023
-0.5760225
-0.4799842
-0.19182964
0.103868164
-0.8082271
0.5596795
0.19961984
-0.36788464
-0.6347159
-0.3941829
-0.60370123
-1.2864829
0.012955463
0.63520646
0.100950174
-0.5015295
1.2502283
-1.2177709
-0.48087108
-1.1551272
0.34096846
-0.047170404
-0.3693082
0.7450839
1.1673613
-0.095322825
-1.4116151
0.6997738
0.26080117
0.14604464
0.48824728
-0.7026642
0.41870344
-0.116087005
0.34475392
0.6332284
0.3004454
0.72576475
0.9438149
0.6369891
0.94109464
0.25607306
-1.5516421
0.5317301
0.7833633
0.7023124
-1.0884488
0.04195094
-0.99737734
0.54058886
-0.99605805
-0.63930786
-0.852334
-0.3930799
0.6825214
1.1022651
-0.37335494
-0.23857264
-0.09325062
-0.55917525
0.8745267
-0.45366174
0.19092311
0.22148757
-0.059308015
-0.66157633
-0.8513661
-1.1288023
-0.7894968
0.43816134
0.5513649
1.0677145
1.5253383
0.622962
0.0037556845
0.8021841
0.2196092
0.63476694
0.3873183
0.95551956
-1.3168364
0.13064346
-0.57351387
-0.29580122
0.884673
0.5853128
-0.7794193
-1.4092236
0.1586893
-0.86054397
-0.39183
0.56508565
-1.0038092
0.51509523
0.32259697
0.1634917
1.4890609
0.66471416
0.62993115
0.11566749
0.14774624
-0.33019727
-0.99076307
0.4728946
0.9239442
0.9944239
0.5603373
-1.4620595
0.5454232
-0.91198874
-0.6085543
-0.07086736
0.91057706
0.50571054
-0.35849604
1.2237955
-0.31819627
1.0594368
0.5918164
-0.4923001
-0.4324135
0.12499224
0.2563894
1.0926001
0.05422771
0.9450596
-0.035338584
1.0611439
-1.1231407
-0.039756935
0.115907855
-0.63347805
1.3819166
0.210615
-0.54107225
-0.51612693
-0.04999624
-0.35291255
0.6830186
0.81215596
0.45818144
0.44600883
1.2346963
0.9027183
-0.63997716
-0.022301408
1.9642866
0.9022292
-1.7859362
-0.4165546
-0.7665468
-1.7543861
-0.9108065
0.7458787
1.3757573
-0.21594827
-1.5317231
1.664489
0.8699448
-0.052923653
-0.04634986
-0.37693346
-0.36350167
-0.20881061
1.036487
-0.43433267
0.6426945
0.6947317
0.99135286
-0.26860207
-0.36647668
-0.30792227
-0.61930645
0.15491001
-1.0727128
-0.032502286
-0.2596269
-0.7186319
-0.49866852
0.3744303
-0.81391263
-0.22542688
0.3955234
0.32087556
0.10743242
0.9770904
-0.8766962
0.7734582
-0.3444602
0.4057174
0.42921776
0.9952279
0.1003716
0.69693613
-0.838731
-0.8774035
-0.22748595
-0.97878164
-0.5704598
-0.100267395
-0.1365216
0.35029724
-0.5493454
-0.84573776
-0.6969819
0.7396481
0.08172982
0.08580941
-0.03602848
0.12129371
0.66115093
1.158397
1.2593716
1.1382004
-0.6298995
0.08847446
0.12794404
-1.2714729
0.44381985
-0.065979086
0.68937016
1.160125
-1.6864289
0.038838573
-0.19262044
-1.4685329
-0.30386463
0.077665105
0.38819703
1.0948277
-0.104356945
0.13343838
-0.5868227
0.7726705
0.6102502
-0.7193621
-0.43174064
0.69173765
1.4249966
0.96568453
0.8275996
1.0401508
1.3095136
-1.1573437
-1.1060851
0.46180996
0.5627125
-1.3286229
1.297979
0.58211327
0.14722306
0.40550074
0.17365015
1.5101737
-1.0093817
-0.7923917
-0.94580626
-0.21980539
0.60928
-1.0749896
-0.28564706
-0.578081
-1.3670114
-0.33614162
0.28586948
-0.8246951
-0.2950971
0.82365614
1.5920577
-0.35501862
0.061108384
0.11819732
-0.32567063
2.1055574
1.4273188
0.47559744
0.06032624
-0.07791753
0.94349754
0.30309397
0.23477308
-0.10178755
0.8601806
-0.6645855
-0.6353451
0.21107104
-0.5107602
-1.2975504
1.2782612
0.43892077
-0.9922714
-1.123016
0.2193759
-0.7264704
0.7003387
0.9258285
0.9913176
-1.0249743
0.49051654
-0.28195345
1.1816376
0.1859787
0.9009338
0.14706966
-1.1821142
-0.76837605
1.2747144
0.88662606
-0.6183519
0.2902118
0.6215465
0.7353931
1.004645
-0.27971697
-0.78681314
0.3542258
-0.114988916
0.4305404
0.13724428
1.6102806
1.1847123
0.43473396
0.7410326
0.74568665
-0.6347175
0.44752982
1.2028507
0.2118109
-0.24094436
-0.22319192
-2.0326507
-0.4356841
-0.9028408
-0.79703176
-0.30866343
0.82001054
0.6786204
0.6570169
0.05468278
-0.54510087
-0.09004812
1.1778302
-1.4285213
-1.1350228
-0.9036952
-0.18284774
-0.6504741
-0.21739733
1.0872593
0.74297285
-0.14752072
-0.73866147
-1.3535471
0.723163
1.5299608
0.048001546
0.26023448
0.42414826
0.22778247
0.25645608
0.07251167
-0.010182793
0.8987904
-0.6791971
1.0732921
-0.36897904
0.6156483
-0.29067293
0.40757027
0.19519548
-0.753535
-0.58960986
0.499862
-0.525641
0.02882111
-0.7010261
0.45377153
-0.22145781
-0.7330146
-0.004766518
-1.2213285
0.22980684
1.2579274
0.96235496
0.17428088
0.68832207
-0.89603764
0.4188193
0.63196194
-0.44864312
0.72727627
0.79983306
0.7275381
-0.6991628
-0.9208188
-1.171324
-0.29878053
1.8629596
-0.31478316
0.08498455
0.0071303966
0.3388099
1.062921
0.52433205
-0.9064852
-1.0530533
0.605168
0.33055875
-1.1239591
0.48915517
0.107731156
-0.67943865
-0.27913272
-1.4670192
-1.451466
0.22507986
1.134032
-1.0319047
0.62468666
0.50407755
-0.88937944
0.9996701
-0.19996394
0.41181946
-0.4613001
0.14422937
-1.1358829
0.61351925
1.019589
0.5708088
-0.3689566
-0.9225819
-0.71430665
1.0537331
-0.31056482
0.6355475
-0.9630683
-0.97228634
0.14388879
0.28232792
-1.0605531
-0.376287
0.7563621
1.0250456
0.74674517
-0.052740328
-0.757159
0.5260472
0.58967566
-0.4182754
-0.45432636
0.29152885
0.9711562
-0.6363087
-0.21236514
-0.3869965
-0.7719424
0.59312564
0.8117741
0.18907866
-0.12859735
0.888334
0.77880734
-0.5796901
-0.4734816
0.26079348
0.9550416
0.36081544
0.6763369
0.108873226
-0.030457532
-0.089731514
-0.4493791
0.55557275
0.19990909
-0.54337025
1.2868009
1.7546548
-0.2593246
0.30828464
-0.7137945
-0.5892717
-0.3134805
1.0347987
1.2091339
-1.5556617
-0.23669769
-0.22395472
-0.41014925
0.34135348
-0.17423834
0.47036484
0.4153456
0.1441586
-0.29722914
-0.31612003
-1.7946274
-0.33370525
-0.7973543
-0.98560464
0.6952345
-0.6004863
0.26374745
-0.4096989
0.8571117
0.46178895
-0.6434694
0.042533994
0.36612934
-0.57297343
0.19826913
0.03613965
-0.19291556
0.15877606
0.6768833
-0.4319304
-0.24081118
1.0254661
-0.9043069
-0.7186669
-1.3411907
0.3170029
-0.042228892
-1.2593665
0.38175362
-0.2630303
-0.4599715
-1.1226678
0.8197565
-0.1847863
-0.41595662
0.5083277
-0.95974666
0.755639
0.31661764
0.2982908
1.0756655
0.97806585
0.16378362
-0.21266389
-0.33339897
0.38320896
0.31558132
-0.8448502
-0.32893634
0.21605435
0.004238873
-0.16531731
0.41968805
0.6262056
0.23549424
-0.25151736
-1.3163437
-1.13312
1.5813113
-0.22485617
1.2848881
-0.50284725
-0.75148624
-0.360505
-1.9355372
-0.6934609
0.5225069
-0.78427833
0.024025273
-0.20200671
1.039296
-0.42161065
0.7104309
0.94218946
-1.0338646
-0.94214344
-0.12573504
-1.4836234
0.39534563
-1.0705608
0.6211984
0.6075693
-0.92788076
-0.46132445
0.19482706
0.7343682
0.2244873
0.90574723
-0.7091243
0.04852701
-1.1146247
0.92731434
-1.1793325
-0.21218239
-1.4428773
-0.6915671
-0.48681596
0.15215379
-0.9552064
0.6204241
0.70797265
-0.7744452
-0.795239
-0.65960526
0.8773152
-1.1627529
0.71068066
-0.53492194
-0.7150419
0.14010817
0.49996984
-0.8987494
-0.09976958
0.4575943
0.85602534
-1.5868329
-0.5780483
1.3070977
-0.21839643
-1.1100688
-0.123139314
0.88383967
-0.81284153
0.22552286
-0.45383924
1.3766153
0.30523935
0.5785144
1.4406842
0.4014757
-0.9970662
-0.054002106
0.010940685
-1.3595321
0.46984142
-1.6987516
0.22393736
2.119369
0.6335173
1.2157366
0.7188107
0.13808446
-0.89614373
-0.33265242
-1.4959557
-0.35338745
-1.7718419
-1.2024636
-0.29331207
0.9718239
-0.6292465
-0.8098736
-0.021927461
-1.0499785
0.010496055
-0.19839585
0.0627149
0.1846077
-8.459418E-4
0.37864792
0.49856094
0.72203106
0.13054088
0.8887364
0.37651166
0.3558293
-0.20371558
0.30297843
1.173269
0.15413809
-0.5424446
0.8225883
-0.21264815
-1.08114
-2.1535623
-0.6513159
0.437025
0.3151783
1.0907815
0.617973
-0.7911867
1.1610043
-0.33972436
-0.39618573
-0.13567913
-1.2412933
0.48549226
-1.244679
-0.09420475
0.065543234
-0.7751099
-0.8818812
0.10463614
0.68826383
0.7624061
-0.82379395
-0.8176305
-0.04170337
-1.3658317
0.65414345
-1.0535097
0.010291893
1.0064863
0.28740698
-0.1569313
0.3186129
-0.2121668
0.26743183
-0.3001474
0.8433904
1.5317008
-1.0596291
-0.21278544
0.29330516
0.69925267
0.46054098
-0.53634363
0.21389283
0.25505522
0.49055514
1.3556322
-0.5368076
-0.036655616
-0.56011826
-0.10156351
1.5176764
-0.6397368
0.14306438
-0.16103917
0.19252199
-1.3039765
-0.56814575
-1.3091153
-0.86684644
0.0031820128
0.6018197
-0.9705875
-0.22866793
0.7428682
0.6258832
1.2868613
1.0762516
-1.3577914
0.32388997
0.24034749
0.18926787
-1.649678
0.36031163
-0.38975886
-0.41396558
1.1063846
-0.8596095
0.12092738
-0.87197876
-0.97485214
-0.16971706
0.3194298
-0.3082121
1.5514414
-0.353772
0.5051001
0.44513738
0.01022252
0.8803322
1.0604438
-0.37343776
-0.006238329
-0.40080696
0.3657859
-2.4195008
0.88101393
0.097449504
-1.0560318
0.902428
0.3997984
1.116569
-1.110265
0.92755896
-0.15773982
-0.26201177
0.7088849
-1.2155447
0.33527854
1.4744215
0.8406284
-0.32116887
-0.8097992
-1.1566486
0.2801173
1.4283512
0.22084385
-0.832296
-0.73151046
0.889087
1.0466383
1.8488072
0.38471228
0.97268236
1.2388322
0.6529722
-0.052555922
1.6689347
0.7152332
0.73209137
0.83087325
0.3375267
0.72533596
0.41013604
-1.2093486
-0.69936913
-0.43110982
0.6951973
-0.47555012
0.5720298
0.35453713
1.0802294
-0.0689845
-1.3694749
-0.0011025678
-0.32153973
0.99798685
0.39966092
1.0017483
0.024988849
0.023469193
-0.42792714
-1.1560808
-0.8731041
1.1360377
-0.40703297
-0.13586402
0.2996315
1.086927
0.43226036
-0.1640489
-0.27172795
-0.41715747
1.2756695
-1.495913
1.0338522
-0.6799032
-0.21683517
-0.730663
-0.637018
-0.34241137
0.43772456
-0.61469483
0.6739561
0.27499506
1.0984267
0.48044798
-0.50226766
0.4937707
-0.47842097
-0.65782577
-1.1405289
0.74095815
0.75916255
-0.59608775
0.79791325
0.37551877
0.310101
-0.32325822
0.6747568
1.2159969
-0.46029687
0.3194786
-0.9283471
1.1128654
-0.7564128
-0.02663466
0.43365952
-0.31315336
-0.47857547
0.6708175
-0.827356
0.21931872
-0.7242995
-0.33111146
0.7755019
-0.13167793
0.5273153
-0.052875884
0.8018276
-0.74902195
-0.4258565
-0.9172593
1.7006906
0.33926895
-1.0147249
0.22044992
-0.81484294
0.2950507
0.08824869
0.54146445
0.7253907
0.5617948
0.51302314
-0.0013292097
-0.16119651
0.40395203
0.89056927
0.5072308
-0.99464077
-0.5905774
-1.1742214
0.9442846
-0.9577059
-0.5692627
-0.005224545
-0.63630265
0.32319504
-0.42498487
-0.15747452
-0.29439783
1.182523
-0.40357894
-0.04405449
0.8476502
0.37847438
0.43898523
0.6427377
-0.17543234
0.20306027
-0.4794914
-1.253625
-0.63335365
-0.12147601
0.5736121
0.3916571
0.6729955
0.05685873
0.6612577
-0.67551804
0.4219967
-0.5032674
0.1744933
1.4265002
0.47259587
-0.5750188
-0.95352596
0.846034
1.0018114
-1.3004155
-0.2472896
-0.52645904
0.83524567
0.759413
0.5634278
-0.34938133
1.0679812
-1.1102413
-0.70365816
-0.04895637
1.4705551
-0.23765054
0.30977955
1.02982
1.0018307
0.066797785
1.0289106
0.43693304
1.3861601
-0.7949494
0.46106043
-1.3575705
-0.4269214
0.92173123
-0.5631927
-1.7056959
1.3638273
-0.24068238
0.2820762
1.0690387
0.88707054
1.2270901
0.8274438
-1.30047
0.5308576
-1.4194762
-0.4973043
-0.05007551
0.5603627
0.054160908
-0.7739877
0.41803083
0.8731079
-0.10027935
-0.21899866
0.6747591
-0.9819218
0.71160704
0.18450008
0.01342657
-0.16409825
-0.59321433
0.96217227
-0.50244254
1.2776332
0.8023152
-1.5646048
-1.4533136
-0.28873163
-0.13405323
-1.9419243
-0.42980906
0.2348624
0.7882568
-0.43776867
-0.8146054
1.3744158
0.42557076
0.052585203
0.5994484
-0.41548958
0.1519091
-0.8831832
0.59677345
0.8688039
-0.08866651
-0.09696138
0.05895139
-0.9235992
-0.17232357
0.9035636
0.11666819
-0.27503377
0.88369256
1.2691056
-0.84118456
-0.9248126
-1.0910567
0.46618253
1.0953913
-0.35786963
0.6870547
-0.031777974
0.18591705
0.153902
-0.61215943
0.7052578
0.056348436
0.99528825
0.29441026
-0.20175917
0.6529447
-0.5744808
-0.3891941
-0.7458418
0.052142706
-0.026654024
0.27052385
0.8512217
-0.49075276
-1.3464954
-0.01122914
-1.6003873
0.14452423
0.04115234
-0.89662486
-0.3595888
0.20993064
0.43521538
-0.79441446
0.39406264
0.059794832
-1.2814767
0.2636792
0.7464515
0.8669681
0.32682478
0.39914265
-0.5693577
-0.6388167
-0.19857578
-1.0238761
0.6544477
0.02478758
0.51389676
-0.43514726
1.1181363
0.11084733
-0.0021720903
-0.13057517
0.07938804
1.666092
1.5126648
-0.5569036
0.85703444
-0.42837948
-0.7896888
-1.1501744
0.41415414
-0.26651353
0.9117499
-1.1446921
-0.45607466
-1.0264558
0.8942978
1.1754543
-0.20816928
-1.4329554
0.11501017
-1.1114521
0.62893224
-0.070431896
-0.08650827
0.38771933
0.025355142
-0.118791446
-0.42452964
-0.20532912
0.49839586
-0.54482627
-0.8520892
-0.44306692
0.09306621
-0.13014026
0.68090117
-0.27563915
0.20622237
0.42930683
0.598183
-0.7175495
0.83067566
-0.5828437
1.2600462
0.67211336
-0.8964336
-0.42483157
0.5337756
-0.93634987
0.90139616
-1.2692175
0.8917037
-0.3759414
1.204754
-0.78782207
-0.39042228
-0.5417724
0.48758823
0.105720006
0.8295571
0.2003427
1.012069
0.18442068
0.9639104
-0.16364942
0.21534142
-0.5012035
-0.7044736
-0.9500328
0.5440119
0.37274903
-0.88112944
-1.672842
-0.32889602
-0.39956856
1.0934821
-1.1049998
0.65934706
0.040043402
0.77584624
-0.36133772
-0.9122403
0.6608106
1.0408872
0.13380857
-0.22608607
-2.1191442
1.3566788
-0.16033743
-0.025565913
0.18180351
-1.3807969
-0.4463704
-0.21060783
1.0978457
-1.2909335
0.5117621
-1.2532897
-1.301085
-0.4908356
-0.18583149
0.21318917
0.4329508
-0.05371734
0.48259765
-0.31345376
-0.93457353
-0.5958186
0.5636971
0.86253273
-0.86214316
0.4875547
-0.6961969
0.8835906
-0.62941074
-0.5606822
0.9795405
0.31285328
0.6354157
0.7002564
-1.3779014
1.0422401
0.5789445
0.4453161
-0.47298968
0.487145
-1.0396554
-0.6897657
1.1047673
0.20840932
0.9212144
-0.4100713
-1.3432778
-0.2290438
0.15317416
-0.28984046
0.7492201
-1.103333
0.77132213
0.21469705
-0.52047795
-1.2108371
1.4283866
0.73997086
-0.8217947
-0.08521301
0.651891
-0.008991767
-0.6690624
1.5882715
-1.2702457
1.3206483
0.37290367
-0.10160707
0.383075
0.641212
0.5346367
0.7676489
0.27009094
0.87783736
-0.70861423
-0.1210311
-1.7148591
0.5950865
0.4128278
0.68837637
-0.7877879
0.18606795
-0.0031006632
0.7402144
-0.09866943
-0.8275603
-1.0512767
1.1973473
0.06272423
-0.016547887
0.44665325
-1.5486308
-0.40951386
-0.10902491
1.2278577
0.40849373
0.047085702
-0.06516891
0.48509362
0.9283338
-1.1386858
0.42003337
-0.293036
1.7235183
-1.6577697
-0.07960178
-0.022374656
-0.5587207
1.0852734
0.40781212
0.070743844
-0.33374205
0.44801673
-0.12035454
-0.29532802
0.47552422
-0.4847238
0.9207332
0.17131244
0.69324887
-0.8208479
-0.9494205
0.366638
-0.2643239
0.28043947
0.20912914
1.2602522
1.0999368
1.1237775
0.8335834
0.52177787
0.96031344
0.63860947
0.0139267435
-0.80393153
-0.3968893
-0.7859357
-0.8728364
-1.4157492
0.08447347
-0.21042684
-0.09515484
0.06706126
-0.049725913
0.54445213
0.5924985
0.086306795
-0.20362197
-0.2259552
-0.64339566
0.3976832
0.9096846
0.08549846
0.2845689
-0.2111596
-0.32206535
0.44498911
2.3321936
-1.125565
-0.33284077
-0.9154213
0.95424324
0.47442707
0.92766714
-0.39623174
0.082982786
1.739045
-0.4355371
-0.2607431
0.84588856
0.9587409
1.4856143
-0.10711887
0.26003334
0.7301127
0.15529911
-0.08103217
-0.8830966
-0.037977364
-0.7408303
0.8550445
0.022087406
-0.01064152
-0.18384586
0.010226762
0.6197657
0.7589967
-1.3563434
-1.126958
0.29213935
1.189215
-0.27794915
-0.9024195
1.1471691
-1.2267611
0.86321604
1.1262723
0.061933294
0.13090827
1.0426248
1.0213134
-1.14112
-0.570732
0.19897237
-0.29922733
-0.7924587
-0.5797284
-0.18146393
0.8066892
0.08221387
-0.76537186
0.6212312
0.1846423
-0.4041708
-0.42172182
-0.18035376
-0.5900695
-0.4853712
0.6684134
0.7674617
-0.2810677
-0.23520581
0.18235321
1.0244371
0.19952635
-0.009017266
0.420318
0.5620669
-0.22348113
-0.122032225
0.20128542
-0.22214274
0.0029787244
0.6141866
-0.90213215
-0.6591181
-0.42949465
0.008268488
0.43617433
-0.27102298
-0.44469374
1.0120615
0.19453548
-0.7047717
-0.8567072
-0.2208113
0.55361605
-0.19760707
0.73422134
0.55500865
0.37524962
0.19649994
0.14747189
0.77732015
-0.12895323
-0.6356876
-0.6348647
1.4640366
0.65586215
-0.23728162
0.097435184
-0.31486157
0.110420056
1.7408884
-0.14447649
-1.2830552
-0.25741515
0.8318864
-0.11867817
0.33229455
-0.41883808
-1.4070052
-0.53202754
0.8394152
0.78176814
-0.8747014
-1.2466218
0.12375217
0.2126184
0.15322004
1.3072417
0.6852564
-1.3803195
0.43629566
-0.34243014
1.0823146
-0.15847471
-0.06001414
0.69487923
0.2831829
-0.5935346
0.9017528
0.2452057
-0.47887063
0.2255461
-1.7581822
-0.4583384
-0.6631025
0.7953376
0.832031
0.9092449
-0.16849107
-0.75196165
0.30408877
-0.026288256
-0.7694117
0.2765913
0.99982595
0.15333596
-1.2005385
0.77071804
-0.048868176
1.2029592
0.52011937
-1.331521
-0.22506064
-1.1181017
-1.3268522
0.77079797
-0.071428336
0.046552554
-1.1730409
-0.71182597
0.26409206
1.6055609
0.61164105
0.6174064
-0.31785038
0.15205696
-0.011955329
0.26199183
-0.8232599
-1.7886628
0.62190145
0.40572643
0.5134744
0.025046118
0.021535682
0.7127159
-0.41905838
0.8333202
1.3782055
-0.94297427
-0.32311997
-0.3796872
0.82071084
0.5660938
-0.09811143
0.090009674
-0.4772142
1.0473878
-0.9947259
0.7574132
0.18055496
1.0897762
1.4576467
1.1296854
-0.41152102
-1.194444
-0.9248637
1.2102674
1.019809
0.36937216
-1.0451204
-0.4804616
0.021658573
-1.702257
0.4965419
0.68566734
-0.88965535
0.18948999
-0.76229
0.2267907
0.46226716
-0.10387094
-0.2562016
-0.50188917
0.8140112
0.1898343
0.006307417
-0.28542066
-0.014989819
0.55461574
0.14599502
0.10411613
-0.16813295
-0.18694547
-1.5378952
-0.62248456
-0.35820162
-1.1653454
-0.9083816
0.68311423
-0.32834536
1.2993695
0.08464492
-0.16429073
-0.8588367
-0.30672163
-0.25940153
1.5323504
0.07251514
0.41364613
0.99951994
1.046817
-0.8817995
-0.5817581
-0.44923103
-0.17300704
1.1649061
-0.7267931
-0.58069545
0.42943275
-0.46907124
1.1414992
-1.1628851
0.19528206
0.672045
1.542451
-0.08300697
0.35230932
0.97326046
-0.3554986
0.61294776
0.7832215
-0.1348287
1.6684014
0.888027
0.0568652
-0.30700016
-0.48502338
0.07118941
-1.1574256
0.9321837
0.44876036
0.2331621
0.5457888
0.32310134
-0.46570566
-0.78008676
-0.49066544
-0.13281892
-0.56639475
0.60116106
1.2925895
-0.17834966
-1.780032
0.26714745
0.03514229
-0.64249384
-0.031560984
0.25719145
-1.2027476
0.69727635
-0.009166467
-0.18186851
1.0024042
0.70280886
0.8620811
0.8579037
-0.46983895
0.6435475
0.9146447
-0.6805597
-0.23012191
0.8346003
-0.668906
-1.6074747
0.36065176
0.5929506
-0.31422514
0.970504
0.12622432
0.23601365
-0.6011547
0.2776451
1.1493758
-0.013760298
0.8321886
-1.162895
-0.7282843
-0.97733986
0.14091116
0.18349858
0.6039204
-0.07363196
0.14029871
-0.16164142
0.7657337
-0.15637712
-0.2107755
0.44522145
-0.88649464
1.3932741
-0.24485965
-1.7305794
-0.4018179
-0.82952625
-1.1759846
-0.6159781
-0.7604745
0.0077513773
1.0674516
0.7590636
-0.64731956
0.41260827
-0.23896942
0.043210182
0.9149242
1.1077601
0.7113164
1.0408937
-0.6153009
-0.69506013
0.17163853
0.32118663
0.14215416
0.20143038
0.8576275
0.15184091
-1.1718439
-0.45150188
-1.1870047
-0.1671108
-1.1379303
-0.10243801
1.1500245
0.04036941
-0.084127314
0.3713202
0.6785706
-0.29103604
0.95152694
0.39709464
-0.07935202
0.440925
0.58986723
1.0082678
0.76070935
0.44015068
0.9479994
-0.3744481
0.043455087
0.8754118
0.8946309
-0.15575525
-0.113030724
0.26527476
-1.2174883
-0.75732213
-0.25394616
-0.28075203
0.045003925
0.19114302
0.55521566
0.3204439
-0.16558188
-0.6470045
0.40094224
-0.21738908
0.8307934
0.91299754
0.43095267
-0.9856544
0.45663464
-1.1174879
-0.797126
0.005020253
-0.88408744
-0.29515117
1.5444884
-1.2539041
-0.6765287
-1.7527642
-0.04709915
0.7553916
1.1562277
-1.1923562
-0.7704069
1.2407941
-0.031488676
0.20830345
-0.51285756
-1.229562
1.1773958
-0.10925062
-1.3617599
-1.0487181
-0.41207352
0.32779154
-0.3974945
-0.12576735
0.60293984
-0.71460986
1.4297551
0.1987528
0.20702156
-0.2137296
-0.9778338
-0.23722036
0.7651521
0.8546275
-0.5938543
-0.73378354
0.80455625
0.5145161
-0.9646677
0.8147301
0.4699594
1.4297754
-1.3618606
-0.5002559
0.69637156
0.21832092
-0.7361236
1.1876646
0.36098498
0.51176524
0.77298075
0.9634712
-1.0276916
0.60009277
0.6250457
-0.86678725
0.15996769
0.4638878
-0.7751831
-0.49087787
-0.84100884
0.55960035
-1.1064538
-0.28691772
-0.6354604
-0.011218177
0.4889701
-0.6258905
1.0087471
-1.0099483
-0.39274952
0.31508633
-0.674364
0.86557883
-0.1035764
0.70847374
0.39826837
-0.45855904
1.2760615
0.16281334
-1.1240056
-0.5159827
1.2880788
1.1082271
-0.27974853
-0.32039714
0.86331385
1.1085516
0.06325368
-0.65126544
0.07433363
0.6313585
0.5303091
0.06976888
-1.1153506
-0.6075491
1.1534524
1.0340111
-0.25664315
1.0044411
1.425626
-1.2857281
-0.12836057
1.4740282
-0.70181155
0.6001979
-0.16047682
-0.8787717
0.83621085
0.2643782
0.47541896
0.07621261
1.3388022
-0.1393933
-0.5177563
0.09926485
-0.81338924
-0.64229167
0.60325915
-0.12094572
0.49739882
0.41833606
0.042092938
-0.014699889
-0.9083156
-0.83157915
-0.6585999
-1.1749722
0.86578625
-0.43994135
-0.19018419
0.51517856
-0.7172048
0.6575969
-0.5248241
1.3321338
0.402825
-0.4075827
-0.07327228
-1.0834057
-0.6789647
-0.08092524
0.66893685
0.017285058
-0.32191616
-1.2007242
0.36770085
0.5348805
0.16918433
0.009203569
-0.46848264
0.18713398
1.0742635
-0.06240657
0.73265606
0.6303724
-0.2756141
0.8183373
-1.203245
-1.0746679
0.7388969
0.30004805
-0.41908854
-1.1789727
-1.5765417
-0.4436356
-0.02946529
-1.1232667
-0.34024313
1.5589925
0.8008438
-1.2147195
-1.0884368
-0.56078506
-0.28080916
-0.4761667
0.6400515
0.6590887
0.13159849
0.74735373
-0.60460687
-0.011286885
0.33921814
1.0343636
0.090417854
0.56499135
-0.4868318
0.5577545
-1.1946304
-0.28320274
-1.3479096
0.55090815
-0.44436613
1.1821913
0.3251242
-0.93079495
0.3130106
0.216554
-0.037840728
-0.8235727
-0.0013796181
0.28560215
1.395799
-0.44806325
0.93364745
-0.41160342
-0.073092364
0.78668946
0.795156
-1.3605366
0.16393611
-0.64527905
0.577219
-0.71185166
-0.374517
-0.021179903
-0.31078038
-0.06691698
0.77245694
0.38894257
0.6234538
-0.28548643
-1.3691916
-0.41655815
-0.76601475
0.52641827
0.25449744
-0.38995883
0.5126622
-0.61253256
-0.43586388
1.066419
0.62484246
0.5928651
1.0890505
-0.6373662
-1.5185812
-1.1006527
-1.2657923
0.9329628
-0.7531215
-0.28308046
-0.64806163
1.5927714
0.34562173
0.22978723
-0.0291144
1.0295026
1.4580184
1.429784
-0.5414692
-0.01455769
-0.38968638
-0.40984964
0.0012254614
-0.6956947
-0.99502695
-0.48401776
-0.39471117
0.008566566
0.5332843
-0.02671606
-0.66056836
-1.2301389
1.6820755
-1.1555736
0.75183636
-0.477187
0.45765993
-0.8549489
0.493406
-1.067203
-1.2932959
0.047198016
-0.85534275
-0.7838824
-0.12755044
-0.78727746
-1.3720084
-0.4034853
1.2874932
0.5404915
-0.73047453
-0.107819356
0.058948405
0.3725019
-0.278423
0.70402735
-1.7683455
0.9128792
1.354238
-0.60423607
-0.020524828
-0.3105703
-0.071769536
-0.55836207
-0.90948135
-1.1498417
0.2952905
-0.29894626
0.36446735
-0.41555387
-0.7474617
-0.8487024
0.29163522
-0.02583357
-0.5282222
-0.9250298
0.8996623
1.0226198
0.736615
-0.83570874
1.313417
-1.3703128
1.0044881
-0.25563368
0.18724653
-1.3922907
-0.041841682
-0.5088451
0.04396407
-0.8659485
0.29558545
1.11806
0.7377586
0.61986566
-0.44873637
0.48704913
0.1134329
-0.72577924
0.40368754
0.8891409
-0.079782516
0.84827906
-0.28498155
-0.13774845
0.27672365
-0.6107447
-0.12539276
-1.0831364
0.51920044
-0.09794854
0.55783516
-0.6167205
1.2394996
-1.4847939
-1.4188008
-0.6010418
0.6755135
-0.47769922
0.4098767
0.38774565
-0.031781215
0.51194316
-0.2340577
-0.39216042
-1.0825139
-0.2153071
-0.16859931
0.8790793
-1.123848
0.16657226
0.40766546
0.7207428
0.7821798
-1.2862798
0.43335432
0.8492892
-0.95837754
-0.024886645
0.09507674
-0.942805
1.1955787
-0.6078372
-0.9242326
-0.2761269
0.42668855
-0.7236311
-0.1845579
1.151858
-0.8242057
1.028387
0.30613264
0.37557146
-0.032943152
-1.3674389
0.45084673
1.1306413
0.021768797
0.42900398
-1.3138996
-0.94866675
0.76731855
0.4605323
0.34064928
-0.8590153
-0.49432072
-0.9790636
-0.15755068
1.0196841
-0.65892327
-0.63881403
-0.7164034
0.92115664
-0.8529036
-1.1721982
1.1569147
0.16026926
-0.44173262
0.9950438
-1.3443624
0.013406093
0.7840599
1.0160921
-0.08738203
-1.4051272
-0.25730118
1.0065956
-1.7125148
0.17613983
-0.5447674
0.38898322
1.0944439
-0.25220037
0.8318209
-0.44609964
0.9139117
-0.6363032
0.01453908
0.84512055
-0.045914594
-0.33814785
-0.009667366
-1.138809
-0.79514736
1.3038876
-1.4266003
0.20881836
-0.4821468
0.19031613
-1.178652
-0.7104335
0.82462484
1.3670095
-0.91782165
1.1401166
-0.30242342
0.14410965
-0.49914238
-1.2974905
-0.73626447
0.44572803
0.27498597
0.75597817
1.3361263
-0.16282259
-0.29334784
-0.21996848
-0.69034886
0.44062057
0.42125896
0.2227431
0.11233955
0.9045143
-0.6145765
0.06177716
-1.1297166
0.93500584
-0.37903216
-0.97977674
-0.19951943
-0.43650427
-0.28821802
1.0201322
-0.13838935
1.2270151
-0.08145255
-0.48957857
0.24450825
1.2182255
-0.28046972
-0.76993686
-0.08683093
0.35308522
-0.045549054
-0.46505392
0.011844222
-1.0857998
1.0938684
-1.1899295
0.3211232
-0.73665506
0.37615675
0.27361178
1.0145155
0.17631008
0.7779888
-0.81109524
0.3934381
0.12115386
-0.09432537
-0.4150489
-0.60157317
-0.50026894
0.3754876
0.6228257
-0.7150161
0.10899011
-1.1052907
-0.65133387
-0.9471236
0.203583
-0.0037469107
0.77688485
0.424225
-0.8592116
-0.18719244
-0.3881582
0.32175332
0.65076077
-0.4591248
-0.6138838
0.3218144
-0.06970251
0.027256276
0.6703167
-0.3683396
0.59122247
-0.54715097
-0.28311467
-1.0975119
-0.16982271
-0.21820837
0.45013013
-0.77512217
-0.26174572
-0.3269634
-1.2984978
0.22315851
-0.6034728
0.5026058
0.83479875
0.70397407
0.006055611
-0.7705727
-1.2319678
0.60542786
-0.30429372
1.3199188
-1.3091365
0.14175953
-0.53235555
-0.6080273
-0.49650335
0.22721867
0.4177232
-1.8313209
-1.2302096
-0.724878
0.13157398
0.76444083
1.4406203
-1.2391076
-0.016914874
0.2843305
1.2501441
0.08802394
-0.9834407
-0.018251153
1.477879
-0.90615726
-0.6847735
-1.1660885
1.973397
0.030748446
-1.1376779
-0.75334615
1.3866861
-1.0585357
0.78346884
0.4962942
-0.12116301
0.9188109
-0.5119968
-1.2009237
0.8471374
-0.22804302
-0.035301767
0.33258033
1.5786866
0.045658536
1.1111559
-0.23503885
0.6496651
0.8176794
0.109372124
-0.0065369057
0.95218796
0.0101547595
-0.46419984
-1.4915723
-0.6728465
-0.8404831
-0.82024664
0.5458143
0.27169845
-0.4871077
0.78332317
0.25211346
1.0919371
0.11520936
0.2894639
0.5765779
1.2427919
-0.5096407
-0.6132391
0.7842839
-0.002438992
-0.2487619
-0.5309299
0.09788975
-0.8600116
0.7513741
1.1016692
-0.09629697
0.8113849
1.3538817
0.0070451945
-0.17920324
0.15589352
0.09680351
0.44716218
0.90541625
-0.25345057
-0.44638166
-0.8836638
-1.4131117
0.62463564
-0.74899447
-0.68236667
-0.123527355
0.25143752
0.073593974
0.1427818
0.40997395
1.1631694
1.3072035
-1.2808564
-0.29664254
-1.1178812
-0.9013038
0.17283127
0.79648274
-0.11235356
1.0669106
-0.65724087
-1.389813
0.11904102
0.45672134
0.4496112
0.6742663
-0.49273804
-0.1499519
-1.0075899
0.099739596
0.013612062
0.9911936
-0.5007269
0.08786822
0.32104623
-1.5903434
0.7665998
0.26196346
0.32261258
0.5563963
-0.29947165
0.26138553
-0.46450344
-0.041966658
0.9559515
0.7382691
-0.43930697
0.9602216
0.18550134
-2.2072504
-0.4828624
-0.7834705
0.09756656
-0.8220437
-0.8225426
-0.8359049
-0.07175976
-0.30904025
0.6203767
1.382462
0.29177666
-0.4587578
-0.08992628
-0.29687807
1.1154368
-0.40586388
0.6182926
-0.31838173
-0.5847216
-1.0398507
-0.042355906
-0.043612674
-0.3712363
-0.36040995
0.07483113
-0.3032849
1.3026929
-1.4939626
0.8759698
-1.292604
1.0510908
0.29674983
-1.0604862
-0.8909364
-1.7007306
1.2349007
-0.08697839
-0.7927918
-1.2699977
0.45778188
-0.84016895
0.6041082
-0.17499083
0.99943846
0.60434026
0.67130166
0.3275681
0.6313818
0.29383284
-0.31683648
1.2266
0.96881115
0.5757987
0.04473546
1.0568655
0.29552388
-0.6510078
0.7387483
0.06708622
-0.37120628
-0.75326097
-0.24807215
0.10424614
0.4448645
-0.5900632
0.5504614
-0.9144027
-0.41402566
0.8641565
-0.3857019
-0.9033315
-0.18266165
-0.5288402
-0.3387593
-0.19682992
-0.353346
-0.63422596
-0.4839803
0.37253857
-0.488369
0.3687966
-0.04816246
0.95616674
-0.7122289
-0.43625665
0.18456268
-0.7503675
0.79629076
-0.32213616
0.9370048
-0.13590181
0.2667482
0.17064452
0.97514784
-0.41061807
-0.7487016
-0.4373653
0.4236772
-0.44473863
-0.95047593
0.49675918
-0.0502944
-0.09410775
-0.4323405
0.18245935
0.797588
-0.8474525
-0.98178077
-0.494568
0.6817118
-0.221748
0.8112302
-0.62596226
0.49697542
-0.9934552
0.2734393
0.40553546
0.76840866
0.6440791
-0.1348033
0.32529533
-0.40663803
-0.55217886
0.7856698
0.36044455
-0.32550645
0.09325874
-0.7636746
-0.7373508
0.8232167
-0.7724596
0.15217316
-0.39417982
0.23643935
0.6343472
0.44330668
0.7925966
0.90064204
0.72533107
0.28024805
-0.7061126
0.9241862
0.5721309
-0.19878006
-0.5298042
-0.5099503
-0.17440927
-0.05533302
0.71978855
0.787025
0.11334336
-0.42565298
0.4111507
0.8291228
0.998176
0.35655951
0.23598003
-0.09693289
0.108561754
0.19026637
-0.67914844
-0.3338127
0.566694
0.63296366
0.12353194
-0.8932214
-0.058181643
0.49136472
-0.81713617
0.912444
-0.5926242
-0.6292832
-0.035417438
-0.2133708
0.9954771
0.84560287
-0.969
-0.79165816
0.3937781
-0.59468174
-0.3519132
-0.3750106
0.8464432
0.34657824
-0.27675378
0.46469903
-0.2126739
-0.7251612
0.041392684
-0.7050164
0.89078856
0.30362785
0.44245982
0.36300933
-0.5290247
0.910915
0.5730659
0.3340894
0.44739008
-0.24407947
-0.23210776
0.7856976
0.43303478
0.64331305
0.497777
-0.31815553
-0.44280446
0.8401885
0.59323347
0.19591486
-0.76953804
-0.26849747
0.45195472
-0.30088985
0.6732452
0.4999529
0.91101456
0.0977968
0.29570377
-0.6738666
-0.94070184
-0.12109077
0.22759664
0.24479902
0.5398439
0.88193095
-0.10157704
-0.98473823
-0.19186449
-0.08605945
0.6648102
-0.5485358
-0.75990224
0.5971111
0.33321774
-0.07537508
0.19800115
-0.6965523
-0.052325845
0.044198275
0.34531987
-0.5117167
-0.52329564
0.71821666
0.2407012
0.2621988
0.7693598
-0.6999333
0.030732036
-0.49808443
-0.7578982
-0.21513045
0.8015206
0.33691084
-0.25278544
0.9955623
-0.35310662
-0.61614597
0.6567185
-0.60149777
-0.020878077
0.84053195
-0.27308416
-0.855898
-0.8343103
0.48105288
-0.7024869
-0.29585612
-0.25192785
0.98237276
-0.008274317
-0.8303187
-0.28252792
-0.092603445
0.64216065
0.008800864
-0.57417345
-0.59784615
-0.34990132
0.5201682
0.4423083
0.34515905
0.52782536
0.045682788
-0.8236103
0.70861876
0.76591516
0.44441593
-0.5650525
-0.572526
-0.6428962
0.6322607
-0.27423823
0.5784353
-0.100877166
0.94058263
0.43224108
0.38351786
-0.04962802
-0.5429201
-0.2603277
0.9886904
-0.35940838
-0.27125633
0.073403835
-0.573066
0.016029716
-0.39279294
-0.09800851
-0.7636417
-0.5465056
-0.49090934
-0.9423617
0.22935855
-0.9050921
-0.112360835
0.63260114
0.5407021
-0.32544935
-0.26229084
0.3302878
-0.2552687
0.5323628
0.98596156
0.5963979
0.22964704
-0.118023396
-0.31486475
0.5478221
0.63640773
-0.45864546
0.09998846
-0.3195089
-0.22126019
-0.99699044
0.63858986
-0.49639654
-0.3920871
0.742066
0.7730789
0.95454895
-0.6986115
-0.48761654
0.766997
-0.05948329
0.049509168
0.6983887
0.37126875
-0.7203615
-0.51834404
-0.13584864
0.38859034
-0.7668065
-0.41342473
0.91886425
0.88831615
-0.306208
0.39595437
-0.09723413
0.16412067
0.7916963
0.35212326
0.5494393
-0.42078936
0.47792757
-0.8124279
-0.5846573
0.08437693
0.7201705
0.10460901
-0.44234562
0.2996453
-0.10636163
-0.8619629
0.21555102
-0.97106326
0.25811505
-0.32648146
0.5926534
0.36841166
-0.015241742
-0.6780981
-0.8094139
-0.85623336
0.83855927
0.6390412
0.9026681
-0.7283776
-0.45249963
0.7366135
-0.40380096
0.31849456
0.21657825
0.638469
0.7013947
0.59212565
-0.60064256
-0.43329263
0.5507711
-0.36011922
-0.94678545
0.24078941
-0.803053
-0.8255743
0.4148425
-0.9283534
0.15793836
0.8562157
-0.4159788
0.9422674
0.13183653
-0.27512252
0.44653726
0.47920036
-0.021714926
-0.3919226
-0.44192493
0.50963914
-0.870306
0.7988758
0.21281171
0.22134006
-0.32585692
-0.5359167
-0.49754524
-0.36612964
-0.59578717
-0.55878437
0.5089613
-0.13279736
0.56754696
-0.3540249
-0.45118332
0.65625775
0.45806348
0.6227484
-0.31359375
0.18775642
-0.4200865
-0.26442194
-0.44715822
0.98998344
0.28428745
0.055915475
-0.7550174
-0.07062435
0.5630262
-0.3731209
-0.9560313
0.78405607
-0.72004807
0.9736947
0.5962479
-0.92138743
0.38442457
0.51967275
-0.33803213
0.3629037
-0.40839314
-0.9790565
-0.41888452
-0.33196616
0.29631042
0.8469236
0.16855323
0.023712277
0.93435276
0.5340806
-0.83698094
0.5030633
-0.90439737
-0.31379902
0.86636627
0.8849273
-0.93890274
0.17449903
0.86820364
-0.4176464
-0.6262176
-0.5737572
0.31431186
0.65316916
0.005836129
0.13305652
0.007626891
-0.56071174
-0.2413063
-0.75709176
0.5973613
0.41213858
-0.015431166
0.93744206
0.49034643
0.14978957
0.46647024
-0.7155174
0.09058237
-0.16408348
-0.59028196
-0.7288277
0.1261586
0.33169186
0.71028614
0.37450182
0.651294
0.5903909
-0.1413101
-0.8475783
0.71564734
0.10351205
0.5536331
-0.4890349
-0.52011335
-0.8896265
-0.96551967
-0.67715263
0.9386879
-0.3244691
0.64935017
-0.52599096
0.508988
0.42629242
0.76599276
-0.23898256
0.07784569
-0.9863229
0.9716445
-0.5501808
0.11229324
0.26318157
0.9180037
-0.13798892
0.9509977
-0.15321958
0.12685573
0.736758
-0.83147585
-0.7539909
-0.28452516
0.014205575
-0.92210484
-0.8196573
0.11973643
-0.6796098
0.0726167
0.71922064
0.43417704
-0.9437765
0.068279505
-0.56494796
-0.44446743
-0.61270666
-0.8446189
0.42469788
-0.33064282
0.41146314
0.49454987
0.34584177
-0.8258343
0.6932391
0.15451694
0.081162095
-0.5335548
-0.42540932
-0.90012634
-0.16262329
-0.65866566
0.109538436
0.8740077
-0.23061788
0.48256207
-0.9361774
-0.9069766
-0.76557314
-0.33763397
-0.35795426
0.97555935
-0.04862976
0.04485786
-0.045213938
0.4941107
0.37066364
0.23816907
-0.24948275
-0.03511226
0.9380822
-0.5185269
-0.32381165
0.020780444
0.42699766
0.24864769
-0.10827184
0.8673006
-0.33103597
-0.5768186
-0.12550879
0.84231985
0.6606487
0.5274589
-0.13205111
0.8311615
0.7780129
-0.09145975
-0.15577126
-0.32047474
-0.42127717
0.58300793
-0.21691012
0.95446074
-0.90514565
0.07263744
0.27256763
0.19106293
-0.43485558
-0.8759086
-0.8079746
-0.0011358261
-0.03433931
-0.040707946
0.8611568
-0.63755155
0.48737204
0.5646143
-0.6256926
0.33724427
0.077564955
0.5688292
-0.2347275
-0.29833984
0.38940525
0.210325
0.57168853
-0.525154
0.8315544
-0.3616829
0.7297095
0.44579566
0.02016604
-0.12847757
0.49957228
0.7908741
0.7326542
-0.15158093
-0.69716847
-0.3039335
0.6514176
-0.5007888
-0.5242859
0.76643455
0.7525399
-0.8392217
0.5746405
0.42381966
-0.59303844
-0.89180756
-0.89480174
0.896399
-0.8314532
-0.1878798
-0.48832035
0.62816536
-0.8450686
0.729095
-0.3810799
0.72690415
-0.0056283474
-0.87397826
-0.8489611
-0.4238211
0.9075812
0.42236602
-0.3164935
0.016839027
-0.20841074
-0.24943686
-0.33231604
0.019537807
-0.37195826
-0.50924146
-0.21619213
0.8908117
-0.61256397
-0.8101574
0.64378357
0.5568441
-0.6388992
-0.05713463
0.12480235
-0.967271
-0.1768583
0.5696014
-0.25433934
0.89877284
0.68513536
-0.0112326145
0.4079517
0.46326423
-0.28158534
0.4619707
-0.54654944
-0.306422
0.6249082
0.88987815
-0.192245
-0.7488749
0.16151857
-0.70838165
-0.50950205
-0.21661973
0.3700142
0.8385837
-0.992553
-0.37282014
-0.77929544
-0.64466107
0.16398025
-0.71295345
-0.58865595
0.70929027
0.24849284
-0.59786487
-0.7784103
0.80939674
0.9551978
0.7433679
0.038007498
0.5010096
0.006731391
0.33260345
0.0464046
-0.88630474
-0.61257815
0.69862795
-0.47026086
0.08262861
0.12872744
-0.8629638
0.88485575
0.369115
-0.54884994
0.5855473
0.83488655
-0.5444796
-0.95491076
0.23214126
-0.8973179
-0.25587654
0.6810647
0.5159801
0.04165888
0.16417718
-0.9767817
-0.057958484
0.1928091
0.7590318
0.35594964
0.6976284
0.53039265
0.7140534
0.33015454
-0.07342422
-0.86466765
-0.41896796
0.23226953
0.58542943
-0.6628314
0.8968284
0.6468905
0.88177896
0.9163945
0.6804211
-0.2759297
-0.40883243
0.96419287
0.7768122
0.10872245
0.18472397
0.4423418
0.2081765
-0.49368668
-0.799757
-0.3600676
-0.24176848
0.9419192
-0.9134555
-0.3656206
-0.72267866
-0.8542923
0.68243074
0.8620744
-0.36834848
-0.17481661
0.30160105
0.100269794
0.96527565
-0.44744146
-0.76615274
0.94895625
0.788803
0.8250909
-0.60260785
-0.5465512
0.30166042
-0.2008965
0.3502332
-0.7198093
0.89860153
-0.96210897
-0.74104726
0.08625972
-0.23421419
0.16426015
-0.49294388
-0.0752095
0.25315785
-0.08424282
0.0831238
-0.99716353
-0.10968125
-0.8583363
-0.1901797
-0.5648277
-0.27890146
0.6637789
-0.14778256
0.17849278
-0.547606
-0.41267657
0.17836928
-0.2719983
-0.21347201
0.06469047
0.04324031
0.83630407
0.43069398
0.18518353
0.84185016
-0.822086
0.50548065
-0.3784659
0.44798255
0.017895818
-0.58320606
0.9733237
-0.5535948
-0.68227124
0.37772715
0.0041564703
-0.58908296
-0.12571871
-0.5086715
-0.19950938
-0.084457874
0.8688513
-0.8896868
0.44364572
-0.46400452
-0.78608215
0.7103065
0.27210188
-0.6464703
-0.78186727
-0.95977306
0.93951404
-0.02993226
-0.9810188
-0.70583665
0.99682045
-0.25494862
-0.087460995
0.5871055
-0.07236397
0.7397939
0.8771851
-0.6280929
0.7592473
0.97974384
-0.7394433
0.5229058
-0.5973426
0.30055547
-0.42470062
0.7049804
0.6212354
-0.1818645
-0.29065657
0.073982716
-0.60321057
0.45001554
0.46185005
-0.7997762
-0.10621917
-0.18410695
0.30920458
0.91203237
0.18760967
-0.93438256
0.61031365
0.21859598
0.4233997
-0.06382811
-0.7179378
0.9438722
-0.35930932
0.74445176
0.3004433
-0.3039335
0.7013513
0.60525966
0.47815382
0.4760481
0.68858373
0.35556316
-0.11580598
0.91536725
-0.06897533
-0.69540906
0.33528244
0.8087715
0.105885625
0.7589071
0.7140446
-0.59794855
0.3782555
-0.55739784
0.8475132
-0.3952912
0.46082103
-0.4981898
-0.5146637
0.86557496
0.08129382
0.21278715
-0.9947084
0.4816556
0.40697622
0.17292583
-0.9194168
-0.63411725
-0.6884018
-0.5802969
0.18653858
0.19415009
0.32452095
0.2753185
-0.19746792
0.95824456
-0.946417
-0.15743089
0.05835116
-0.5024098
0.72846246
0.97445095
0.7440802
-0.046145916
0.21090007
0.6064879
0.69151974
-0.6705619
-0.16782641
0.88348794
-0.033012748
0.6309686
0.2487868
0.24421346
-0.2048508
0.2956103
0.18764436
0.16747415
0.14764571
0.741132
-0.45352995
-0.34322166
-0.75375044
0.61616683
0.41960835
0.6795784
-0.6029986
0.47729218
0.8605634
-0.9808172
0.41924012
-0.33707142
0.7288954
0.5867437
-0.92695534
-0.29461563
-0.010148168
0.8277414
-0.78711104
-0.98733187
0.061071277
-0.0012812614
-0.42187834
-0.79177535
-0.01618886
-0.25142884
-0.8727125
0.54303503
0.6196209
-0.5164113
-0.63035905
0.45031583
-0.9483415
0.7020972
0.26103985
-0.48560834
-0.25135756
0.0345639
-0.28841853
0.94443977
-0.2943102
-0.29365933
-0.3210795
-0.19074929
0.11821389
-0.95307493
0.055534363
0.6856729
-0.38789284
-0.5978513
0.2428385
0.54202306
0.6163074
0.17066443
0.36383903
-0.6842736
-0.8755033
0.8964094
0.7040173
0.10529852
0.38431907
-0.47649598
-0.82629657
-0.30971825
0.53956676
-0.41530538
-0.37811744
-0.61510205
-0.97100616
0.68061006
-0.24997377
-0.65574646
-0.2582866
0.95265496
-0.49477232
0.35445225
-0.7982788
0.101466894
-0.71403575
0.98468053
0.092430115
-0.9941112
-0.5361979
-0.4487232
-0.5431129
-0.7889893
-0.21587837
0.58821046
-0.8274672
0.9408951
0.61354804
0.038828135
-0.41583467
-0.77873254
-0.012440205
0.9399084
-0.70037496
0.9451083
0.49629045
0.3770435
-0.54466367
-0.038623452
-0.47134054
-0.47761393
0.6201806
-0.39809048
0.8547591
0.8503802
-0.16557324
0.47802556
-0.6748079
0.5490147
-0.984926
-0.723107
-0.7535958
-0.2556119
-0.4293368
0.97495997
0.1767869
-0.36775172
0.059342742
0.07456255
-0.81545806
-0.1848383
0.12693799
0.77937317
0.5013081
0.08785105
0.8414179
-0.51998127
-0.23705316
-0.7379621
-0.5078119
-0.54537785
0.19948304
0.19808841
-0.425987
-0.3619076
0.050082803
0.49241626
-0.8157096
-0.07714331
0.74745417
0.89170647
0.6183145
-0.6272328
-0.068252206
-0.24140084
0.27078295
-0.48221362
-0.20924902
-0.7542105
-0.20492971
-0.487373
-0.46402085
-0.6499393
-0.882082
-0.7430428
-0.25049007
0.97435164
-0.32937574
-0.13654637
-0.108350396
-0.5594287
0.92426586
-0.695459
0.24359667
0.6407851
0.8829013
0.25699008
0.0522604
0.9181211
-0.99671996
-0.41020834
-0.49238586
-0.28394878
-0.4882034
0.50527716
0.5590148
-0.4334036
0.24994898
0.8529538
0.38960576
-0.19823241
3.7896633E-4
0.80286
-0.17766428
-0.17831337
0.2598523
-0.99044347
0.013595939
-0.6528903
0.19776928
-0.85544646
0.76856744
0.98950684
-0.8353485
0.65566146
0.7349316
-0.98928905
-0.27849007
-0.3356564
-0.07131934
0.2949419
-0.5937593
-0.21922219
-0.3712765
-0.54648876
-0.9733076
-0.5486046
0.03837812
-0.58226705
-0.60750794
-0.6882045
0.42550766
-0.20423126
0.321064
-0.63797283
0.17407513
0.27784026
0.26072955
-0.019570827
-0.45541775
-0.7687832
0.77979016
0.62190056
0.4668088
-0.2523656
0.82077086
-0.8116925
0.6742953
0.3636111
-0.60950375
-0.3994317
-0.48379302
-0.30301714
0.15757692
0.03797996
0.20989573
0.7156813
-0.801327
0.040911674
-0.23077309
0.31831515
0.34425604
-0.49524295
0.78338003
0.5577626
0.725477
-0.7611109
-0.6665493
-0.96773756
-0.7506311
0.8434379
0.10610092
0.7131529
-0.105587125
0.19440985
-0.03769684
0.44048822
-0.48181474
0.75562274
-0.6062702
-0.6804968
0.9303398
-0.40796447
0.27963674
0.7708374
0.46574724
0.5874454
-0.24550807
-0.3396834
-0.61630785
-0.37939548
0.70370436
-0.9490503
0.8402958
0.88420177
0.0954262
0.12789571
0.68476176
0.1037637
-0.014378309
0.84999764
0.19882035
-0.0025041103
0.3377421
0.13884568
-0.5526575
0.18878245
0.79499495
0.8442259
0.98219573
0.1221571
-0.96881807
0.39550173
0.11798656
-0.07108343
-0.6345267
-0.3095168
0.2855718
0.13433015
0.8186197
0.2714225
0.5065819
-0.505023
-0.14444208
0.73295546
-0.20961249
-0.09122193
0.62595725
-0.70365226
0.23590505
-0.53534746
-0.21491838
0.921821
0.35757875
-0.58742476
-0.061291695
-0.2742083
0.21226561
-0.33647764
0.67534983
-0.011429906
0.37725914
-0.19598508
0.07548666
-0.9972943
0.8463038
0.3695898
-0.14898956
0.40123963
0.12835145
-0.9903102
-0.020056248
0.553408
-0.05753827
0.34355342
-0.7456989
-0.08616459
0.12235129
0.8093498
-0.27346957
0.8072492
-0.07240319
-0.890072
-0.9226011
0.62772644
-0.31139112
0.32727742
-0.32821763
-0.41075885
0.40366495
0.1895144
0.0361737
-0.6011863
0.9042176
0.010567427
0.98166156
0.10714805
-0.113651514
-0.42839038
0.18872917
0.15278816
0.37979996
0.6688304
0.12680984
-0.36069918
0.030959845
-0.3852607
0.34468973
-0.78818667
-0.61681354
-0.04351151
-0.1385988
0.7266635
0.64890575
0.7775843
0.31626976
0.089478254
-0.6838151
-0.20203316
0.18760681
-0.81755626
0.38244736
0.107165456
0.52974355
0.37688553
0.65533984
0.687726
0.85651565
-0.4451921
0.032447457
0.24923825
-0.15399218
0.32125413
-0.8742112
0.5412234
0.06768036
0.8130251
-0.77675354
-0.10375595
0.8315085
0.48943126
-0.9019805
0.8295295
0.20328712
0.9746295
0.3407656
0.051050425
0.17588437
0.5122247
0.9805399
-0.90053356
0.66927636
-0.8490418
0.49438334
0.26010847
0.47025216
0.3214811
0.7271749
0.6627786
0.21456957
-0.93931437
0.63009083
-0.94245994
0.14014292
-0.47964728
-0.51409566
-0.76801693
0.4608835
-0.554258
0.8618804
-0.7379346
0.96967185
-0.43178952
-0.11313617
0.5871886
0.7994447
0.021267772
0.59027433
-0.51843464
-0.6413951
-0.6848258
0.5003307
0.97731626
0.29724264
0.60102355
-0.9586407
0.20546818
0.22156358
-0.9127469
-0.40878093
0.8907893
0.804288
-0.13806069
0.48663783
0.20303833
-0.73131514
0.0015958548
-0.54518294
-0.9250947
-0.93532646
0.8462523
0.59346735
0.5960374
0.299636
-0.5176257
-0.6608068
-0.76025724
0.30805862
0.7469493
0.107806325
-0.062883735
-0.9020436
-0.9486654
0.24291229
0.75159395
-0.46546865
0.78199375
-0.6145568
-0.09931016
0.5302825
0.38306713
0.7223948
0.80255866
-0.4953742
0.0350852
0.16483402
-0.21906579
0.535084
0.343562
-0.74853575
-0.9629297
0.30760515
-0.9745381
-0.5858685
0.8919394
-0.17187572
-0.7283658
-0.35367334
0.42277265
0.3049432
0.46652603
0.08693659
-0.82206106
-0.6430702
-0.8836862
-0.39757228
0.27229846
0.23227215
0.18283367
-0.81423867
-0.13306952
0.80413556
-0.79068244
0.4853418
0.7541487
-0.7081146
0.4772594
0.65914273
-0.16111112
0.7696507
-0.56977034
-0.82395566
0.97500706
0.17921865
-0.6250906
-0.65220106
-0.46983087
0.6541649
-0.68696225
-0.008374095
0.7724681
-0.8394433
0.1176244
0.44717717
0.6585809
-0.2784027
-0.753816
0.48570764
-0.27370465
-0.44445896
0.042678475
0.7681887
0.82901204
0.33566487
0.33430755
-0.7214782
-0.42203116
0.2768873
0.551543
-0.5451125
-0.83263254
-0.05417323
0.7183713
0.97482395
0.24242008
-0.5589607
0.25935674
0.75729406
0.53097737
0.040440798
0.19187903
0.69850624
0.9024954
0.48732758
-0.38699818
-0.040472865
-0.44347358
-0.009958148
-0.1955924
0.8059844
0.29582548
0.7295152
-0.724545
-0.37214887
-0.16806161
-0.5287653
0.8096906
0.9361341
0.23542464
-0.18754685
0.39634883
0.9702079
-0.18345428
0.9917705
-0.20598865
-0.28724253
-0.35052097
0.15788782
0.52344203
0.28824794
-0.21573496
-0.070047736
0.11167216
0.13625884
0.98242736
-0.8427056
0.35696423
-0.7451662
-0.9726145
-0.54340374
-0.14217377
0.9844177
0.6685754
-0.39406037
-0.1914339
0.06444037
-0.16602719
-0.27464974
-0.47502482
-0.61215436
0.5711297
0.6712012
0.89887154
0.38082802
0.33977985
0.79725313
0.21794665
-0.8460803
-0.22632897
0.5495039
-0.08760548
0.44581974
0.25594354
0.9079921
-0.1568135
-0.6163137
-0.08226347
-0.10994291
-0.07415211
-0.2850325
-0.313357
-0.108602524
0.041712046
0.45943332
0.39931142
0.049907923
-0.6643629
0.9503416
-0.22371995
-0.15971112
0.8010913
-0.4236685
0.16867924
0.29365385
0.33259964
-0.172364
0.76363754
-0.58413124
0.66032803
-0.35025024
0.62221503
-0.83751726
-0.5931871
-0.19576943
0.17085683
0.6094333
0.2125454
-0.34945
-0.86864996
-0.5889592
-0.08743763
-0.75319195
-0.6820271
-0.78474784
-0.78611875
-0.7961267
-0.8769256
-0.8530462
0.483325
0.6315731
0.12912941
0.791044
-0.9769795
-0.36737037
0.30798662
0.10665846
0.65889025
0.0070780516
0.28449225
0.4625559
0.32430613
-0.4648912
-0.35396123
-0.6374769
0.47150505
0.8491094
-0.827734
-0.42867112
-0.87161386
-0.543169
-0.05323255
-0.819927
-0.06480348
-0.060955644
-0.19188702
0.8698145
-0.10212946
-0.75003994
0.61993897
-0.76954365
-0.60781026
-0.03846097
0.91466117
0.73558164
-0.6885129
-0.690693
0.02418232
-0.087880135
0.49260628
0.14436364
0.6916808
-0.29356766
-0.3412614
-0.9678507
-0.89468133
-0.8530116
0.21839166
0.45265162
-0.5421026
-0.46917522
-0.8519163
0.5698018
-0.42725968
-0.30972743
0.80968714
0.6017859
0.30830312
-0.1169225
-0.48482394
-0.7779281
0.7313335
-0.27064312
0.71162844
0.4675944
-0.7937852
0.910409
-0.7662871
-0.3285613
-0.73192465
0.34604633
-0.26818383
-0.6505164
0.51722133
0.8589418
-0.64004004
-0.33800256
-0.21341872
-0.7222196
-0.5165293
-0.018409133
0.8925518
-0.8316153
0.58303607
-0.30108714
0.6895158
-0.6627486
-0.11345017
-0.8110126
-0.37771416
0.6301757
0.4065541
0.87733126
0.1279242
-0.16381073
0.00887239
0.65042186
-0.8957796
-0.5285443
0.55323386
-0.9546007
0.16817713
0.4079069
0.85155606
0.35604072
0.91209614
-0.4426862
0.66261446
0.16424727
0.071368456
0.7345253
0.81784606
0.037981868
-0.90272295
0.29632807
-0.8569877
0.9484893
-0.3633585
0.8586284
-0.44832742
0.1036855
0.82086897
-0.7104988
-0.35761452
0.6540059
0.92906034
0.9954214
0.5920453
-0.5837774
-0.8113476
0.2802682
0.018780112
0.22546732
-0.6057123
-0.9396981
-0.1383456
0.6428926
0.24909532
0.54333496
-0.080448985
-0.075731516
-0.64353573
0.48807216
-0.60718286
0.8327973
-0.48489714
-0.5073203
-0.8804364
0.028241634
0.20233238
0.34385633
-0.108828664
-0.61395216
-0.91694844
-0.005868435
-0.37789857
-0.77227795
0.17378283
0.21211112
-0.25271428
-0.3582821
0.44804537
-0.36448455
0.19221711
-0.061759114
0.62264526
-0.10105348
-0.071380496
-0.061392426
0.45222378
-0.9625658
0.47078037
0.90832555
0.8256841
0.5943037
-0.18096781
-0.8076637
0.4533385
0.18033278
-0.89150417
-0.7784115
0.01440227
-0.1856389
0.52030885
0.78423536
-0.23628855
-0.3214289
0.4626726
0.075490594
-0.85660505
-0.8191278
-0.6100694
0.8719648
-0.31492722
-0.05019164
-0.6844498
-0.43513227
0.10263693
-0.10703468
0.6615888
-0.8912673
0.05267012
-0.69192076
0.8014959
-0.89348984
0.57322717
-0.3917396
-0.12029624
-0.8025545
0.10243189
0.15152335
-0.72859406
0.11179161
0.5327554
0.37399304
0.5764755
-0.29192388
-0.31214368
0.6208036
-0.8238399
0.047545195
-0.46440446
0.23515546
0.12976193
0.1509831
-0.6013119
-0.6281693
-0.783008
0.121086
0.32507324
-0.8044996
0.06234145
-0.5741261
0.97133875
-0.56351364
-0.010845065
0.48348546
0.07859123
-0.68142414
0.17788565
-0.5444472
0.53139293
-0.46238124
-0.8637208
-0.934096
-0.35655785
0.92979145
-0.123767376
0.06555259
0.67143595
-0.32034183
0.6363294
0.946993
-0.5098251
0.116839886
-0.24968398
-0.014804602
-0.85717165
0.353783
0.25609112
0.49507844
0.7920239
-0.9753678
0.1393727
-0.7774105
0.027944088
-0.7233577
-0.56037486
0.43704367
-0.96695113
-0.19777405
0.6978146
0.005513549
-0.34022248
0.2242173
0.9371506
0.47652996
-0.14572322
-0.51693904
0.23641896
0.98210037
0.26871824
-0.77251256
-0.66567326
-0.88272166
0.4662733
0.56613827
-0.8977449
0.43967962
-0.6383195
0.16413927
0.3079245
-0.056860924
0.88821733
0.614612
-0.81396866
0.9270959
0.17666721
0.6106384
-0.08760893
-0.23552454
-0.48231208
-0.2004106
-0.7196884
-0.14473057
0.20623553
-0.2884394
-0.5071721
0.76139784
-0.9079827
-0.009239078
-0.04068184
0.4027207
0.74622715
0.77815866
0.9234177
0.037458777
-0.02879858
0.73181367
0.41080105
0.36723375
0.7015097
0.3457154
0.7863518
-0.15684819
-0.14599812
0.23740768
-0.2772807
-0.51821494
0.46837473
0.499318
0.8348243
0.13675201
0.53301275
-0.5901784
-0.9877515
0.15231931
0.6136203
0.42025912
-0.37532353
0.12074518
-0.8988918
-0.202793
0.48189104
0.5769042
-0.7167572
0.31035614
0.55278826
0.92529285
-0.85917616
0.40171027
0.99723244
0.7702534
-0.20094955
0.11905074
0.70633197
-0.29411757
0.8598697
-0.705439
-0.89684606
-0.85544443
-0.26059878
0.82823586
0.9055166
0.08051956
-0.11989045
0.10654068
-0.46992457
-0.012996793
0.95066094
-0.55767035
0.113468766
-0.94748306
0.44398582
0.63608503
0.18906772
0.42636812
0.3988651
0.28619778
0.99040914
0.34814143
0.17150486
-0.9464053
-0.585557
-0.7045778
0.5464605
0.73110175
-0.21469712
0.44408226
0.18254304
0.4793589
-0.21530724
-0.3270445
-0.97310686
-0.9510701
0.9866742
0.46790695
0.3933729
-0.9261745
-0.76258934
-0.17140174
0.79019773
-0.26245487
-0.8047061
0.62537503
-0.8970541
0.20277822
0.39110446
-0.2043947
-0.39436138
-0.63483715
-0.4650383
-0.15831888
0.6036165
-0.2736888
0.99656403
0.8612132
-0.16716325
-0.25075114
-0.41637683
-0.10059512
0.4826237
-0.9906844
0.2627201
0.89113796
-0.2892847
-0.8844942
0.2855755
0.514145
-0.47520483
0.8625274
-0.5633061
-0.4057722
0.06397903
-0.22490239
0.59653103
-0.49047828
-0.31642628
-0.70299387
0.46500182
0.5852462
-0.7102591
0.8133329
0.71682656
0.5364299
-0.54339004
0.7112489
-0.17735219
-0.5817951
0.76229393
0.30061448
-0.3159231
-0.3728652
-0.8161962
-0.07103145
-0.33090198
0.63962924
0.38192058
-0.38346577
0.82509136
-0.71700144
-0.72018075
-0.63310647
-0.6250982
0.35058212
-0.105978966
0.6205733
-0.8921145
0.76533437
0.21973681
-0.46422422
-0.8400142
-0.23176694
-0.18226707
0.6079446
-0.21186459
-0.20791435
0.21564806
0.064121604
0.09441447
-0.15779209
0.3486055
0.25669515
-0.08956015
-0.061270475
0.95363986
0.48298597
-0.96532285
-0.89209056
-0.56221867
0.102259755
-0.79673254
-0.29998899
-0.4952476
-0.8784975
-0.7966747
0.64845216
0.40053046
-0.5317602
0.69748616
-0.6101862
-0.4198599
0.63664687
-0.9329492
-0.7111931
0.8698721
0.23725605
0.001884222
0.83967686
-0.33019805
-0.062939644
-0.07193911
0.9602052
0.6864077
0.36330497
-0.4148904
0.20217276
-0.71411014
0.5595876
0.2158724
0.5498054
0.4033836
0.60712326
0.6419693
0.073562026
-0.47425628
0.9185134
-0.14858973
0.4900763
0.4863894
0.61864674
0.16304696
-0.37915623
0.4764439
0.27130747
-0.7474339
-0.15569305
-1.2516975E-5
-0.8042753
0.68010974
0.4315263
-0.39819133
-0.26898265
0.5601326
0.7091049
0.59896505
0.31583202
0.8257966
-0.59985805
0.18441117
0.20427728
-0.5147004
-0.61830366
0.97978437
-0.6324036
0.32458973
0.1237365
-0.8606764
0.7452265
0.8146602
-0.07070184
0.59820247
0.9015379
-0.6769109
0.9992645
-0.92705667
-0.51053655
-0.9440557
-0.45021808
-0.5780817
0.17449784
-0.92887175
-0.5009732
0.3293922
-0.9315156
-0.032542348
0.4273044
0.7624997
-0.22019267
0.8812797
-0.05401385
0.9486227
-0.79611135
0.7864754
-0.33646822
0.81873
-0.26467192
-0.9771812
0.51900685
-0.045494437
-0.95804286
0.8566017
-0.6954615
-0.53609324
0.5440767
0.74722755
0.1887573
0.19781196
0.7130406
0.051371813
0.48541474
0.022513866
-0.05278361
0.995837
-0.18177092
-0.9018531
-0.41347837
-0.098857045
-0.72093153
-0.69291806
-0.6432142
0.5062218
-0.24248147
-0.93947136
-0.25905716
-0.34742022
0.96266234
-0.97606134
-0.7143953
0.012476563
0.92072797
0.08645117
-0.7197788
0.6248121
0.104578614
-0.19305575
0.48438334
0.025518537
-0.44645715
-0.8440938
-0.69930184
-0.8263972
0.12675965
-0.398803
0.95113003
-0.7169224
-0.31675613
0.3259833
0.5501007
-0.6653662
-0.18828082
0.8940842
0.49554062
-0.6249498
-0.4113804
0.1733048
-0.88168097
0.78928006
-0.3995173
0.37894404
0.121121764
0.27840817
-0.46455586
-0.79830325
0.8612343
0.18101001
-0.53284323
0.036996603
-0.8696145
-0.42312932
-0.5061091
-0.8568666
-0.31734407
0.007815003
0.65779054
0.33608925
0.5635259
0.9940629
-0.41254604
0.699136
-0.71424127
-0.67416465
-0.35436225
0.27019668
-0.6514305
-0.46510196
0.61865425
0.20144737
-0.44576263
0.32161868
0.28188705
-0.6984974
-0.628932
-0.99155915
-0.82499146
0.91494334
-0.6652776
0.44520795
-0.6896237
0.9172827
-0.43601966
0.9965179
-0.4605565
-0.7376182
-0.9341669
-0.7564721
-0.8332361
0.476699
-0.9265312
0.4358648
0.9125408
0.11973512
-0.5644337
0.29329658
0.29708028
-0.7019932
-0.42608702
-0.102391124
-0.7002995
0.512485
0.047554016
-0.2950374
-0.8924625
0.52456236
0.88552284
0.37640452
0.82451534
-0.4625919
0.9380454
-0.44607198
-0.9030725
0.20841813
0.19051003
0.9425547
-0.79964995
0.1410135
-0.29069996
-0.70741594
-0.27510738
-0.73682797
-0.65114486
0.9639666
0.6253227
-0.49506104
0.03140676
0.70645666
0.13380468
0.46313918
-0.9177134
0.7708032
0.461591
-0.7797481
-0.68663025
0.30001605
0.9689443
-0.4962051
-0.8748342
-0.38578606
-0.28195512
0.1767397
0.45563328
-0.8675209
-0.76887906
0.28883803
-0.16645086
-0.43846464
-0.42378497
0.14991915
0.7700428
0.07119262
0.34783232
0.072104335
-0.8012221
0.573876
0.982406
0.43763053
0.3895688
0.18995476
0.4635105
-0.14203978
-0.27047598
-0.57199156
-0.32523274
-0.4202752
0.7889497
-0.38810575
0.3263588
-0.4483105
0.2462982
-0.62698615
0.92222
-0.81150544
-0.60126543
-0.51870215
0.08873379
-0.24821842
0.27500474
0.45313346
0.72285855
-0.77586377
0.7190391
0.9460348
-0.16001809
0.78891754
-0.5687946
0.2818017
-0.75735223
-0.33132517
-0.17434883
0.04200065
-0.24490786
0.64184403
0.9543338
-0.28214955
-0.12905431
0.48342168
0.70995665
0.19326162
0.36947954
0.69821
-0.6188222
-0.62661326
-0.5724237
-0.020823002
-0.49452257
0.6763513
-0.3203318
-0.021160603
-0.75947106
-0.82613456
-0.22311163
-0.7149713
-0.6723521
-0.15556729
-0.47840607
0.4067974
0.6059718
0.2943921
0.38743258
-0.52925944
-0.81022024
0.16680968
0.9927027
-0.021999478
0.36136818
0.71230793
-0.7784027
0.059363246
0.2569964
0.21153092
-0.43903005
-0.7219863
-0.88633406
0.34462225
-0.25225592
-0.83915913
0.56124306
0.5836021
0.94342303
-0.30993605
0.8302443
-0.7201235
0.8380861
0.26402986
0.22431111
0.5285803
0.8387002
0.8521935
-0.5169196
0.96753657
-0.15124023
0.84368324
-0.7778624
-0.5789013
-0.83736753
0.446867
0.2496041
-0.6059705
-0.72576153
-0.6294031
0.77247536
0.6801255
0.56278884
-0.7557664
0.15018666
-0.74694955
0.026442528
0.057254434
-0.46064794
0.78753614
-0.3226229
0.47064078
0.3947811
0.90878844
-0.39039576
0.72794783
-0.9784323
-0.9661633
-0.14415252
-0.963117
0.1663189
-0.44577074
-0.7548543
0.57149065
0.7288072
0.3746457
-0.12700188
0.93606174
-0.91396224
0.38271272
0.34653544
-0.7837169
-0.95222855
0.35380423
0.54533386
0.20882225
-0.81400096
0.81943595
-0.34771216
0.56162727
0.062062263
-0.5662465
0.09788573
0.27412462
0.8566276
0.9006103
-0.20402324
0.105832696
0.01338017
0.27108228
-0.36835217
0.1365956
0.94218874
-0.25850487
0.12533593
-0.8692086
-0.4220749
-0.51508904
0.10624528
0.0068998337
0.92469025
-0.2994535
-0.8217794
-0.9656557
-0.31928325
-0.7119515
-0.12060356
-0.7905414
0.96678126
0.32543647
-0.6185883
0.34589982
-0.8181193
-0.0143790245
-0.96581113
-0.097764015
-0.52320755
-0.54228795
0.25894177
-0.48259294
0.44277394
-0.20686305
-0.5228604
-0.9037981
-0.18585563
0.9763793
0.71983147
0.4509257
-0.48385072
-0.31427884
0.104463935
0.7374722
-0.2290734
-0.42328477
-0.15917838
0.90567625
-0.49660718
0.06251204
0.21093059
-0.7969829
-0.45447206
0.70912206
0.9678942
0.42159534
0.4831866
0.89498687
-0.24486697
-0.5387789
0.06677997
0.34385908
-0.068923116
0.20305848
-0.6602113
-0.27475882
0.09696233
-0.63853645
-0.26785207
0.5809976
0.70022774
0.5255786
-0.19456077
0.3900162
-0.6124846
0.042286277
-0.10891271
-0.70903444
0.90520287
-0.34007764
-0.9197613
-0.3314669
0.918633
-0.7143998
-0.2652403
0.949558
-0.6979916
0.05223453
0.5041673
-0.81304014
0.4287045
-0.20522523
-0.35412204
-0.37768853
-0.51275337
0.555395
-0.07025695
-0.14040029
-0.386657
-0.16265368
0.51753354
-0.34334922
0.9463645
-0.12402415
0.6801474
-0.09334183
-0.09602749
-0.53153
-0.93256783
-0.943764
-0.1330806
0.08280933
0.2764716
-0.9392909
0.9543359
-0.36086893
-0.2459557
0.74044967
0.056277037
0.017312884
-0.5209329
0.95874834
0.21437562
-0.10647559
0.5437571
-0.06701577
0.7738632
0.75236225
0.6118107
0.91398716
-0.527104
-0.927104
0.48318696
-0.22299922
-0.6787101
0.8656423
-0.37557495
-0.72869694
-0.68512833
0.46853757
-0.20160365
-0.059651375
-0.17061663
0.22504711
0.89681935
-0.62746596
-0.9337864
0.20451212
0.072832465
0.45284986
-0.16065753
-0.7721603
-0.59925187
-0.20743585
-0.011736751
-0.71892166
0.9483844
-0.6913297
0.9959589
-0.008075833
-0.49208987
0.9544164
-0.7637657
-0.3273244
0.749035
-0.52969074
-0.5459639
0.86672235
-0.53006124
0.49133432
-0.5897218
-0.8502816
-0.5558404
0.82676363
-0.55515635
-0.18721068
-0.60543406
-0.20390213
-0.59520066
0.0813427
-0.5513965
-0.61307037
-0.14235127
-0.30655944
0.4035641
0.08258712
0.7011006
0.37663496
0.8992475
-0.46967375
0.66207135
-0.6716945
-0.41809452
-0.018129826
-0.74960554
-0.06523323
-0.7471503
-0.509261
-0.46979225
0.27786374
-0.6860993
0.20486021
0.658664
-0.5001519
0.3175273
-0.5856037
-0.8868239
0.759658
0.65090966
0.12584889
-0.4881835
0.65420187
-0.83967423
-0.6871903
0.08493626
0.84102154
0.46654594
0.27599323
0.36902034
-0.1658448
0.72589314
-0.97857916
0.2869414
-0.8902031
-0.6708784
-0.3169062
0.2040726
-0.28466797
-0.54363656
-0.12128222
0.090382695
0.39366293
-0.7425897
-0.24622762
-0.11090338
0.089822054
0.7201245
0.2564962
0.43848908
0.78032935
-0.17536676
0.96641874
-0.3081782
-0.55450785
0.43722796
0.30045617
0.93954885
0.1849966
-0.56309927
-0.9719548
0.69715106
-0.14190221
0.9317763
-0.7186552
0.85202336
0.018122673
0.036170006
-0.6545484
0.56567466
-0.48025954
0.7466978
-0.18963552
-0.16367435
0.12567377
-0.035890102
0.67086756
0.10624266
-0.7473886
-0.076097846
0.83858883
-0.056461334
-0.8943169
-0.727913
0.60450876
0.76666045
-0.3051535
0.08288419
-0.16136205
-0.53044677
-0.650923
0.37382245
-0.7287551
0.3360257
0.4957161
0.52342343
-0.14211512
-0.97619236
0.70937073
0.6110885
0.9358449
0.9041773
-0.17974389
-0.46689665
-0.764022
0.44501376
0.57497764
0.03915119
0.58103156
-0.5618181
-0.26115823
0.09795594
0.69548094
0.04195845
-0.70048606
-0.46251595
-0.45515907
-0.78726554
0.66509724
-0.7053895
0.24294674
-0.9543282
0.43962312
-0.7873844
-0.8014511
-0.22919703
-0.0940814
0.78490746
0.85875916
0.12995625
-0.9435142
0.98379254
0.3436936
0.09280288
-0.39971232
0.039013743
-0.69241166
-0.60952485
0.45631778
0.22847545
0.51648617
0.21703553
-0.15106523
0.18065786
0.5673263
0.26830053
0.17680502
-0.5864918
-0.28983128
0.6810832
-0.32519197
0.6781745
-0.6471207
-0.43797374
-0.22944057
-0.25086844
-0.8393538
0.8433013
-0.39530945
-0.50236475
0.0022146702
-0.10674977
-0.006676078
-0.92316043
-0.21202075
0.39550602
-0.8747977
-0.2105887
0.59557045
-0.22656024
-0.6262058
-0.5615939
0.6460978
-0.80759466
0.04181087
0.6970997
0.59475577
-0.23410988
-0.17643487
0.07223463
-0.69464695
0.9002763
0.85736823
0.45781732
-0.48201704
-0.8553045
-0.060148716
0.9445164
-0.5227014
-0.09315574
-0.31292057
0.60544777
-0.7933109
-0.076649785
0.96027076
0.34650552
0.38835096
0.4362731
-0.060299277
0.7935046
0.094320774
0.15880275
-0.051877737
-0.42444742
-0.58125055
-0.12237322
0.020156145
0.5218499
0.55306923
0.032491326
-0.28177345
0.26636267
0.34549856
0.96211946
-0.35335064
0.881588
-0.12693739
0.36808515
-0.7424556
-0.44972718
0.16274369
-0.3860799
-0.9742582
0.32503283
-0.28046703
-0.033631325
-0.04857862
0.8941742
-0.099706054
-0.94876647
-0.90824497
-0.5772799
0.01699531
-0.5790994
-0.20454633
0.20702863
-0.8792256
0.02883339
-0.7077496
0.5870216
-0.8745105
0.92378664
-0.045392275
-0.3992393
-0.15184617
-0.009827495
-0.010775447
-0.17800915
0.90245116
-0.020890832
-0.47463286
-0.94636726
-0.43483996
0.33665228
-0.5539464
0.7016498
0.78479564
-0.08774388
-0.8366771
-0.85196126
0.6143607
-0.97641516
0.5831095
-0.015995622
-0.6206882
-0.40340114
0.3577596
0.040981412
0.84745336
-0.7431654
0.21035874
-0.46434522
-0.7845204
0.91466856
0.56643605
0.87432516
-0.3104266
0.19107962
-0.71685016
0.57194424
0.29334176
-0.8708148
-0.83210504
-0.05675578
0.92019486
0.22008348
0.8777826
-0.3898325
0.8500738
0.5599978
-0.75472
-0.8848841
0.419464
-0.29867125
-0.9536563
0.9884409
-0.6275872
-0.25380623
-0.41522348
0.22743416
-0.11142707
-0.22819436
0.48568487
0.32041
0.29812217
0.6183429
-0.046564937
0.49214983
0.12504256
-0.7112874
0.04330921
0.83605325
-0.92181695
-0.8859588
0.7152773
0.29516935
-0.18144536
0.86827207
0.48332238
0.20141447
0.31242144
0.14062452
-0.84877765
0.20357251
0.030233383
-0.50217867
0.6484972
-0.8848226
-0.4752077
-0.17787504
-0.5324857
0.47944057
0.52804756
-0.73921025
0.1798873
0.7475742
0.8105612
0.56324625
-0.5910269
-0.05199039
-0.026735544
-0.6588733
-0.70667946
-0.08280611
-0.9338634
-0.3786646
-0.36247253
-0.32080448
-0.4123423
-0.33679998
0.762491
0.793841
0.8033236
-0.40196466
0.5931345
0.615365
-0.6215669
-0.72486603
0.22125876
-0.12933278
-0.3467157
-0.45449793
-0.57667243
-0.98544717
-0.7423965
0.89801323
0.17315793
0.9663799
-0.41849363
0.22777402
0.74927473
-0.6228448
0.46480978
0.94032836
0.6840054
-0.90159035
0.5635966
0.48608792
-0.4696256
-0.61454093
-0.41265
-0.2835052
-0.36611032
0.21049476
0.012731433
-0.37236702
0.09604955
-0.69080913
0.16844344
-0.38977194
-0.3822844
-0.056778193
0.6031141
-0.7095578
0.5325483
-0.6833997
-0.5954746
-0.511987
-0.89113665
0.9036368
-0.7001997
-0.6671773
0.04419458
0.17942154
-0.24537063
-0.20514417
0.33842027
0.22012186
-0.61622703
-0.046073914
0.6526772
-0.028618932
-0.58031774
0.4539628
-0.507174
-0.43869174
-0.947839
0.47277105
-0.345397
-0.46624744
-0.40319598
0.94394207
0.29566717
0.25287724
0.7770122
-0.023777962
-0.37331796
0.7177831
0.17346549
0.74157655
-0.18525195
0.6436751
-0.9779526
0.39214337
0.44955397
-0.28735185
-0.90137196
0.6951723
-0.57654846
-0.54734933
0.14533591
0.45214117
0.8154026
-0.87108374
0.052750945
-0.16706431
0.24579811
-0.5293013
-0.64314663
-0.52098525
0.9911516
0.9313345
0.23581982
-0.38720965
-0.87249947
0.69657207
-0.5466093
0.96723974
0.22816646
-0.19892454
-0.89768493
0.68449414
0.200701
0.75360227
0.7193061
-0.47949135
-0.8589604
-0.94358814
-0.30569708
-0.13812864
0.44797134
-0.7359495
0.86012375
0.8685578
-0.377836
0.87211347
0.8586006
-0.80757153
-0.67845726
-0.24951899
0.12699819
-0.59378636
0.41545248
-0.7883078
-0.91877043
0.7635753
0.43662798
-0.4113623
-0.10641849
0.98079216
-0.6583086
-0.37705553
0.93213844
0.19912398
-0.36691606
-0.44612813
0.86284363
0.49969125
-0.6503347
0.8460721
-0.8145578
0.67669535
0.28755736
-0.416744
-0.1900872
0.33821666
-0.9386761
-0.9550103
-0.43481028
-0.26388812
-0.34135544
0.5180925
-0.6919811
0.49838662
-0.7140931
0.39625394
0.76393676
-0.8491883
-0.73951185
0.7966025
-0.7618617
-0.9973377
-0.90291727
-0.24362147
-0.108830094
-0.30123055
-0.2143774
0.33416438
0.048951983
-0.8977443
0.49879575
0.17712915
0.83088803
-0.20363462
0.93577456
-0.84145737
-0.28775036
0.5378686
-0.5503421
0.14971602
0.12241793
-0.35190535
0.6697087
-0.23986936
-0.8900788
-0.68858004
-0.92763555
0.63263464
-0.074197054
0.8169631
0.84010816
-0.4276935
0.19219959
0.21052074
0.24374819
0.15423083
0.3928722
0.93486917
0.9668603
-0.48541808
-0.33717203
0.67316246
-0.5572673
-0.42010534
0.33736062
0.64922523
0.98201907
0.11129773
0.17534661
-0.5117178
-0.2724173
0.49511588
-0.51778316
0.841521
-0.8179041
0.3412032
-0.93429637
-0.7014228
0.0204916
0.57946277
-0.24049592
0.6554917
-0.6637701
0.0783304
-0.5000843
-0.09486127
0.49668527
-0.1671269
-0.8519409
0.9369998
0.9241742
0.75215364
0.5815152
-0.030815959
-0.19313574
-0.93552613
-0.6436542
-0.68530405
0.81592536
0.6851051
-0.557961
-0.13563716
-0.89405537
0.6654763
0.2927028
0.33997834
-0.6447809
-0.541909
-0.37116945
0.1538223
0.417701
-0.6384803
-0.2875514
0.8567201
0.7719978
-0.39026403
0.20793724
0.44941413
0.7340524
-0.6238364
-0.3089218
-0.91430974
-0.8756465
-0.0073444843
0.91590774
0.2561345
0.42937624
0.23606157
0.6450449
-0.21445525
0.5583352
-0.80985737
0.42280543
0.81308556
-0.9356276
0.30967176
0.50639176
-0.7082809
0.57440424
-0.46077728
-0.6902319
0.9129547
-0.53935504
-0.90480924
-0.64524174
-0.7634951
-0.797791
0.511119
0.71796596
0.21520996
0.0463022
0.25972652
0.32005847
0.31804943
-0.4892589
0.4677409
-0.20818186
0.66391075
-0.095474124
-0.5194497
-0.10861337
-0.387035
-0.2811706
0.14289105
0.017849565
0.27923882
0.7011914
0.25059938
0.902478
0.616694
0.32131207
-0.41053748
0.35158193
-0.18744302
0.72426987
0.98423016
-0.58868754
0.44772458
-0.89087355
0.78897583
-0.3716309
-0.461995
0.63687706
-0.004455328
0.45121908
-0.53379333
0.73693705
0.6373848
0.17010558
0.7993462
0.2274785
-0.7795503
-0.79689837
0.9344696
-0.42017782
-0.39884377
0.72824633
0.8389826
0.43490052
0.91492844
-0.47682667
0.28639853
-0.97907686
-0.019789815
-0.055401802
-0.09324455
-0.7675655
-0.0141631365
0.95785284
-0.92542195
-0.9751452
0.41938078
-0.63514423
0.6793573
-0.42553258
0.09686363
0.3872409
-0.27143657
0.8770641
0.077640176
-0.29413104
-0.3831221
0.5407064
0.24112058
-0.7391397
-0.11540353
-0.69278216
0.69440377
-0.44385183
0.041217208
-0.94278765
0.08316064
0.024111032
-0.7634684
-0.13491488
-0.31518602
-0.0198735
-0.5582074
-0.8699099
-0.9529555
-0.21884692
-0.39030337
-0.6197221
0.35097706
-0.39978516
0.79718006
0.39683306
-0.13659048
-0.5002996
0.27385867
-0.38740265
0.31370652
0.64670014
-0.4529748
-0.018049836
0.08731949
-0.86452794
-0.61157346
0.7876302
0.34940553
-0.80594385
0.25676584
-0.8623456
0.96000385
0.93881047
0.91246665
0.61262286
0.9592954
0.34324586
-0.011587858
0.95702267
-0.08857751
0.9032488
0.31406844
-0.4194405
-0.7967198
-0.5368829
0.92383015
-0.43381417
0.98691905
-0.17443311
-0.021953821
0.89575434
-0.40168822
-0.22999811
0.8826809
0.6337426
0.53005743
0.7691474
0.3379146
-0.8078364
0.21119964
0.50315166
-0.96463096
-0.22026563
-0.4349413
0.85720503
-0.55246484
0.3660102
0.4683869
0.7446524
-0.6679424
-0.4768417
-0.5039098
0.26973188
-0.040224433
-0.6927937
0.6602938
-0.4640212
-0.047991276
0.7761358
-0.023019075
0.077760816
0.2939843
-0.9105507
0.63540554
-0.6406336
-0.5767838
-0.42550492
-0.8962308
-0.879177
0.15103185
0.26675832
0.759362
-0.7193079
0.970492
-0.27133334
0.44381618
0.5182328
-0.52587676
0.32460582
-0.14311814
0.09157014
0.12088144
-0.61456895
0.8390442
0.6021056
0.45554256
-0.9533068
0.5594374
0.6418874
0.62847483
0.11019933
-0.5928087
-0.9302243
0.25393903
-0.41619086
0.2491659
0.22001803
0.37639618
-0.968853
-0.28620267
0.975549
-0.286278
-0.6509037
-0.380409
0.31646788
0.071944
-0.16933739
-0.30103064
0.816489
0.5675802
-0.48555052
0.7662976
0.39772427
-0.7284312
0.92621326
-0.38320327
0.41420388
0.35509896
0.84565187
0.67578745
0.42059147
0.55557096
-0.9481298
0.9816209
-0.44563758
0.6048982
0.88925195
-0.0016821623
-0.26668322
-0.48189044
-0.36662352
-0.68581295
-0.582062
-0.295331
-0.8879292
-0.9293953
-0.26167738
-0.3536893
-0.15621853
0.3420366
-0.27705848
-0.6770606
0.4946226
-0.7031499
0.23237681
-0.8670279
0.033307552
-0.7676723
-0.80732834
0.24835336
0.29262018
0.20163083
0.69355035
-0.7994381
0.34625256
-0.578405
-0.5237247
0.07669926
-0.793872
0.7357651
-0.049674034
0.60990965
-0.23062527
-0.3442061
0.96967804
-0.69712234
-0.9661819
-0.2536502
0.64673567
0.6851983
0.6003461
0.96529794
-0.88029134
0.06445241
0.04017067
0.9147414
0.70842457
-0.5924405
0.38150263
-0.52665114
-0.25849152
-0.96461964
0.72635627
-0.07867038
0.61804974
-0.08721483
-0.28674316
0.17278528
-0.36091828
0.78296936
0.4709239
0.1135335
0.7244413
0.074368834
0.043182254
-0.89529526
0.39110696
0.27806687
-0.40568805
-0.46647608
-0.9615327
-0.23870826
0.5209193
0.7340429
0.5488994
-0.8120651
-0.19841242
0.80476034
-0.99044013
0.83067405
-0.68430924
-0.25911975
0.6906748
0.08321941
0.6707134
0.08150065
0.6303762
-0.051385283
0.41235805
-0.0673852
0.7860333
-0.24512255
0.87902796
0.03302765
0.8830825
-0.07175517
-0.166412
-0.46902966
0.14684963
-0.5361248
0.1985197
0.6644101
-0.980734
-0.5677769
-0.5201565
-0.30086744
0.8755168
0.13592541
-0.05913663
0.66819465
0.45649397
-0.3923924
0.3355478
-0.15186048
0.16875982
0.2654872
-0.50392175
0.95650494
0.17805755
-0.49576318
-0.3410834
0.99797547
-0.90499985
-0.3923005
0.8840593
-0.9594002
0.43844843
-0.026540637
0.95459056
-0.7323493
-0.4644823
0.61387837
-0.17387772
0.005023718
0.30563843
0.15225422
-0.97765696
-0.5701277
0.8644223
0.005656719
0.74409413
0.96605635
0.1122421
-0.39151478
-0.81822383
-0.6102563
-0.36028695
0.88480186
0.30737114
-0.89074814
0.24116278
0.75623786
-0.10793817
0.43325782
-0.91253245
-0.6598041
-0.32624102
0.66843104
0.8373332
0.24589062
-0.5825776
-0.85982656
0.48347163
0.6404208
-0.5922046
-0.46142828
-0.9843178
0.691772
-0.06681144
0.9671978
-0.32863545
0.78983927
-0.789346
-0.3923812
0.9264722
-0.6790365
0.5239098
0.68122315
0.9036375
-0.5219805
-0.9413905
0.34731424
-0.3573333
-0.08999395
-0.1058625
-0.9413073
0.9515947
0.26680124
-0.8775568
0.72072494
0.25000584
0.72197604
0.29413593
0.5660032
-0.99735415
-0.7637421
0.9280541
0.044225097
0.7489809
0.06459427
0.15692389
-0.9028257
0.24806893
0.2502575
-0.38106942
0.084267616
-0.5810847
0.5607405
0.24968183
0.2688483
-0.73835444
-0.49571645
0.89403236
0.3743571
0.1478759
-0.7440556
0.7617099
-0.7409929
-0.7206631
0.08262682
0.22002006
0.50521433
0.8981526
-0.71687007
0.6827526
0.72462595
-0.6875645
0.87901175
0.2546593
0.97120285
0.95556116
-0.03690982
0.069655776
-0.055192947
0.66139114
-0.57582176
-0.93137825
0.04866278
-0.09816158
-0.060121536
0.355955
0.009768724
-0.15522265
0.9158871
0.7157898
0.13687801
-0.6470828
0.23349643
-0.2718606
0.6123904
0.21762884
0.06127572
0.9775673
-0.9900198
-0.5781193
0.9379716
-0.2260257
-0.20215702
-0.37435377
0.2184397
0.694587
-0.49183047
-0.4060868
0.7011125
0.102406144
0.88816476
0.326532
-0.2364273
0.9995959
-0.6607864
0.24158084
0.092939496
-0.5587863
0.72246516
0.10698235
0.6119467
0.9781921
0.8662604
0.3622898
0.5029849
0.8377129
0.33977485
0.033631682
0.38547015
0.80947435
-0.9744177
-0.7142143
-0.69763255
-0.98054266
-0.71961987
0.5985067
-0.1534859
0.2765602
-0.1520561
-0.92192686
-0.33525825
-0.2839738
-0.20718396
0.15431535
0.9071491
-0.31268597
0.44986653
0.15915167
-0.33906722
-0.20037973
-0.59248686
-0.5178381
-0.22511101
-0.29147673
-0.18386078
-0.74452186
0.025262475
-0.52865994
-0.4255725
0.0940423
0.6104914
0.3921454
0.21250391
0.22408056
-0.6627153
-0.5983511
0.36080718
-0.5552573
-0.5496838
-0.23985684
-0.35247827
0.51376796
-0.7291565
0.72767365
0.5665778
-0.38747144
0.08519983
0.714815
0.4452057
-0.930109
-0.9669249
0.11663163
-0.96134007
-0.794724
-0.9102491
-0.24558294
-0.30492043
-0.6573715
-0.85082495
-0.27618814
0.4518553
-0.74153566
0.26043212
-7.3444843E-4
0.11390746
-0.27521217
0.34445786
0.8051857
-0.627229
0.7137152
-0.652259
0.37139797
0.6834098
-0.77637696
-0.56656194
-0.01114738
0.03457606
-0.29867458
0.15725923
0.42126238
-0.6791357
0.46219218
0.84636366
0.76617956
-0.07578635
-0.702489
0.84629035
0.25779366
0.79456663
-0.790712
-0.2931621
-0.36737907
-0.9799781
0.6868427
0.5572616
-0.6863706
0.113703966
-0.44700623
0.21986806
0.48985565
-0.68345845
0.7326193
-0.5939841
0.26510394
0.702273
0.5614325
-0.4621173
0.4150151
-0.86538017
0.84269106
-0.7174243
-0.67294526
-0.19074881
-0.18471122
0.24296117
0.70941424
-0.3612548
-0.28448856
0.9239116
-0.6446384
0.81230974
-0.44979453
0.116723776
-0.74165523
0.96987796
0.060960054
0.28270304
-0.2844677
-0.660066
0.31316566
-0.034965873
-0.33487785
0.45086896
0.71274674
0.34303093
0.7135389
-0.5331062
-0.984509
0.922866
-0.6332742
-0.56711304
0.6839702
-0.77660537
0.5354978
-0.36941278
-0.9438987
-0.11460638
0.99500847
0.5251019
0.6646725
-0.34059882
-0.89432025
-0.6291424
-0.20780444
-0.50543594
0.61659217
-0.813797
0.21999574
0.77292323
0.047724247
-0.4865384
-0.94946957
-0.5438832
-0.83379054
0.95515454
-0.48018932
0.41148162
-0.97817576
-0.0025558472
-0.39901054
0.8702152
-0.6176107
-0.040077567
0.81545734
-0.7189448
0.11103928
-0.8107439
0.5551491
0.7295606
-0.13897431
-0.23326552
-0.92350304
0.5974779
-0.35721672
0.23152673
-0.4939351
-0.22793818
0.46151078
0.118760705
-0.7898526
-0.9539645
0.85692525
-0.25801933
0.8915175
-0.5291647
-0.7682471
0.6619333
-0.89166725
0.46582544
-0.8301691
0.008069992
0.54147243
-0.8974843
0.26253963
-0.63304996
-0.59795046
0.86489844
0.4340664
-0.28453326
-0.3384775
-0.4444419
0.43835044
-0.96966374
0.250013
0.12415433
-0.44362855
0.20364177
-0.3923993
0.8234178
0.92085874
-0.026234388
0.74831545
0.062414408
0.1119045
0.25933385
-0.27673733
0.97319615
0.38300908
0.85966957
-0.37990725
0.41204858
-0.81935084
0.53878856
0.23935783
-0.21145642
-0.49430823
0.40249515
0.7289617
-0.30601108
-0.46773434
0.8522283
0.7769191
0.2563138
0.055680394
0.67879474
-0.34274495
0.982911
-0.5014417
-0.25091064
0.34762204
-0.4003309
0.98263705
-0.27433693
0.099848986
-0.88217723
-0.60187864
0.11014366
0.9121747
0.65603495
0.40463078
-0.83413494
-0.85335886
0.040247798
0.2156198
0.7826972
-0.46448052
0.056509376
0.09575701
-0.2906785
0.66150486
0.6316483
-0.6114547
0.6876378
-0.031258225
-0.115965486
0.14608228
-0.44554448
-0.08719194
0.67368364
0.017185092
0.2821834
-0.90890574
0.2708397
-0.16671395
-0.050777912
0.37035537
-0.6306474
-0.41107094
-0.2202431
-0.9384346
-0.25863004
0.42700303
0.47047877
-0.8441266
-0.7599776
0.3959291
0.10849583
0.25793266
0.015116096
0.6410192
-0.05832076
-0.98107433
0.15280151
0.22551978
-0.7675195
-0.87774086
0.4544667
-0.24489093
-0.66730046
-0.09258759
-0.26533794
0.6156968
-0.83515644
0.8853042
0.37590384
-0.9525565
0.4719391
0.21157193
-0.5058236
0.9933406
-0.23049986
-0.19165897
-0.961431
-0.8898585
0.94966054
0.58266735
0.59868073
0.35076475
0.27832127
-0.940619
-0.7175715
0.86467516
-0.7971343
-0.13769007
-0.5558646
-0.23344207
0.34314215
0.63182855
-0.4910307
-0.34951997
0.44583166
-0.89436674
0.9069022
-0.96042085
-0.6029146
0.8170997
-0.019438028
0.6292653
-0.15324366
-0.05870068
0.48111308
0.9803575
0.11724949
0.658757
-0.7396716
-0.07084489
0.14979577
-0.41641712
-0.61774254
-0.5079644
0.8608942
-0.45577323
-0.9774449
-0.5530641
0.8031
0.69654787
-0.86293006
0.47339177
-0.910166
-0.36881745
0.43439877
0.033323884
0.57728267
0.007591009
0.18175042
-0.21064043
-0.99717534
-0.84080935
0.8428296
-0.09469104
-0.3549093
-0.9226012
0.5550047
0.07986081
-0.13668883
-0.1367656
-0.40353584
0.5612688
0.14186406
-0.044375777
-0.10065532
0.015653491
0.8399788
-0.31575656
0.49014294
-0.7813083
0.33770776
-0.41363847
0.6735419
-0.23971021
-0.42986917
0.762776
-0.459193
0.85098386
0.7261232
-0.22524512
0.7310802
0.86017
-0.88900816
0.3055129
0.5864371
0.2689793
0.5701765
0.285851
-0.76609313
-0.43993497
-0.5383843
0.3302399
-0.4544835
-0.6255895
0.746109
-0.7809353
-0.7522652
-0.3706231
-0.58184576
-0.47648954
-0.91731536
0.70673895
-0.91437924
-0.81360435
-0.6953987
0.18479145
0.16782069
0.48619735
0.8969513
-0.288615
-0.15810943
0.019798875
0.7203417
-0.2921275
-0.26803887
0.4956541
0.8820442
0.7765367
-0.60927963
0.74287784
-0.4809091
-0.51846623
-0.8637755
-0.42077303
-0.9958341
0.017360091
-0.17297864
-0.6356664
-0.556124
0.007218361
-0.9841001
0.17237127
0.9006382
-0.9694301
0.7281871
0.68536985
-0.27818048
0.6150043
-0.7429322
-0.074358225
-0.0763824
0.39896464
-0.97027206
-0.2394799
0.0044232607
-0.5582527
0.22929096
-0.67165685
0.6362653
-0.40533185
-0.3051318
-0.08887398
-0.7821411
0.22775877
0.18314826
0.7326411
-0.38553774
-0.8885392
-0.34136546
-0.73703384
0.9351406
-0.029586792
-0.5340084
-0.9095472
0.815359
-0.8492756
0.3882953
0.66429484
-0.67848897
-0.62653565
0.35188723
-0.7435535
0.74475527
0.9921651
0.32583606
0.53782
0.7063259
0.24374282
-0.5132227
0.064000726
-0.8114923
0.2996199
-0.53551483
0.72991407
0.3991711
0.5123006
0.21747851
-0.45301402
0.36886644
0.043892622
0.36013246
-0.25738406
0.494905
0.39495182
0.4032117
0.65874815
-0.95515573
0.46870458
0.9898102
-0.13125062
0.10176706
0.3575579
-0.2990669
0.6306889
0.2964251
0.5824888
-0.95676315
0.6977476
0.67865026
-0.9857104
0.77081907
-0.28364635
0.515623
0.027894497
0.46974766
-0.7804588
-0.017913938
0.8624929
-0.6341684
0.4829532
0.47310436
-0.13749027
-0.59823036
0.32612896
0.5004437
-0.15432668
0.8493705
-0.9592382
-0.7627094
-0.22154796
-0.062678576
0.895221
0.1923014
-0.8634931
-0.67240214
0.64184785
0.19355965
-0.40488422
0.68785095
-0.16239429
0.84789574
0.24467468
0.28809667
-0.06688917
-0.55562997
0.47850752
0.48404872
-0.5003407
0.45701253
-0.42029238
0.4041046
0.81461406
0.46683323
0.2722385
0.18110478
0.6346816
0.5936339
-0.06307769
0.993641
0.33271694
-0.9375367
-0.43061268
-0.8837956
-0.20849097
0.017109394
0.024916172
0.51542556
-0.671474
-0.6454642
0.71108437
-0.5551137
0.41611898
-0.5584278
-0.8840195
0.43856275
-0.33429778
0.8716911
0.7668097
-0.6807853
-0.7782937
-0.26022482
0.17618442
-0.15945518
-0.22232568
0.60212064
-0.26696074
0.66954553
-0.54502034
0.72447443
-0.5802312
-0.8317939
-0.9971746
0.3108784
0.6810118
-0.787006
0.57118964
0.08993912
-0.8671173
0.738837
0.7172358
0.38355982
-0.60896695
-0.7644602
-0.47233486
0.098124504
-0.1754154
0.76374507
0.6280799
0.9927999
-0.87013054
-0.3189646
0.41540337
-0.8415085
-0.7115785
0.94413054
-0.2432096
-0.52026343
-0.34056962
-0.8707932
0.4705212
0.57741535
-0.0042107105
-0.9807823
-0.38037956
-0.49920237
0.3090726
-0.6439297
-0.35785627
-0.55742514
0.39266908
-0.96083343
-0.095752
0.71086586
-0.9994935
0.34401178
-0.15943158
0.8596692
0.13422346
-0.40963733
0.544582
-0.4629171
0.48341906
-0.15489388
0.7493137
0.57326174
0.067129016
-0.2817347
0.5119493
-0.05674362
-0.27842557
-0.0999192
-0.3430792
0.3805021
0.85741115
-0.12693107
0.86935174
-0.0069645643
0.36328912
-0.92334247
-0.85085285
-0.3140664
-0.43806255
0.8460132
-0.3234986
-0.50927484
-0.46317732
0.6148323
0.6994555
-0.9524559
-0.8453828
-0.63074636
-0.8131411
0.01181221
0.8303628
-0.8470174
0.20546436
-0.37132835
0.0437454
0.8197838
-0.5560894
-0.76902175
-0.75207245
0.25752032
-0.65870345
0.09733009
0.9548193
-0.70202184
0.8624425
0.6135783
-0.82335687
-0.4098649
0.23052382
-0.29602647
-0.7964529
-0.75609756
-0.32842302
-0.74273026
0.9575031
0.22050071
0.3916738
-0.9793302
-0.6533419
0.7096163
0.19986188
0.9536722
-0.47915232
-0.6713517
0.1680299
0.13910723
0.47351623
0.42327118
0.89871037
0.3856517
-0.27055
-0.6599659
-0.07427931
0.0018136501
-0.010573983
0.8608866
0.72901
-0.21598244
-0.43376958
-0.6023395
-0.811139
-0.019584537
-0.35808527
-0.3157382
-0.9232671
-0.66187286
0.11026585
0.999437
0.577773
-0.18327618
-0.24583924
0.10856199
-0.28310525
-0.81190324
0.36389697
0.61529446
-0.07392049
0.6068822
0.15513456
-0.96930575
-0.48877168
-0.07798064
-0.57461894
0.14739442
0.2747308
-0.36423445
-0.8660983
0.07966757
-0.4965521
0.15979326
0.24567556
-0.79189396
-0.42421317
-0.44172418
0.89593625
-0.8572918
-0.13299727
0.025868535
0.26458037
-0.635754
-0.11395264
-0.32387185
-0.5378245
0.3759812
0.7637272
0.09642136
0.59060585
-0.26758862
-0.40961456
-0.12682211
0.7269454
-0.77365494
0.5878172
0.75217056
-0.9294251
-0.3909421
-0.23309493
0.14929128
0.47877002
-0.42935205
-0.70192885
0.77625155
-0.41089118
-0.81969297
-0.8091891
0.63221395
0.588472
0.7216481
-0.41764367
0.5072683
0.24478531
-0.21970594
-0.32885683
0.44884765
0.2818631
0.7547214
0.45177138
-0.109154224
0.66889966
0.65319455
0.42429543
0.90179586
0.43971145
-0.6229024
0.52799463
-0.6312915
-0.31560028
-0.277102
-0.98950064
-0.97600627
0.2055639
0.39144373
-0.2341764
-0.29748523
0.7467059
-0.5143769
0.9942272
-0.22631013
0.832394
0.6981902
0.64392304
-0.44962227
0.16476858
-0.18540156
0.9367261
0.8840027
-0.33806622
-0.26392186
0.9603205
0.8972099
-0.030145288
-0.7977389
-0.41133404
-0.30427742
-0.5940585
0.27797675
0.28519797
0.28572845
-0.5188011
0.764251
0.22314692
0.17899132
0.48654556
0.5791056
0.85204816
0.20316267
-0.8882102
-0.8091887
0.93407905
0.7889359
-0.9068041
-0.98262954
-0.7907232
-0.050590634
0.7642102
-0.2449714
-0.57778764
-0.19770718
0.8266468
-0.429402
-0.69215
0.8455826
-0.71441793
0.47367954
0.3008592
0.34650695
-0.67421806
-0.25696123
0.86660004
0.73761
0.8823153
-0.43472683
0.27562046
0.45974898
-0.8890127
-0.11642003
0.8353189
-0.5922718
-0.8605045
0.4612124
-0.31281257
0.20974028
0.028165102
0.23068964
0.56678474
-0.27256453
-0.6536125
-0.20017934
-0.14643753
0.15123391
-0.85962605
-0.5258057
0.91238177
-0.8313379
-0.8013277
0.06931269
0.40780246
-0.7835494
0.68947005
0.14156651
-0.12801003
0.6356205
0.62967753
-0.13538802
-0.60034275
-0.49027884
-0.16198337
-0.30352056
0.65733695
0.48800337
-0.48300302
-0.9157505
-0.6857592
0.41704333
-0.69788194
-0.12003648
0.069018126
-0.90310216
-0.68245757
-0.1825962
0.358137
0.94320774
-0.3012749
0.5295756
-0.059090137
-0.6920105
-0.6967951
0.15747178
0.37310886
-0.74639034
0.45635045
-0.1204257
0.071713924
0.7823318
9.486675E-4
-0.27261162
0.5598459
0.024806976
0.47602248
-0.8248315
-0.4581133
-0.6568401
-0.31470346
0.3132391
-0.17105138
-0.6026541
0.37969697
-0.6735146
0.6052244
0.17793071
0.3278122
0.67653954
0.043615103
0.07632303
-0.8537644
-0.71701384
-0.5521103
0.027974963
-0.7226815
-0.648116
-0.32173777
-0.5603895
-0.7895466
-0.17337179
-0.9763198
0.34384954
0.12623799
-0.9645076
0.48957622
-0.6093812
-0.31137526
0.5621594
0.90285707
0.792681
0.7125772
-0.9684857
0.6812556
0.1319313
-0.70576966
0.02550137
-0.38713586
0.47449613
0.013721585
0.1467737
0.7409754
-0.9619094
0.7206174
-0.9637407
0.30278897
0.73773575
0.8073441
-0.5890275
0.6378635
0.3702762
0.79263604
-0.31202388
0.7294259
0.5798539
-0.5936252
0.04819143
-0.6089486
-0.2974378
-0.4727943
0.6998229
-0.45867682
-0.7228943
-0.48088276
-0.763139
0.15462089
0.61889803
0.3931551
0.24599743
0.6282083
-0.89166856
0.34223855
0.36919987
-0.088460565
0.4919095
-0.47642815
-0.16581714
-0.093298316
-0.17925274
-0.6364988
-0.2425518
0.6289396
0.9690676
-0.59071386
-0.6780075
0.32924604
-0.16854548
0.032744884
0.033049703
0.29936302
-0.83127034
0.69000435
-0.25959098
-0.86830795
-0.9334136
-0.54623306
-0.15373349
-0.32264292
-0.4719932
0.060001135
-0.7641996
0.37599933
0.81070983
-0.44360864
-0.102463126
-0.28192234
-0.25363326
-0.9818349
0.14717793
-0.3019755
0.97230613
0.8271558
0.81821525
-0.26568496
-0.6666652
-0.7824122
0.0029343367
0.83638597
0.7668561
0.6086892
0.9671625
-0.88937235
-0.10439408
-0.4922266
0.051382065
0.9969094
0.9772582
0.22198844
-0.17901921
0.04803419
0.4883386
-0.5870609
-0.16801035
0.3981738
0.67201257
0.72244906
-0.69048285
-0.7400218
-0.8926507
-0.24723399
-0.7507107
0.44719493
0.5448067
-0.030358315
-0.8154125
0.8000461
0.7133825
-0.61264944
0.62900984
0.9102955
0.88483834
-0.12753427
-0.6912997
0.2741871
-0.9434142
-0.34400177
0.3160678
-0.8272698
0.5954213
0.16545737
-0.38811052
0.57494414
0.008766413
0.9798901
0.5166229
0.22164881
0.6491152
-0.121335626
-0.61141086
0.97247684
0.11296761
-0.6884531
-0.7085118
0.34049356
0.9008286
-0.21735716
-0.40718114
0.90691745
-0.3756523
-0.36059964
-0.124239564
0.66894555
-0.7239535
0.52177274
0.83876765
-0.85112965
0.44330502
-0.4063213
-0.17038727
0.76105106
-0.9904643
-0.106771946
-0.074799776
0.12962902
0.031238317
0.35019815
-0.08222687
-0.9348304
0.8305843
0.78557837
0.8759308
0.1899519
0.6512933
0.49154627
0.0702889
0.8529067
0.77403843
0.6601403
0.7249454
-0.74399877
-0.9091109
-0.73946726
-0.7052463
0.5402082
0.6420963
0.13983619
-0.426427
0.02331829
-0.60021687
0.7286736
-0.009744406
0.5723053
-0.9499725
0.26445997
0.80844116
-0.8855287
0.11687446
-0.19713521
0.7558795
-0.91478014
0.4596882
-0.7221116
0.7927768
0.8732791
-0.039092064
0.70629454
-0.50832355
-0.58994627
-0.36209738
0.43191957
-0.17005956
0.46827865
0.024689913
0.5950297
0.35759044
0.15229797
-0.4275105
0.22305775
-0.25308812
0.8003713
0.13937938
-0.6903932
-0.014087319
-0.94307995
0.03690982
-0.27729237
0.05677235
-0.65565324
0.2648747
0.9113467
0.23540938
-0.8390039
-0.28478026
0.21787858
0.3330574
0.50125027
0.5142652
-0.38399804
0.7303474
-0.16082501
-0.9177866
0.24864197
-0.83481884
0.29832363
-0.26522756
0.012737513
0.44522333
0.26327622
0.079343796
0.31022668
-0.13703811
-0.6544819
0.4445603
-0.9556627
-0.32392573
0.52583694
0.035213947
-0.018227458
-0.060391665
0.84233963
-0.635759
-0.8750845
-0.118166685
0.21844184
-0.7498683
0.0504117
-0.6736499
-0.8739456
-0.21613514
-0.015691161
-0.9157369
-0.3908162
0.19742727
-0.68152213
-0.7417711
0.76205003
0.57062626
-0.64629126
0.782588
0.7296188
-0.6100663
0.21329343
-0.18060851
0.49940896
0.7494806
-0.55500984
0.66901433
0.66009414
0.6182343
-0.9368824
-0.75244474
0.5495206
0.2783103
-0.6734201
-0.1760869
-0.90665317
0.48798406
-0.040514708
0.27114367
-0.40717852
0.89123976
0.7615988
-0.4754845
0.8597796
-0.03318405
-0.5046977
-0.011078715
-0.32147932
-0.3018527
0.8494047
-0.6814525
-0.48615575
0.9970449
-0.65029323
0.10077953
0.7544297
0.60537624
0.89955163
0.5943121
0.3094716
-0.86141455
0.6848445
-0.34034145
-0.051213026
0.56210065
-0.6324289
0.52130175
-0.066492915
-0.3227955
0.6263486
0.9384154
-0.07677233
-0.8612448
-0.60512567
-0.059494972
0.21962452
-0.33357048
0.71845305
0.4917773
-0.37418175
-0.9916092
0.5204629
-0.44885218
-0.26879323
-0.032859564
0.17631173
0.042348504
-0.40466106
-0.47123015
-0.52997506
-0.42931283
0.5801983
-0.4929279
-0.9977672
-0.5690352
0.6027657
-0.18752956
0.5783894
0.9374558
0.13994825
0.70316136
-0.4108168
0.5455196
0.8631643
-0.5757793
0.36419475
-0.9195682
0.4135821
0.27287245
0.30405235
0.87871397
-0.6890199
0.15913594
-0.9489757
0.29818738
-0.26454973
-0.49365997
0.7248118
0.16401005
0.5039686
-0.76751137
0.41715014
-0.13085413
0.21172261
0.4793707
-0.30015743
-0.5996057
0.6057787
0.65108943
0.2564149
0.15786076
-0.15278852
-0.34195137
0.20434535
0.50038946
-0.4055314
-0.46168578
0.9456762
0.18709874
0.65901864
-0.121107936
-0.91211104
0.78207684
0.3539946
-0.25073624
-0.8603742
-0.586902
-0.7563753
-0.2157886
-0.76120746
-0.42527735
0.62798476
0.23949564
-0.5483142
-0.22855866
0.24254489
0.45052433
0.4351784
0.318928
0.9498706
0.34022212
-0.8699211
-0.54643154
-0.057299137
0.16858387
-0.79082847
0.7160516
0.61071754
0.34481907
-0.7989445
-0.6709732
0.85116696
0.11677909
-0.580135
-0.2820183
0.4858601
-0.3740536
0.3266524
0.44613922
0.49996638
0.015374303
-0.0876919
-0.5528377
0.11371374
-0.12046802
0.71225286
0.62384486
0.96511173
-0.24274993
-0.36608338
0.4981054
0.80489874
0.031324387
0.7995999
-0.2099526
-0.37490487
0.48151815
-0.113654375
0.49545193
0.75708306
-0.15632665
-0.80618525
-0.5731162
0.53755236
0.5895816
0.010003686
0.26996958
0.16070676
-0.6753496
0.29835474
-0.7490959
-0.5211607
0.7989173
0.7300298
-0.43729484
0.10302818
0.6685729
0.46974194
0.086230874
0.16977441
-0.5119418
0.636695
0.7788359
0.7126869
0.6464516
0.15427995
-0.21865499
0.50181973
-0.6930407
-0.1701703
0.98659563
-0.5657488
0.11683142
0.4318701
0.97522485
-0.31851804
0.31013024
0.62602043
-0.9070258
-0.4180199
-0.35804927
-0.3325733
-0.4638617
0.1267395
-0.284374
0.40895844
0.926723
0.39429772
0.071095586
-0.44171798
0.57647336
-0.32219136
-0.19881546
0.19746482
-0.17947757
0.69523966
0.39248037
-0.23363519
-0.91043675
0.22558308
-0.58049333
0.3123561
0.2079984
0.9664029
0.15693855
0.5368216
0.45954573
0.21459532
-0.852123
-0.3575443
0.7376015
-0.8573115
0.341159
-0.76985323
0.36287165
0.6433624
-0.8169744
-0.558303
-0.54580855
-0.23259974
0.64515996
-0.46722722
-0.08984387
-0.8365035
0.750335
0.33340514
0.71049714
0.2770208
0.9081422
-0.738533
0.26964545
0.6699747
0.017199278
0.2544831
-0.35554945
0.13325715
-0.4211825
0.1397667
-0.5313517
-0.62152123
0.2835461
-0.5586287
-0.70527804
0.27971125
0.9907627
